"# weights_clifford_layer.weight - Shape: torch.Size([128, 128])"
# Dtype: torch.float32
# Device: cpu
# Exported: 2025-10-26T18:09:44.288167

dim_0,dim_1,dim_2,dim_3,dim_4,dim_5,dim_6,dim_7,dim_8,dim_9,dim_10,dim_11,dim_12,dim_13,dim_14,dim_15,dim_16,dim_17,dim_18,dim_19,dim_20,dim_21,dim_22,dim_23,dim_24,dim_25,dim_26,dim_27,dim_28,dim_29,dim_30,dim_31,dim_32,dim_33,dim_34,dim_35,dim_36,dim_37,dim_38,dim_39,dim_40,dim_41,dim_42,dim_43,dim_44,dim_45,dim_46,dim_47,dim_48,dim_49,dim_50,dim_51,dim_52,dim_53,dim_54,dim_55,dim_56,dim_57,dim_58,dim_59,dim_60,dim_61,dim_62,dim_63,dim_64,dim_65,dim_66,dim_67,dim_68,dim_69,dim_70,dim_71,dim_72,dim_73,dim_74,dim_75,dim_76,dim_77,dim_78,dim_79,dim_80,dim_81,dim_82,dim_83,dim_84,dim_85,dim_86,dim_87,dim_88,dim_89,dim_90,dim_91,dim_92,dim_93,dim_94,dim_95,dim_96,dim_97,dim_98,dim_99,dim_100,dim_101,dim_102,dim_103,dim_104,dim_105,dim_106,dim_107,dim_108,dim_109,dim_110,dim_111,dim_112,dim_113,dim_114,dim_115,dim_116,dim_117,dim_118,dim_119,dim_120,dim_121,dim_122,dim_123,dim_124,dim_125,dim_126,dim_127
-0.06816060841083527,0.008034699596464634,0.07459259033203125,-0.02342328615486622,-0.07308539003133774,-0.09070505201816559,-0.07653698325157166,0.015496106818318367,-0.06684952974319458,0.030330248177051544,-0.050880394876003265,0.08432301878929138,0.045759279280900955,0.049606334418058395,-0.03779089078307152,-0.03057861514389515,-0.031198877841234207,-0.06684859842061996,-0.008104154840111732,-0.07863952219486237,-0.07566260546445847,-0.05472975969314575,-0.006144655402749777,-0.015085832215845585,0.06958122551441193,0.06808697432279587,0.07088645547628403,-0.0394899919629097,-0.002972658257931471,-0.027298392727971077,0.090146005153656,-0.004636894445866346,0.0524606928229332,-0.010185839608311653,-0.03137240931391716,-0.052189651876688004,0.04612019658088684,-0.05335213616490364,-0.05568322166800499,0.006358381826430559,0.05091847851872444,0.07103385776281357,0.07440804690122604,-0.05579238384962082,-0.0688299834728241,0.023926593363285065,-0.010122724808752537,0.07463975995779037,0.05540776997804642,-0.020948944613337517,-0.03076164983212948,-0.05626136064529419,-0.017103852704167366,0.060389939695596695,0.011936909519135952,-0.058054979890584946,0.08530035614967346,-0.03502950444817543,-0.031229455024003983,-0.06830865889787674,-0.05984843149781227,0.03666435182094574,-0.006039595231413841,-0.019845955073833466,-0.017247162759304047,0.0363948829472065,-0.03082350082695484,-0.02887757495045662,0.046182744204998016,-0.037725191563367844,-0.04061132296919823,0.042631298303604126,0.01892124116420746,-0.06385987997055054,0.024989714846014977,0.03364035114645958,0.00804450549185276,0.05171613767743111,0.049512021243572235,0.015992622822523117,0.055816229432821274,-0.052840039134025574,-0.0014926304575055838,0.011047294363379478,-0.07230763882398605,-0.012881637550890446,-0.08990295231342316,0.011516091413795948,0.009055852890014648,0.06031448394060135,0.08431701362133026,0.004786821082234383,-0.014865021221339703,0.036270543932914734,-0.024873176589608192,-0.01565658114850521,-0.04121721535921097,0.004306318704038858,-0.025348886847496033,0.08119121193885803,0.03339008241891861,0.010961527936160564,0.01989441178739071,0.014455010183155537,-0.0760606974363327,0.06964637339115143,0.044914647936820984,-0.07690603286027908,0.04495351016521454,0.008634313941001892,-0.04800298810005188,0.09162983298301697,-0.030344711616635323,-0.07538755238056183,0.012311792001128197,-0.012518140487372875,-0.0590505376458168,-0.024745121598243713,0.029180018231272697,-0.06953751295804977,-0.06164371222257614,0.030012469738721848,-0.0781257376074791,0.002224094932898879,-0.09298784285783768,-0.020984435454010963,-0.08429574966430664,0.017120059579610825
-0.004276130348443985,-0.02784031629562378,0.03876008093357086,0.07273681461811066,-0.05143086612224579,-0.009507523849606514,0.020957661792635918,-0.028079558163881302,-0.0786319151520729,0.07267032563686371,-0.062177855521440506,0.022111719474196434,0.07260775566101074,0.049649983644485474,0.030197199434041977,-0.015602712519466877,-0.03910308703780174,0.05893215164542198,0.08764125406742096,-0.05386321246623993,-0.05576265603303909,0.047497667372226715,-0.07320859283208847,0.0545557364821434,0.05961907282471657,-0.025403590872883797,-0.011943700723350048,-0.01886373944580555,0.00619468605145812,-0.013529403135180473,0.00887223333120346,0.010915090329945087,-0.06932860612869263,0.04454036056995392,0.06535881012678146,-0.07862748205661774,-0.0697481632232666,-0.01294373907148838,0.010362885892391205,-0.03102135844528675,0.04839017242193222,-0.020288730040192604,-0.048134997487068176,0.022697608917951584,-0.05209071934223175,0.06746428459882736,0.012420544400811195,0.059057582169771194,0.04761841148138046,0.07040324062108994,0.0466323159635067,-0.03287464380264282,-0.035510625690221786,-0.010184801183640957,0.07050396502017975,0.0706588625907898,0.031220924109220505,-0.08871862292289734,0.06274919956922531,0.012889993377029896,0.038286495953798294,-0.0030863515567034483,-0.088884636759758,0.06986658275127411,0.0796126127243042,-0.09611379355192184,-0.009281518869102001,0.022726569324731827,-0.08618554472923279,-0.07646597921848297,-0.044483382254838943,0.02796287089586258,-0.04394274204969406,-0.03841821476817131,0.007802567444741726,0.04673048481345177,0.0043638357892632484,0.011375308968126774,0.033408816903829575,0.08555731922388077,-0.045006852596998215,-0.012834933586418629,-0.07757555693387985,0.009856426157057285,0.022415192797780037,0.01378550659865141,-0.08512336760759354,-0.018711784854531288,-0.00928324181586504,0.02203110046684742,0.07959506660699844,0.060729019343853,-0.05634579807519913,0.08234664797782898,0.09391412138938904,-0.04795272648334503,0.04068009555339813,-0.04597528278827667,-0.061906587332487106,-0.05521673709154129,0.06898821145296097,-0.014049345627427101,0.03797637298703194,0.09147439897060394,0.013577526435256004,0.08208883553743362,0.011278891935944557,0.04247426986694336,0.07772881537675858,0.034329596906900406,-0.027393994852900505,0.02912883646786213,-0.007527320180088282,-0.06737910956144333,-0.010180095210671425,0.06500143557786942,-0.014958089217543602,-0.017781028524041176,-0.0032581938430666924,-0.07756014913320541,0.09570006281137466,0.04048704728484154,0.08815229684114456,0.017757480964064598,-4.462752258405089e-06,0.07523131370544434,-0.03070760704576969,-0.06249619647860527
0.006366113666445017,0.04574495926499367,0.07679711282253265,-0.05284455791115761,0.050990112125873566,-0.08594991266727448,0.016064472496509552,0.06982968747615814,-0.031618040055036545,-0.048355747014284134,-0.028677310794591904,-0.07709268480539322,0.046336669474840164,0.07193602621555328,-0.023072034120559692,0.08269287645816803,0.012489857152104378,-0.07894452661275864,0.036141280084848404,-0.028740214183926582,0.043693188577890396,0.038771871477365494,0.0736687034368515,0.0781686082482338,0.009625086560845375,0.07362926751375198,-0.04772273451089859,-0.05708926171064377,-0.03186311572790146,0.07665671408176422,0.020764261484146118,-0.0499337762594223,-0.0429040789604187,-0.09115447103977203,-0.05646586790680885,0.008703349158167839,0.0542987659573555,0.02240309864282608,0.04066673666238785,-0.032646022737026215,-0.03835228830575943,-0.06884149461984634,0.0819067656993866,0.066899374127388,0.01307607814669609,0.046104591339826584,-0.05047007277607918,-0.01300680823624134,-0.012447369284927845,0.054355598986148834,-0.040772806853055954,0.08558908104896545,0.053899094462394714,0.021332237869501114,0.06905247271060944,0.0252909567207098,-0.0710316076874733,-0.07695917785167694,-0.06141211465001106,0.08041168749332428,0.006686830893158913,-0.030825840309262276,0.060420550405979156,0.054338082671165466,-0.02940226159989834,0.072050079703331,-0.02922738343477249,-0.04196136072278023,-0.038575369864702225,0.01909532956779003,-0.07781144231557846,-0.046689026057720184,-0.0721563845872879,0.04242728650569916,-0.09017925709486008,0.016972824931144714,0.057315580546855927,-0.0753091499209404,0.008241148665547371,-0.0477604977786541,0.05980150029063225,-0.09171059727668762,0.06611793488264084,0.06995833665132523,0.0016113703604787588,-0.004110615234822035,0.05761823430657387,0.040621306747198105,0.0548764243721962,-0.0925101786851883,0.06572290509939194,-0.0627342164516449,0.016345318406820297,-0.022134454920887947,0.0036612977273762226,0.01880251057446003,0.013728967867791653,0.007187532261013985,0.05286227539181709,0.06344006210565567,0.03249356895685196,-0.05615701526403427,-0.036008499562740326,0.03593679890036583,0.05388490855693817,0.03736260160803795,0.03801608458161354,0.07027865201234818,0.049286164343357086,0.01920936442911625,-0.035318773239851,-0.020453933626413345,-0.011691357009112835,-0.08877845108509064,0.004248922690749168,0.05457063391804695,-0.07312828302383423,0.01636752299964428,-0.06366632133722305,-0.061573512852191925,-0.007960600778460503,-0.0941806510090828,-0.08180063217878342,0.05394095927476883,-0.0030240656342357397,0.024124547839164734,-0.06420668214559555,-0.0064375139772892
0.02063913457095623,-0.06744310259819031,-0.057414185255765915,-0.009534148499369621,-0.01947541907429695,-0.06747250258922577,-0.043091580271720886,0.0016649106983095407,0.0762387067079544,-0.04793521389365196,0.0280020572245121,-0.010888262651860714,0.0688454657793045,0.0518757589161396,-0.0221038069576025,0.009559099562466145,-0.09054286032915115,-0.06341905891895294,-0.06301872432231903,0.08295775949954987,0.0330716110765934,0.08165943622589111,0.021511586382985115,0.03432782366871834,0.01618015207350254,-0.03158555179834366,0.07880193740129471,0.05586666613817215,0.035041097551584244,-0.037446796894073486,-0.08879253268241882,-0.03205901011824608,-0.0701843798160553,0.0003720461390912533,-0.036485977470874786,0.018167702481150627,-0.02502070739865303,-0.04475904628634453,0.02894851565361023,0.05777494236826897,0.04013422876596451,-0.015450623817741871,-0.014114657416939735,-0.038461413234472275,0.06786547601222992,0.08814659714698792,-0.08669035881757736,0.002463516779243946,0.019384510815143585,-0.008679727092385292,-0.05118532478809357,0.002233937382698059,-0.07127422839403152,0.07731396704912186,0.05958182364702225,0.06826668232679367,0.05738108605146408,-0.0007722073933109641,0.024391666054725647,-0.06358147412538528,-0.028675546869635582,-0.07778628915548325,-0.012743097729980946,-0.07611849904060364,-0.0479859784245491,-0.07453928887844086,-0.03393174707889557,-0.07015516608953476,0.0008430752786807716,0.020375512540340424,0.060867853462696075,0.012016874738037586,-0.04565133526921272,0.061373304575681686,0.00653867656365037,-0.07607408612966537,-0.007300978992134333,0.07423815131187439,-0.051547594368457794,-0.07080812007188797,0.028193024918437004,0.07680414617061615,-0.07282359153032303,0.06625430285930634,-0.07261966913938522,0.05731276050209999,0.07177797704935074,0.07917805761098862,-0.002561860252171755,0.012450131587684155,-0.08048010617494583,-0.07736077904701233,0.06995848566293716,0.034093327820301056,0.021637961268424988,-0.01455229613929987,-0.03774404898285866,-0.0029671713709831238,0.011097647249698639,0.043254487216472626,0.009050539694726467,-0.055405646562576294,0.005013248883187771,-0.054797492921352386,-0.07054287195205688,-0.011988644488155842,-0.02390941232442856,0.08514460176229477,0.07557572424411774,0.058615792542696,-0.0743364542722702,0.036902330815792084,0.03817826882004738,-0.021493367850780487,0.07780177146196365,-0.030581790953874588,0.037156932055950165,0.044363465160131454,0.02823059633374214,0.08545707166194916,-0.09545648097991943,0.039515409618616104,-0.009461925365030766,-0.06901043653488159,0.0947645902633667,0.09074587374925613,0.08896014094352722,-0.020955348387360573
-0.002840770408511162,0.06456492841243744,0.024327663704752922,0.07084085792303085,0.04504333809018135,-0.012457180768251419,0.023439034819602966,-0.0003008351195603609,0.05831584334373474,-0.07289722561836243,0.08251786231994629,-0.035160887986421585,0.07536174356937408,-0.01218685507774353,0.01930561289191246,0.05674316734075546,-0.07806462794542313,-0.07814783602952957,0.00353757431730628,-0.07404369115829468,0.059447284787893295,0.028324810788035393,0.059862930327653885,-0.040786512196063995,-0.018262654542922974,0.061950527131557465,0.08294207602739334,0.036077871918678284,0.0014720931649208069,-0.06644037365913391,-0.058886121958494186,0.020858274772763252,0.042115580290555954,-0.003528309054672718,0.06305507570505142,0.0303326603025198,0.08213759958744049,-0.008648699149489403,-0.005581223871558905,-0.072422094643116,-0.01819477416574955,-0.07849909365177155,-0.07068097591400146,-0.02891165018081665,-0.07554706186056137,-0.06363222002983093,0.016064180061221123,0.012020060792565346,0.024658428505063057,0.0691165179014206,0.012223741039633751,0.048498544842004776,0.037480298429727554,0.048966966569423676,0.07079032063484192,0.05772377923130989,0.06433318555355072,0.07479233294725418,0.010055900551378727,-0.02018839120864868,-0.06687607616186142,-0.03161483630537987,0.08597735315561295,0.07992221415042877,0.02670254372060299,-0.05239632725715637,-0.02404157631099224,-0.07301292568445206,0.07689124345779419,0.09658956527709961,0.003342753043398261,-0.055444665253162384,-0.07473915070295334,-0.04036129266023636,0.0419447086751461,0.005501449573785067,-0.04764646291732788,-0.08113802224397659,-0.01713034324347973,0.04460631683468819,0.0565808080136776,0.05506785586476326,-0.043672580271959305,-0.01729852519929409,0.046299561858177185,-0.0036117802374064922,-0.07821375876665115,-0.0489327535033226,0.018846670165657997,0.08639785647392273,-0.07846000790596008,0.07215062528848648,0.07410699129104614,-0.018343616276979446,-0.03071828931570053,0.02676362544298172,-0.02200099639594555,-0.003153765108436346,-0.08731506764888763,-0.049247607588768005,0.05846671387553215,0.032917581498622894,0.04184795171022415,0.03512771055102348,-0.04904143884778023,0.06201248988509178,0.07021381705999374,0.028981566429138184,-0.047545623034238815,-0.06615293025970459,0.054076340049505234,0.005238933488726616,0.045572906732559204,-0.04906526207923889,-0.045858513563871384,-0.056410130113363266,-0.030728016048669815,0.029332412406802177,-0.04151428863406181,0.07637235522270203,0.05369449034333229,0.0238505806773901,0.09533917158842087,0.04371871054172516,0.08553547412157059,0.02882016822695732,0.02505655214190483,-0.02092372439801693
0.023364106193184853,0.03561602532863617,0.07418371737003326,-0.06553498655557632,-0.04198194667696953,-0.01928091049194336,-0.07682474702596664,0.05855761840939522,0.02500309608876705,0.04665754735469818,-0.016417738050222397,-0.0014955984661355615,-0.030793726444244385,0.04809322953224182,-0.06171427294611931,0.0872594565153122,0.011402529664337635,-0.04413316026329994,0.02630910649895668,-0.054081667214632034,0.043970249593257904,-0.02667069062590599,-0.02537577971816063,0.023519767448306084,-0.017166759818792343,0.0736011490225792,-0.04467926174402237,0.007639079820364714,-0.00815664418041706,0.03447723761200905,-0.031045423820614815,0.025792600587010384,-0.077445849776268,0.01193429809063673,0.020457755774259567,0.025488179177045822,-0.06654535979032516,0.09064719825983047,-0.02134806290268898,0.06314931064844131,-0.06649145483970642,0.08638989925384521,-0.06049477681517601,0.002310132374987006,0.03526175394654274,-0.07697968930006027,0.0432925671339035,-0.0081478888168931,0.06477076560258865,0.02594272419810295,0.06292816251516342,-0.009942172095179558,0.025439098477363586,0.04213371500372887,-0.024174420163035393,0.019298676401376724,0.008234696462750435,-0.03748151659965515,0.007542124949395657,0.03612658381462097,-0.008783646859228611,-0.035919420421123505,-0.025483576580882072,-0.05378113314509392,-0.012761615216732025,-0.05999566987156868,0.05133137106895447,0.03266400471329689,0.03484366089105606,0.06423650681972504,-0.012048324570059776,0.0546213835477829,-0.05311691015958786,-0.02870311215519905,-0.05486084893345833,0.019947553053498268,-0.07019522041082382,-0.07336243242025375,-0.026724811643362045,0.02731187641620636,0.024980871006846428,0.06527937203645706,-0.05839681997895241,-0.00846328865736723,0.043512649834156036,0.031004756689071655,-0.040773846209049225,0.07543505728244781,0.039656031876802444,-0.03482573479413986,-0.08285877853631973,0.03193751350045204,0.05587364360690117,-0.021979190409183502,-0.019314752891659737,0.07901926338672638,-0.020391665399074554,0.05754774436354637,-0.04304265230894089,-0.03761732950806618,-0.006025331560522318,0.05822145193815231,0.06428518146276474,-0.03392207622528076,0.044204581528902054,-0.07552237808704376,0.07478854805231094,0.05615710839629173,-0.011748581193387508,-0.07161029428243637,0.08269277960062027,0.015698768198490143,-0.06491624563932419,0.060666825622320175,-0.09350822120904922,0.0523955337703228,-0.08292524516582489,0.07142505794763565,0.0255878996104002,0.026519186794757843,0.013561246916651726,0.06253030151128769,-0.042825717478990555,0.05886244773864746,-0.07209157198667526,-0.05061163753271103,0.04835420101881027,-0.028183910995721817
0.06445001065731049,-0.05416469648480415,-0.030960243195295334,-0.05782656371593475,0.0066922795958817005,-0.06803744286298752,-0.05523449555039406,0.021566418930888176,-0.03115815296769142,-0.056534938514232635,-0.008351864293217659,-0.03428514674305916,-0.027019180357456207,0.06915313005447388,0.060018185526132584,0.005458127241581678,0.09198466688394547,-0.025891747325658798,0.0460115410387516,-0.04972878098487854,-0.018736612051725388,-0.038808051496744156,0.05191607028245926,0.001390501274727285,-0.03605576232075691,0.021457044407725334,-0.008349848911166191,-0.0500526949763298,0.07849348336458206,-0.039810165762901306,-0.08490611612796783,0.046117525547742844,0.0271164458245039,-0.07608675956726074,0.07399293035268784,0.06175478547811508,-0.035316165536642075,-0.05845412611961365,-0.06314939260482788,0.06936965882778168,0.013026770204305649,-0.022494828328490257,-0.06952302157878876,-0.07788008451461792,-0.03386187553405762,0.012557066977024078,0.04773231968283653,0.06469254195690155,0.04522649943828583,0.08341957628726959,-0.015510011464357376,0.03778592869639397,-0.014393873512744904,0.07985016703605652,-0.019959954544901848,-0.0518513098359108,0.05701921135187149,0.002393039409071207,-0.05208968371152878,-0.06804139912128448,-0.00350353866815567,0.021428100764751434,0.04250572249293327,0.06980093568563461,-0.019414730370044708,-0.016294283792376518,-0.06707931309938431,0.044947437942028046,-0.0862334594130516,-0.03271676227450371,-0.03627579286694527,-0.04415507987141609,0.05379689112305641,-0.05763045325875282,0.05227337032556534,-0.033354755491018295,-0.059394460171461105,-0.043602194637060165,-0.023164669051766396,-0.042106036096811295,0.014008834026753902,0.01787509396672249,-0.004262503702193499,-0.03848477825522423,0.018339963629841805,0.008962818421423435,0.08002789318561554,0.04130769520998001,0.06300205737352371,-0.08082601428031921,0.013969202525913715,0.012219834141433239,0.017366202548146248,0.04354394972324371,-0.0717029869556427,-0.08576425909996033,0.033989645540714264,0.0798952728509903,0.03752759099006653,-0.03938944265246391,-0.027337968349456787,-0.022687800228595734,0.017205648124217987,0.06663266569375992,0.06539320200681686,0.027734629809856415,-0.009185793809592724,-0.016366874799132347,-0.06023247167468071,-0.03379309922456741,0.004181705415248871,0.06218177452683449,0.04027474671602249,0.03295523673295975,0.05854203552007675,0.008425203152000904,-0.04061416909098625,-0.04414086788892746,-0.008104735985398293,-0.044535234570503235,0.08568990975618362,-0.058171145617961884,0.05505555868148804,-0.056608896702528,0.009707657620310783,0.02262176387012005,0.013556266203522682,-0.03139800578355789
-0.009720458649098873,0.0025459034368395805,0.04355156794190407,0.07221303880214691,0.039921313524246216,-0.09189681708812714,0.05814264342188835,-0.04690224677324295,0.03191076219081879,0.009532621130347252,-0.007086499594151974,0.017027530819177628,0.009407754987478256,-0.041623376309871674,0.06051960587501526,-0.09459111094474792,0.08720002323389053,0.05797017365694046,0.003443195717409253,0.016750754788517952,-0.022069502621889114,-0.06049824878573418,-0.05929412692785263,0.025282256305217743,0.021878188475966454,-0.03563310205936432,-0.037276916205883026,0.07371680438518524,-0.07607340067625046,-0.07354001700878143,-0.011913254857063293,-0.06609352678060532,0.04844615235924721,-0.009347980841994286,0.015509409829974174,-0.04646001383662224,0.06391187757253647,0.025633959099650383,-0.059531230479478836,0.022922463715076447,-0.014963322319090366,0.08035982400178909,-0.08247451484203339,-0.04011692479252815,-0.020349347963929176,-0.008998782373964787,0.015445778146386147,0.03872540220618248,0.05194131284952164,0.044185396283864975,0.03688804432749748,0.0020119664259254932,-0.08485694229602814,-0.024341635406017303,0.010373208671808243,-0.07854712009429932,0.05167485028505325,0.0497920848429203,-0.0750584676861763,-0.05147251859307289,-0.019713446497917175,0.024395383894443512,0.027171829715371132,0.011724078096449375,0.043024368584156036,-0.010126466862857342,0.0037017788272351027,-0.05408019199967384,-0.013447838835418224,-0.0912010669708252,0.06097502261400223,0.05187788978219032,0.07730988413095474,0.0714673399925232,0.06662959605455399,-0.024141158908605576,-0.04614981263875961,-0.07294391840696335,-0.07065987586975098,0.04027048125863075,0.024849992245435715,-0.030937138944864273,0.05134812369942665,-0.088746577501297,-0.05851181596517563,-0.030580883845686913,0.004965269472450018,0.05310272052884102,0.039655011147260666,0.027922583743929863,-0.035065505653619766,0.04143926873803139,0.07246199250221252,0.04952219873666763,0.008808858692646027,0.08621441572904587,0.06236955523490906,-0.02161554992198944,-0.08286818116903305,-0.004848913289606571,0.01580941304564476,-0.032198887318372726,0.03644023463129997,0.0011965532321482897,-0.05279853567481041,-0.07932222634553909,-0.05860716104507446,-0.07330161333084106,-0.03195421025156975,-0.07371384650468826,0.06275678426027298,0.041248619556427,-0.03006328083574772,0.07060465216636658,0.08280600607395172,-0.0334286242723465,-0.007287338376045227,-0.06134244054555893,0.024541549384593964,-0.008141872473061085,-0.07771086692810059,0.027540331706404686,-0.011095630936324596,-0.09092825651168823,-0.0853036418557167,0.06789138168096542,-0.022290654480457306,-0.04107342287898064
0.04378052428364754,-0.06768997758626938,0.054354000836610794,0.0721634179353714,-0.0636252611875534,0.033131908625364304,-0.07035169750452042,0.020181220024824142,-0.010635081678628922,-0.016590561717748642,-0.019176576286554337,-0.04718443378806114,-0.026825662702322006,-0.028134213760495186,0.021718811243772507,0.03591654449701309,-0.06946448236703873,0.015461615286767483,-0.08809901028871536,-0.08899372071027756,-0.00670154532417655,0.0910857543349266,0.08072351664304733,0.04793339595198631,0.009783538989722729,-0.05082063749432564,0.052735064178705215,0.027570368722081184,-0.03215661644935608,0.008147183805704117,-0.059890955686569214,0.07924038916826248,-0.07597613334655762,0.04900427907705307,-0.013954217545688152,0.0645284429192543,0.09247419238090515,0.07448890060186386,-0.07276111096143723,0.07277589291334152,-0.030624041333794594,-0.011317710392177105,-0.0669913962483406,0.014581047929823399,0.030960172414779663,-0.021276088431477547,0.03283730894327164,-0.02538338303565979,-0.029003657400608063,0.056337133049964905,0.00011482613626867533,-0.031015459448099136,-0.03893274441361427,-0.07131078094244003,-0.07924313098192215,0.005712571553885937,-0.03276614472270012,0.07936497777700424,0.07884163409471512,-0.0066793086007237434,-0.07829773426055908,0.0686764195561409,-0.00022803322644904256,-0.08355496823787689,0.03903450071811676,0.05453212559223175,-0.08161409199237823,-0.009984008967876434,-0.05136222019791603,0.02597438544034958,0.08290968835353851,-0.06119652837514877,-0.048519108444452286,0.03886764869093895,-0.006365951616317034,0.039839714765548706,0.019260022789239883,-0.06821367889642715,-0.004967716988176107,0.005632328800857067,0.0488479919731617,0.07199305295944214,-0.09160784631967545,0.08200310915708542,0.07233084738254547,0.018772613257169724,0.02207627147436142,-0.026350421831011772,-0.06632440537214279,-0.008147485554218292,-0.051243558526039124,-0.03571325168013573,0.07826107740402222,0.030743630602955818,0.08314217627048492,-0.0492543950676918,0.021215170621871948,0.025933925062417984,0.025324491783976555,-0.0550624243915081,-0.06422173976898193,0.07181056588888168,0.08554346114397049,-0.020375266671180725,-0.044638052582740784,-0.04367979243397713,-0.08109898120164871,-0.03522149845957756,0.04735226556658745,-0.0008563363808207214,-0.039460331201553345,0.01852835901081562,-0.04321952536702156,0.07163220643997192,-0.04174988716840744,-0.003841891186311841,0.014268499799072742,-0.002616269513964653,0.01320371963083744,0.025209149345755577,-0.06547066569328308,-0.05603612959384918,-0.05477473884820938,0.015122742392122746,0.06328292191028595,-0.006369787734001875,0.02616233378648758,0.030964454635977745
-0.017536459490656853,0.053940095007419586,-0.07620533555746078,-0.0625666081905365,0.013222911395132542,-0.0007133572362363338,-0.04537807032465935,-0.007834093645215034,0.03526847064495087,0.05493372678756714,-0.07788368314504623,0.0018484117463231087,0.06243602931499481,-0.07136497646570206,-0.03884578496217728,0.08581063896417618,0.05715123191475868,0.03468649461865425,-0.014556540176272392,0.003601060016080737,-0.04218203201889992,0.03910535201430321,-0.037175893783569336,-0.0816979631781578,-0.06576280295848846,-0.01579863391816616,0.016577372327446938,-0.07786034792661667,-0.007137523032724857,0.04668647050857544,-0.041507016867399216,0.04763168841600418,-0.030263852328062057,0.015058108605444431,0.0268635805696249,-0.03075353428721428,0.03863150253891945,-0.06787867099046707,0.055681608617305756,0.04003947973251343,0.07108557224273682,-0.09610084444284439,0.04728848859667778,0.009138922207057476,-0.07554271817207336,0.0430712029337883,-0.04710892215371132,-0.0008617732673883438,-0.08780180662870407,-0.05894317477941513,0.01241256669163704,-0.08509530872106552,-0.0812455490231514,0.037212129682302475,0.05008500814437866,0.0649268701672554,-0.03277609124779701,-0.06934788823127747,-0.07376161217689514,-0.0502404123544693,0.057682327926158905,0.07896307855844498,0.009126882068812847,0.06849554181098938,0.057904914021492004,0.018445860594511032,0.06077323108911514,-0.04419931769371033,0.07204459607601166,-0.005081741139292717,-0.08881670236587524,-0.05458958074450493,0.06735460460186005,0.04005849361419678,0.011444812640547752,-0.03970332443714142,-0.022224023938179016,0.008180185221135616,-0.06292363256216049,0.0600840263068676,-0.011861130595207214,-0.02941356971859932,0.052874546498060226,0.007934766821563244,0.0404820591211319,-0.0768069475889206,0.03941977769136429,-0.007382051553577185,0.04239898547530174,-0.08533679693937302,0.02051740325987339,0.06758077442646027,-0.0822889506816864,0.0311682540923357,0.016402166336774826,-0.06733353435993195,-0.023170795291662216,-0.06373195350170135,0.04020959511399269,-0.09539128839969635,0.008648923598229885,-0.03570668026804924,0.08138924092054367,-0.07169507443904877,-0.06209449842572212,0.005582824815064669,-0.09419293701648712,0.050898708403110504,-0.0098075857385993,0.058637507259845734,0.019843140617012978,-0.013996478170156479,0.06807714700698853,-0.014245262369513512,0.04413386434316635,-0.024782098829746246,0.036451444029808044,-0.08220851421356201,0.08663330972194672,0.0023093358613550663,-0.020265396684408188,-0.0018794393399730325,-0.04639716446399689,-0.030570968985557556,0.038284484297037125,0.048061907291412354,0.005056747235357761,0.01640317216515541
0.005560352001339197,-0.07866976410150528,-0.009306046180427074,0.07922091335058212,0.010931643657386303,-0.05870254710316658,0.035318054258823395,0.02145526371896267,-0.005066081415861845,-0.05302107706665993,-0.0789320170879364,-0.04007039964199066,-0.006264569237828255,-0.00730793597176671,-0.06521065533161163,-0.07603836804628372,-0.003444353584200144,0.07209911942481995,0.04166915640234947,-0.006176570896059275,0.03518693149089813,0.03872014209628105,-0.08061476051807404,0.023901918902993202,-0.05284132808446884,0.0649421438574791,0.023508569225668907,0.058076851069927216,-0.014066747389733791,0.05604429915547371,0.0202860776335001,0.09074078500270844,-0.04206603392958641,-0.06447313725948334,-0.028614604845643044,-0.05427085980772972,0.05258123204112053,0.07256972044706345,0.021221745759248734,0.04939553141593933,-0.07431480288505554,0.03597073629498482,0.05179961025714874,-0.07874809950590134,-0.022512834519147873,-0.0017999964766204357,0.048426635563373566,0.012218067422509193,-0.024116061627864838,-0.057098060846328735,0.06489923596382141,-0.021246539428830147,-0.05266010761260986,0.03870123624801636,0.05889979749917984,0.05750946328043938,-0.07207759469747543,0.08184666186571121,-0.06560815125703812,-0.06444471329450607,0.02633245848119259,-0.04987213760614395,-0.07612261176109314,0.002579308580607176,-0.031049657613039017,-0.07435549050569534,0.0845043957233429,0.08174286037683487,-0.032814864069223404,0.08058609813451767,0.034082308411598206,0.03909697011113167,-0.03122449293732643,-0.08475124835968018,0.011561120860278606,0.05262947455048561,-0.045057713985443115,-0.06404820084571838,-0.05111878737807274,-0.0544530414044857,0.05608706921339035,0.04006657749414444,-0.0647345632314682,0.065166175365448,-0.06631714850664139,-0.059065431356430054,-0.08058685064315796,0.009661217220127583,-0.039587438106536865,-0.09536705166101456,0.022657077759504318,0.05165804550051689,-0.051303666085004807,0.013622359372675419,-0.04693297669291496,-0.04708772525191307,0.026550473645329475,-0.020033935084939003,0.028778256848454475,-0.006961681880056858,0.026071785017848015,-0.03743969276547432,0.03656693547964096,-0.0014884411357343197,0.019398793578147888,0.06999775767326355,-0.05079277232289314,0.06601882725954056,-0.0650089830160141,-0.05247088894248009,0.048773739486932755,-0.04595001041889191,-0.05931496620178223,0.05820220336318016,0.09178630262613297,0.0865616425871849,-0.0371333546936512,0.0832790955901146,-0.0157453790307045,0.0017776982858777046,-0.008257666602730751,-0.01189401838928461,-0.025759629905223846,0.0351136215031147,-0.06397459656000137,0.04816565662622452,0.02187338098883629,-0.05884283781051636
-0.0391584150493145,-0.08780357241630554,-0.07145461440086365,-0.04871571063995361,0.04810759425163269,-0.05650392174720764,-0.06705120205879211,0.07877275347709656,-0.0228774081915617,-0.08738473057746887,0.048853203654289246,-0.02953396923840046,0.06320197880268097,-0.08364027738571167,-0.05713532865047455,0.002869287971407175,0.017136165872216225,-0.024162402376532555,0.07962720096111298,0.0948009043931961,0.07667499035596848,0.006665940862149,-0.0891876295208931,-0.07032281160354614,-0.044228702783584595,-0.001512166578322649,-0.011886420659720898,-0.049964189529418945,0.0590771846473217,0.06911961734294891,-0.012315942905843258,-0.08157658576965332,-0.008772681467235088,-0.05006304383277893,0.025222327560186386,-0.01359599456191063,-0.0799964964389801,0.04370981827378273,0.09347712248563766,0.08292093127965927,0.02276143617928028,-0.054540954530239105,0.02122730016708374,0.08625391870737076,0.05385743826627731,-0.029339905828237534,0.07301263511180878,0.05870230123400688,-0.014902016147971153,0.0196012482047081,0.008449365384876728,0.0777154415845871,-0.08571212738752365,-0.03528320789337158,0.02909383736550808,-0.08856648206710815,-0.03908992186188698,0.04624909535050392,-0.08180990070104599,-0.03155389800667763,0.07199107855558395,-0.005646887235343456,0.071933314204216,-0.05298207327723503,0.06870674341917038,0.07785432785749435,-0.0053163375705480576,-0.05438114330172539,-0.023086927831172943,0.07303787022829056,-0.07615509629249573,-0.023836540058255196,-0.06492578983306885,-0.04187754541635513,-0.052429698407649994,0.02619663067162037,0.02423802949488163,-0.02439505234360695,-0.010884224437177181,-0.0594187006354332,0.03689698129892349,-0.07663135230541229,0.06550652533769608,-0.056529730558395386,-0.012055703438818455,0.058070454746484756,0.008039622567594051,-0.0553475096821785,0.0005576313706114888,-0.056086696684360504,0.011223469860851765,0.01574082113802433,0.03362478315830231,0.06325230747461319,0.05243786424398422,-0.01931794174015522,0.0014855524059385061,-0.05733335390686989,0.023792291060090065,-0.005388111341744661,0.013301786035299301,-0.015671204775571823,0.06037518382072449,0.02435256540775299,0.02850322797894478,-0.03451192378997803,-0.04186459630727768,0.07041298598051071,0.036128509789705276,-0.06978088617324829,-0.012114113196730614,-0.033785682171583176,-0.07182111591100693,-0.060406725853681564,0.06440851837396622,-0.05726836994290352,-0.026825690641999245,0.07665995508432388,-0.0636519119143486,-0.0393390916287899,-0.03008667379617691,-0.05232949182391167,-0.011263345368206501,0.00847187265753746,-0.030088232830166817,0.030660416930913925,-0.07779500633478165,0.0736047774553299
-0.02723667025566101,-0.023655015975236893,0.008748374879360199,-0.025662221014499664,-0.06706994771957397,-0.09072726219892502,0.013385447673499584,-0.03519517183303833,-0.030024705454707146,-0.014764399267733097,0.06303279101848602,-0.0908973291516304,-0.05997898429632187,0.017028965055942535,-0.05166829004883766,0.013390089385211468,-0.07598123699426651,0.07407337427139282,-0.07165619730949402,0.03097653016448021,-0.06337621808052063,0.018560713157057762,-0.07843464612960815,0.04273464158177376,-0.05281528830528259,0.07825600355863571,0.010869943536818027,-0.06964215636253357,-0.03044957108795643,-0.07456613332033157,-0.002276292070746422,-0.06864161044359207,0.08971729129552841,-0.02376474253833294,-0.04505953937768936,-0.011622232384979725,-0.015363749116659164,0.06550783663988113,-0.02837092988193035,0.062469422817230225,0.04820960387587547,0.03943297639489174,-0.08210401982069016,0.023826591670513153,0.03783155232667923,-0.07219404727220535,0.031138749793171883,0.019478242844343185,-0.05792279168963432,0.05446401983499527,0.022331111133098602,-0.08669043332338333,0.037609171122312546,-0.09373161941766739,-0.0689401626586914,0.030478285625576973,0.06766028702259064,-0.07645013928413391,0.0378805473446846,0.003540106350556016,-0.0043368954211473465,0.05056663230061531,-0.04678560420870781,0.027468547224998474,0.055722035467624664,-0.06485025584697723,-0.03858749940991402,0.02537582814693451,-0.08176347613334656,-0.07798775285482407,-0.023280872032046318,0.022905444726347923,-0.05739946290850639,0.040898531675338745,-0.019911933690309525,0.08665770292282104,0.03984633460640907,-0.06893343478441238,-0.04501408711075783,0.012363793328404427,-0.009364024735987186,-0.045035868883132935,-0.02989485301077366,-0.04509459808468819,-0.03286746144294739,-0.05562102422118187,-0.019677210599184036,0.026372326537966728,-0.05107812210917473,0.05702567473053932,-0.01788041926920414,0.07902957499027252,-0.0687951147556305,-0.018359143286943436,-0.06362999230623245,-0.05610149726271629,-0.0455530621111393,-0.035630013793706894,0.027318673208355904,-0.018465116620063782,-0.028726765885949135,0.08806939423084259,0.021656593307852745,0.054897405207157135,-0.029654541984200478,0.09169317781925201,0.08180715888738632,0.008994629606604576,-0.02322535403072834,0.01532103680074215,0.02593989484012127,-0.00383393163792789,0.004822414368391037,-0.046873580664396286,-0.06253340095281601,-0.062455832958221436,-0.043216150254011154,-0.018583443015813828,0.05145694687962532,-0.0815390795469284,-0.00789286196231842,0.073957160115242,-0.029984792694449425,0.03181367740035057,-0.07400056719779968,0.037475209683179855,0.01243901439011097,0.003403804264962673
-0.06331074237823486,-0.016292426735162735,0.07043418288230896,0.07594414055347443,0.06809200346469879,-0.005050987936556339,0.018700404092669487,0.03960011526942253,-0.017217904329299927,0.03878706693649292,-0.06661021709442139,-0.09657291322946548,-0.09663385897874832,-0.006580601446330547,-0.07257262617349625,0.05818649008870125,-0.035924866795539856,0.09218475967645645,-0.08955631405115128,-0.08008977025747299,-0.0025300560519099236,-0.036412231624126434,-0.04925050958991051,-0.05004844442009926,-0.02797079272568226,-0.03182753920555115,-0.009487887844443321,0.017221925780177116,0.03815898299217224,0.04148205369710922,-0.006936062593013048,-0.03698936477303505,0.008832409977912903,0.08996746689081192,-0.06847840547561646,-0.04111742228269577,0.039397869259119034,0.0027468313928693533,0.05318516865372658,-0.05090390145778656,-0.03006521798670292,-0.022110311314463615,-0.05346457660198212,0.0341058149933815,-0.06507810205221176,0.05189816653728485,-0.055005718022584915,-0.06202365458011627,0.0013541041407734156,0.024090098217129707,-0.01224969606846571,-0.06056826934218407,-0.08692603558301926,-0.010162455961108208,-0.0360184945166111,0.06752786040306091,-0.0632404163479805,-0.06832944601774216,-0.05678171291947365,-0.048786524683237076,-0.08397648483514786,-0.05464634299278259,0.07568395137786865,-0.08101216703653336,-0.07815660536289215,0.060157909989356995,-0.05355307459831238,-0.05062897130846977,-0.061844125390052795,-0.012065154500305653,0.0226739514619112,-0.03265703469514847,-0.01629280112683773,0.08288585394620895,0.06677122414112091,0.00048667239025235176,0.025867920368909836,-0.016170302405953407,0.0027807303704321384,0.07362012565135956,0.05130906403064728,-0.012003540992736816,0.010006402619183064,0.034190550446510315,-0.0346556194126606,-0.026534195989370346,-0.012282036244869232,-0.013704946264624596,-0.08433999121189117,-0.061946745961904526,-0.026305368170142174,0.07953912019729614,-0.003913713153451681,0.05046578496694565,0.020996632054448128,-0.039584722369909286,-0.04188941419124603,-0.02133411169052124,0.03869922459125519,0.011110534891486168,0.03816251456737518,-0.04392147436738014,0.03588584065437317,-0.08606164902448654,-0.006983596831560135,0.09400271624326706,-0.003890391904860735,-0.024638375267386436,-0.010298076085746288,0.030486371368169785,0.04174081236124039,-0.036169860512018204,0.011305993422865868,0.0230286605656147,-0.007149134762585163,0.01162980031222105,0.039751697331666946,-0.060951534658670425,-0.053908463567495346,0.058131538331508636,-0.06557141989469528,0.09060502052307129,-0.07245425134897232,-0.05785617604851723,0.05054906755685806,0.07527291029691696,-0.05445240065455437,0.06151781976222992
0.03555632010102272,0.029627187177538872,-0.0063497452065348625,-0.013047022745013237,0.030765827745199203,0.057808633893728256,-0.09161939471960068,-0.02953728474676609,-0.026652183383703232,-0.02730252966284752,-0.060902420431375504,-0.054882414638996124,0.0416920967400074,-0.037115223705768585,-0.060996510088443756,0.08483932912349701,-0.0021621088963001966,0.011810100637376308,-0.04171561077237129,-0.028009740635752678,-0.012533586472272873,0.01545761153101921,-0.031775761395692825,-0.006700815632939339,0.06129322946071625,-0.05006564408540726,0.011442350223660469,0.06557861715555191,0.007800866384059191,0.06696803867816925,0.03566162660717964,0.025987697765231133,-0.08322220295667648,0.04368984326720238,0.052328091114759445,-0.08021929115056992,0.06684062629938126,-0.08621147274971008,0.03076884150505066,-0.04864294454455376,-0.054721400141716,0.04951507970690727,0.043544869869947433,0.03920809179544449,-0.007702023722231388,-0.09424254298210144,0.0552176833152771,0.034352075308561325,-0.05217311158776283,0.0629625916481018,0.03210342675447464,-0.006826950237154961,-0.06353149563074112,0.02773100696504116,-0.07504027336835861,0.07216775417327881,-0.016932649537920952,0.051606111228466034,-0.09151696413755417,-0.023938637226819992,-0.030582107603549957,-0.06884832680225372,0.07641921192407608,0.03952595219016075,-0.07492515444755554,-0.04431978613138199,-0.0953265056014061,0.07537086308002472,0.07578781992197037,0.0012958140578120947,-0.00960017740726471,0.03055623732507229,-0.00857034232467413,0.036673299968242645,0.03401713818311691,0.08236315101385117,-0.02810254506766796,-0.026995815336704254,-0.042287055402994156,-0.014625133015215397,-0.06142662838101387,0.03076818957924843,-0.023250775411725044,0.04718239977955818,0.05928920581936836,0.008278707973659039,-0.04557528346776962,0.010112741962075233,0.01934167742729187,0.036242518573999405,-0.05407654494047165,0.035899847745895386,-0.027538996189832687,-0.06559959053993225,-0.0864458978176117,-0.046814680099487305,-0.0726243257522583,-0.07585396617650986,0.04368455335497856,0.06825892627239227,0.024388199672102928,0.08959352970123291,0.048883162438869476,-0.04823295772075653,-0.03936488553881645,0.06872303783893585,-0.05103809013962746,0.05535857006907463,0.07658462226390839,0.0040543098002672195,-0.092378631234169,-0.05960652977228165,0.07171768695116043,0.040319036692380905,-0.018787117674946785,-0.04586731269955635,0.017008474096655846,0.048694856464862823,-0.03541235253214836,0.06538958847522736,-0.055577389895915985,0.05256994441151619,0.03465960919857025,0.027089912444353104,0.037661708891391754,0.00032863504020497203,-0.08006731420755386,-0.05963814631104469
-0.006792998872697353,-0.07076988369226456,-0.011635437607765198,0.013443290255963802,-0.08370406180620193,0.09356227517127991,0.08570237457752228,0.014355571009218693,-0.054456181824207306,0.07166741043329239,0.07194337248802185,0.07290509343147278,0.03262350708246231,-0.04210292920470238,-0.04973411187529564,0.0003231082810088992,0.08921623975038528,-0.08247354626655579,-0.06654121726751328,-0.05101057142019272,0.01827927492558956,0.053836923092603683,-0.0008655140991322696,0.01748659648001194,0.08472024649381638,-0.006824071053415537,-0.04467582702636719,-0.044739410281181335,-0.02463040128350258,-0.015890125185251236,0.08222812414169312,-0.049500755965709686,0.03363795205950737,0.009704304859042168,-0.008859970606863499,0.08292699605226517,0.030059857293963432,0.03622323274612427,-0.06524354964494705,0.04346957802772522,-0.06625933200120926,-0.030747896060347557,0.0852169319987297,-0.014115506783127785,0.08529182523488998,0.0916859433054924,0.08383555710315704,-0.004955037031322718,0.05611918866634369,0.030390828847885132,0.0948701873421669,-0.03596922755241394,-0.045568957924842834,0.03018186241388321,0.04915283992886543,0.042120546102523804,-0.02601255103945732,0.010455804876983166,0.031094584614038467,0.0004508032579906285,0.0055588241666555405,-0.0388791598379612,0.02952345833182335,-0.016927238553762436,0.08249194175004959,-0.08870695531368256,0.07820244133472443,-0.04729936644434929,-0.06385302543640137,0.028934482485055923,0.04839572310447693,-0.05410587415099144,0.04467443749308586,0.07861504703760147,0.025548668578267097,-0.05149880051612854,0.027820033952593803,0.08797057718038559,0.023058971390128136,-0.0031699116807430983,-0.05950101837515831,0.001232837326824665,0.04699383303523064,-0.06369921565055847,-0.017214542254805565,-0.053176216781139374,-0.029720939695835114,0.03201454132795334,0.03467254340648651,0.029660634696483612,-0.005731189623475075,0.0009965237695723772,-0.00125486112665385,-0.007645608391612768,-0.007222401909530163,-0.008286884985864162,0.0836930200457573,-0.01639660634100437,-0.06454629451036453,-0.07961250841617584,-0.06835456192493439,-0.012379414401948452,-0.051699284464120865,0.08278612047433853,0.09184809774160385,0.03824020177125931,0.0875425711274147,0.00855278316885233,0.0674932450056076,0.05737348273396492,-0.0338393896818161,-0.07230867445468903,0.07138620316982269,-0.01827150583267212,-0.035454265773296356,0.06931781023740768,-0.06770586967468262,-0.022652631625533104,0.07789041101932526,-0.08719881623983383,-0.009464111179113388,0.04965297132730484,-0.04842256009578705,0.060396354645490646,-0.047416411340236664,0.07319598644971848,0.08837626874446869,0.08287603408098221
0.05140647292137146,0.0279392059892416,0.08168591558933258,0.011131765320897102,-0.020277921110391617,0.0041701351292431355,-0.03510609269142151,-0.045248232781887054,-0.08670926839113235,-0.008138141594827175,0.07525242865085602,0.02695186622440815,-0.06816720962524414,0.0534232035279274,0.07057781517505646,-0.015110502019524574,-0.00897196028381586,-0.005507397931069136,-0.029622362926602364,-0.01455049216747284,-0.0834137350320816,-0.06281547248363495,-0.06934564560651779,0.07811496406793594,-0.05847657099366188,0.01794068142771721,0.009514261037111282,0.04582231491804123,0.08128678053617477,0.07568112760782242,-0.0893670916557312,-0.09254468232393265,0.06576121598482132,-0.09092763811349869,0.06229504197835922,-0.020981421694159508,-0.05470699071884155,0.03851011395454407,-0.06715814024209976,-0.08755617588758469,-0.06272086501121521,-0.08365502208471298,0.06660235673189163,-0.007459464017301798,-0.06427307426929474,-0.05938386917114258,-0.022427095100283623,0.04027243331074715,-0.0050970641896128654,-0.07041361182928085,-0.0942857563495636,-0.036861322820186615,-0.0879865437746048,-0.05098733305931091,0.017459407448768616,-0.07225865870714188,-0.014055291190743446,-0.00741232605651021,-0.04271949082612991,-0.04711810499429703,-0.06360510736703873,0.0726098045706749,-0.07332106679677963,-0.07390126585960388,-0.06617371737957001,0.0007171732140704989,0.05913930386304855,0.04911380633711815,0.035890642553567886,0.07193692773580551,0.021848708391189575,0.03553779423236847,-0.04104536026716232,0.036864254623651505,0.08073825389146805,-0.006785881239920855,0.013272354379296303,-0.04925732687115669,-0.057870231568813324,-0.04330286383628845,0.048093032091856,0.0002397774951532483,0.022874178364872932,-0.019817592576146126,-0.05484031140804291,0.07344458252191544,0.0710650086402893,0.05067669227719307,0.07119924575090408,0.03328673541545868,0.047739870846271515,0.06722567975521088,-0.054369185119867325,0.002018720842897892,0.028629008680582047,-0.016620486974716187,0.06356826424598694,0.07335571944713593,0.04881848022341728,-0.05432332679629326,0.045328639447689056,0.0731908455491066,-0.026132900267839432,0.07441653311252594,-0.07341931015253067,-0.026260334998369217,0.0624687634408474,0.07126859575510025,-0.030968477949500084,0.03724132478237152,0.0009722310351207852,-0.05758007988333702,0.05889993906021118,0.0010647332528606057,0.009972484782338142,-0.07167869061231613,-0.08197563141584396,0.03673809394240379,0.06301095336675644,-0.025443440303206444,0.0578637532889843,0.04747485741972923,-0.0895853191614151,0.015797968953847885,-0.07349821925163269,0.07109665125608444,-0.008414121344685555,0.05338018015027046
-0.05955478176474571,0.038864701986312866,-0.046067338436841965,-0.07518689334392548,-0.08586607873439789,0.014341956004500389,-0.06544072180986404,-0.05544588342308998,0.03161539509892464,0.006909141317009926,-0.06250913441181183,0.07428601384162903,-0.0505889467895031,0.07031166553497314,-0.02074856497347355,0.015095394104719162,-0.09006766974925995,-0.019050197675824165,0.016845280304551125,0.05053406581282616,0.07253186404705048,-0.0515882670879364,0.01899822987616062,0.04589037969708443,-0.009104389697313309,0.011870388872921467,-0.06667815893888474,0.08363582193851471,-0.032275017350912094,0.08106537908315659,0.07201630622148514,-0.0034201499074697495,0.037897080183029175,-0.017591169103980064,0.04581522196531296,0.024876676499843597,-0.012278341688215733,0.02366548217833042,-0.03233109042048454,-0.014677141793072224,0.045472655445337296,0.030542245134711266,-0.0326937735080719,0.07595345377922058,-0.03568009287118912,-0.004737528972327709,0.03209376707673073,0.053338609635829926,-0.09328402578830719,-0.021599914878606796,0.0812397450208664,0.005545427557080984,-0.05625009164214134,0.013428440317511559,-0.07257554680109024,-0.035708364099264145,-0.05942816287279129,-0.06653860956430435,-0.07865241169929504,0.04518859460949898,-0.024866491556167603,-0.008526189252734184,-0.038997042924165726,-0.010236795991659164,-0.07815414667129517,0.06090633571147919,0.08778733015060425,0.023071639239788055,-0.021238716319203377,0.025937547907233238,-0.09264811873435974,-0.0024592408444732428,-0.06484241038560867,-0.061971213668584824,-0.005331507883965969,0.038286346942186356,-0.062485575675964355,0.052803657948970795,0.08434036374092102,-0.06894860416650772,0.06259539723396301,-0.022006841376423836,-0.033115267753601074,0.05280221626162529,-0.039940379559993744,0.010908271186053753,-0.01319938525557518,0.06107057258486748,0.0178492721170187,0.045270342379808426,-0.020571498200297356,-0.0778200775384903,0.004476724658161402,0.011929431930184364,-0.03750022128224373,0.07846391946077347,-0.07280083000659943,-0.027598854154348373,-0.06595432013273239,0.07292315363883972,-0.047644779086112976,0.0584401860833168,0.019979411736130714,0.06278295814990997,0.05649161338806152,-0.05470588430762291,0.07878963649272919,0.04348011687397957,-0.010598059743642807,0.0630454570055008,0.01790498197078705,-0.05656176060438156,0.04304885119199753,0.03688305243849754,0.07005733251571655,-0.020674968138337135,0.07058541476726532,-0.024017592892050743,-0.052729133516550064,0.07650496065616608,0.00780358724296093,-0.04285641759634018,-0.03718728572130203,-0.0724811926484108,0.04457229748368263,-0.05017516762018204,-0.03421242907643318,-0.06414094567298889
0.09261183440685272,0.08807409554719925,-0.032814688980579376,0.01888437569141388,-0.05366120859980583,0.01304711401462555,0.06150396913290024,0.042126189917325974,-0.048567768186330795,-0.058229777961969376,0.024723995476961136,0.028467850759625435,0.04356362670660019,-0.011270690709352493,-0.08399181813001633,0.07199213653802872,0.023548690602183342,-0.08599362522363663,0.044424429535865784,0.00870807096362114,-0.07562008500099182,-0.09215327352285385,-0.008060026913881302,-0.03155556321144104,-0.06391343474388123,-0.06616943329572678,-0.027942782267928123,0.06665393710136414,-0.03592849150300026,-0.049600377678871155,-0.03982790187001228,-0.013923066668212414,-0.0449661985039711,0.06032735854387283,-0.034021615982055664,0.055016592144966125,-0.04972715303301811,-0.04412231221795082,-0.014871939085423946,0.06128103658556938,0.07727580517530441,-0.010229567065834999,0.022586794570088387,0.03066372498869896,0.010341390036046505,0.03793881833553314,0.037448570132255554,-0.010983110405504704,-0.009929124265909195,0.017060352489352226,0.029108617454767227,-0.026660868898034096,0.04081813618540764,0.053360309451818466,0.0365246906876564,-0.0021972646936774254,-0.033893365412950516,-0.09079703688621521,0.08731111884117126,-0.008495173417031765,-0.09147054702043533,-0.03585037961602211,-0.013307631947100163,0.07030583918094635,0.029246076941490173,-0.009192275814712048,-0.042298972606658936,0.06787434220314026,-0.08556918799877167,-0.03705262020230293,-0.07853366434574127,0.04233333840966225,-0.03956647589802742,0.05419539660215378,0.005480904597789049,0.06367187201976776,-0.0017510780598968267,0.08229847252368927,-0.06476233899593353,0.08154437690973282,-0.009085684083402157,0.02339780330657959,0.04897470399737358,0.021250508725643158,0.09352806210517883,-0.0775027722120285,-0.06342361867427826,-0.0014349089469760656,-0.01085157785564661,0.02225319854915142,0.021667098626494408,-0.0500660240650177,-0.08858766406774521,0.02482396736741066,-0.03493397310376167,0.03457428514957428,-0.08041257411241531,0.033583853393793106,-0.08894698321819305,0.04596856236457825,-0.030453309416770935,-0.05665340647101402,0.04793291166424751,-0.08667773753404617,0.061739105731248856,0.0074224695563316345,-0.06265845894813538,0.05541226267814636,0.06769271939992905,0.08296361565589905,-0.08939754962921143,0.020746802911162376,-0.07943384349346161,-0.07703634351491928,-0.026589542627334595,-0.06947065144777298,-0.07109740376472473,0.07209138572216034,-0.041161999106407166,0.04425946623086929,-0.0207603108137846,0.03297031298279762,-0.02600225806236267,0.09021835774183273,-0.05590652674436569,0.00018241291400045156,0.04158758372068405,0.06449447572231293
0.01997026614844799,-0.036436401307582855,-0.008351373486220837,-0.0006144238286651671,0.06986013054847717,0.047877490520477295,0.09716231375932693,0.03765590861439705,-0.08699870109558105,0.06279918551445007,-0.0455474853515625,0.073722705245018,-0.013496397994458675,-0.07373637706041336,0.012819378636777401,-0.08772661536931992,-0.031825922429561615,-0.07155512273311615,-0.03527432307600975,0.06682619452476501,0.07981762290000916,0.08201000094413757,0.09148918837308884,-0.04540696740150452,0.039678458124399185,0.04192404821515083,-0.05208072066307068,-0.06638432294130325,0.001822629477828741,-0.009240462444722652,0.021920444443821907,-0.007261591963469982,-0.028643731027841568,0.05936174467206001,0.023814668878912926,-0.011691637337207794,-0.04004212096333504,0.08721514046192169,-0.09228557348251343,-0.011620555073022842,-0.05667892470955849,-0.08140851557254791,0.05548935756087303,0.03418784216046333,0.03404044359922409,-0.08075787127017975,-0.05952167883515358,-0.07308334857225418,0.012562353163957596,-0.08575578778982162,0.07002994418144226,0.004635875578969717,0.07152081280946732,0.02518828772008419,0.03187725320458412,-0.03833287954330444,0.08291330933570862,-0.05004454776644707,0.0347534716129303,-0.04542335122823715,0.002287795767188072,-0.06281059980392456,-0.034514863044023514,-0.0615905299782753,-0.08557701110839844,-0.003721734043210745,-0.07007274031639099,0.02773463726043701,0.06302499771118164,-0.0017985209124162793,0.0446067713201046,0.012337151914834976,0.02355831116437912,0.036903418600559235,-0.08883208781480789,-0.06412868946790695,0.006756617687642574,-0.051000211387872696,-0.025770284235477448,-0.00594029575586319,0.049895115196704865,0.06300362944602966,0.05841432884335518,0.048240743577480316,0.02399490401148796,0.04494570568203926,0.03866404667496681,-0.07592303305864334,0.01471013855189085,-0.07977884262800217,0.07801034301519394,0.09515401721000671,-0.04071914777159691,0.06335372477769852,0.020645063370466232,-0.08217699080705643,0.04055683687329292,0.07528430968523026,-0.02224179543554783,-0.021602896973490715,-0.07135363668203354,0.040210284292697906,0.08820971846580505,0.07487340271472931,0.042719319462776184,0.03164861723780632,-0.06668560951948166,-0.031552091240882874,-0.04131858050823212,0.011500298976898193,0.06646318733692169,-0.06630527228116989,0.07043567299842834,0.07853008806705475,0.0790659710764885,0.039984848350286484,0.028355007991194725,0.01512121967971325,0.0701664537191391,-0.08715083450078964,0.04258538410067558,-0.08200456947088242,-0.09663040935993195,0.06958585232496262,-0.07060782611370087,0.05105118826031685,0.004513969644904137,0.09126877039670944
-0.07001061737537384,0.0055549414828419685,0.07875566929578781,0.07217586040496826,0.027481963858008385,0.05199380964040756,0.0733119398355484,0.04431522637605667,0.05730829015374184,0.04945622757077217,-0.057271916419267654,0.009855790063738823,-0.03326006233692169,0.019641587510704994,0.04044998064637184,0.03782929107546806,0.06234500929713249,0.01686256192624569,0.0683545395731926,0.07991302758455276,0.08194722980260849,0.08711503446102142,0.020593766123056412,0.0007951906882226467,0.06086381524801254,-0.06857225298881531,-0.07426801323890686,0.020466215908527374,0.0031517893075942993,-0.0033798774238675833,0.008634832687675953,0.08145679533481598,-0.07090730220079422,0.059347134083509445,0.03805691376328468,0.08105233311653137,0.03735456243157387,0.08213445544242859,0.027825046330690384,0.03285685181617737,-0.07006628066301346,-0.009188157506287098,-0.07922684401273727,0.07863834500312805,-3.016606206074357e-05,-0.04376983270049095,-0.07939499616622925,0.07859782129526138,-0.08242250978946686,-0.050617482513189316,-0.04176076129078865,0.04850710183382034,-0.013314352370798588,-0.05305633321404457,-0.07818244397640228,-0.04350616782903671,0.014622877351939678,-0.0192104559391737,-0.05191652849316597,-0.007266555912792683,0.07015154510736465,-0.05785806104540825,0.09335353970527649,0.016669243574142456,0.028589904308319092,-0.04807128757238388,0.06342160701751709,-0.05081826075911522,-0.08631549030542374,0.09675659239292145,-0.04398698732256889,-0.04461269453167915,-0.012503287754952908,0.06698697060346603,-0.05295458808541298,0.03975311294198036,0.03385864198207855,-0.04965177923440933,-0.047154370695352554,-0.04561111703515053,0.04159390553832054,-0.050109054893255234,0.0296854916960001,-0.06478723138570786,-0.016897814348340034,0.017268577590584755,-0.020001444965600967,-0.05100560188293457,0.0339159294962883,-0.04615766927599907,0.038243986666202545,-0.047022443264722824,0.04240250587463379,0.07357899099588394,-0.07343655079603195,0.0807456374168396,-0.017132284119725227,-0.009701329283416271,0.06587576866149902,0.09410005062818527,0.0015718296635895967,0.03550451248884201,-0.041369203478097916,-0.014115054160356522,0.0668279379606247,0.07474646717309952,-0.003338799811899662,0.08287280797958374,-0.0421244353055954,-0.0642627477645874,0.01644575223326683,-0.053882040083408356,0.015445702709257603,-0.032280731946229935,-0.00801382027566433,-0.010974963195621967,0.04340136796236038,0.003039791015908122,0.04742305725812912,-0.030645256862044334,0.03758244961500168,0.04510808363556862,0.005233817733824253,0.08143600821495056,0.0022519633639603853,0.051207371056079865,0.05716043710708618,-0.0018387323943898082
0.0416964590549469,-0.013594936579465866,0.04834049567580223,0.025727689266204834,-0.06457584351301193,0.0775832012295723,0.007600943557918072,-0.01332913152873516,0.05076097324490547,-0.0728277787566185,0.09219510108232498,0.06620357185602188,0.024857966229319572,0.01611105538904667,0.09029590338468552,0.035239048302173615,0.01679597608745098,-0.06713978946208954,0.019059449434280396,-0.0670064240694046,-0.06262627243995667,0.05721496045589447,-0.04305523633956909,0.07184293866157532,0.011858918704092503,-0.030780581757426262,0.03274702653288841,-0.0022016852162778378,-0.07548181712627411,-0.006621791981160641,-0.09146223962306976,-0.03627335652709007,-0.0855598896741867,0.05768030509352684,-0.0066993399523198605,-0.05708685144782066,-0.053272686898708344,-0.016572726890444756,-0.027924684807658195,-0.04578476399183273,0.034605201333761215,-0.04126197099685669,0.07856617122888565,0.027196139097213745,-0.014205170795321465,0.05292396619915962,-0.08317913860082626,0.07107974588871002,-0.008043008856475353,-0.011526213027536869,-0.06060837581753731,-0.05820561200380325,-0.08172161877155304,0.07491248846054077,0.09374181181192398,-0.02715502679347992,0.04678691178560257,-0.05833230912685394,0.004750971216708422,-0.04633420705795288,-0.024454312399029732,0.0469239316880703,0.04828712344169617,-0.0754782184958458,0.02581723779439926,-0.029798584058880806,-0.001958515727892518,-0.0044380598701536655,-0.041640106588602066,-0.019391309469938278,-0.03917587548494339,-0.05127164348959923,-0.07773043215274811,0.0663764476776123,0.07976758480072021,-0.03609514981508255,0.002505980432033539,-0.05158644914627075,-0.07667984068393707,0.010251490399241447,-0.01930130459368229,0.007987718097865582,0.06441927701234818,0.05126810818910599,-0.043949488550424576,-0.06263110786676407,0.018567487597465515,0.010866350494325161,0.050403449684381485,0.011623332276940346,-0.06763193756341934,0.09682192653417587,0.021776095032691956,-0.01819729059934616,0.02992231771349907,0.06161933019757271,0.03543027862906456,0.07698065787553787,0.0001709192874841392,0.039360977709293365,-0.06678546965122223,0.0424649678170681,0.09521447122097015,-0.07091917097568512,0.033746618777513504,-0.07919459044933319,-0.09101011604070663,0.006453631445765495,0.023830289021134377,0.06945639103651047,0.030409125611186028,0.03481173887848854,0.014452249743044376,-0.02725846692919731,0.009454448707401752,-0.01991966925561428,-0.07871787250041962,0.005617320537567139,-0.031571272760629654,-0.09278330206871033,-0.017609642818570137,0.004527971614152193,-0.0035106767900288105,-0.0739986002445221,-0.0584951750934124,0.006938210688531399,0.029410095885396004,0.02003917098045349
-0.029504939913749695,0.05901394039392471,0.06548463553190231,0.040353868156671524,-0.016175365075469017,-0.03958768770098686,0.06591485440731049,-0.05509888753294945,-0.06436631083488464,0.03860959783196449,0.004242639988660812,-0.07231209427118301,0.08467327058315277,0.00912009458988905,0.07542181760072708,-0.03221723437309265,-0.04327620193362236,-0.014432134106755257,-0.03243131563067436,0.016734544187784195,-0.06023433059453964,0.02082330919802189,0.07310231029987335,-0.034237027168273926,-0.0027656382881104946,-0.003019263967871666,-0.006813216023147106,0.0006126313237473369,-0.0668613389134407,0.027464216575026512,0.07780689746141434,0.0039199236780405045,0.06956049054861069,0.0011497451923787594,-0.05679532513022423,0.015649763867259026,0.0889524444937706,0.07606220245361328,0.019825084134936333,-0.07867762446403503,-0.07370782643556595,-0.03051043674349785,0.015351710841059685,-0.08924741297960281,0.062116049230098724,0.08636236190795898,0.054021790623664856,0.029048938304185867,0.03800331801176071,0.05245344340801239,0.051017969846725464,-0.06602837145328522,0.06532398611307144,0.07754534482955933,0.027326781302690506,0.024390485137701035,-0.08146947622299194,0.045093998312950134,0.0734490305185318,-0.06416383385658264,0.06359253823757172,-0.05767454952001572,0.011232582852244377,-0.06841105967760086,-0.06696292757987976,0.011183235794305801,-0.04130832105875015,-0.055066611617803574,-0.00037653406616300344,-0.0647282600402832,-0.032922837883234024,-0.07016419619321823,0.04430259391665459,-0.013958325609564781,0.053859174251556396,0.053467705845832825,-0.08759987354278564,-0.009168966673314571,0.07478504627943039,-0.04430427774786949,0.07997193187475204,0.04598725959658623,-0.05525566264986992,0.00103029515594244,0.027627628296613693,-0.07919790595769882,-0.036305058747529984,-0.005100206937640905,0.04462779685854912,-0.044319719076156616,-0.06302908807992935,-0.06049288436770439,0.024679776281118393,0.04867642745375633,-0.004828045144677162,-0.005775257479399443,0.019138306379318237,0.016070706769824028,-0.057616617530584335,-0.026643477380275726,0.03080756962299347,-0.055926933884620667,0.07782870531082153,0.030494043603539467,-0.07888847589492798,0.010208235122263432,-0.06156223267316818,-0.024156127125024796,0.0002016970538534224,0.009356130845844746,0.07117632031440735,-0.08408407866954803,0.04209733009338379,-0.048328083008527756,0.028311682865023613,0.06545324623584747,0.027463816106319427,0.0656212642788887,0.07097224146127701,-0.06040005385875702,0.06724244356155396,0.018529515713453293,-0.0007750336662866175,-0.010661407373845577,0.08750254660844803,0.03455192595720291,0.023896219208836555,0.07761115580797195
-0.0024821271654218435,-0.07912702113389969,0.015608252957463264,0.003983150701969862,-0.06236027553677559,-0.07598757743835449,0.07691282033920288,-0.09536341577768326,-0.027683760970830917,-0.07557381689548492,-0.007070167921483517,-0.04151475057005882,-0.0730525553226471,-0.042887263000011444,0.006435730494558811,0.031151296570897102,-0.06090933084487915,-0.05898251384496689,0.04203670471906662,-0.09431493282318115,-0.01941961795091629,0.024333259090781212,-0.054497841745615005,-0.025987107306718826,0.0464988574385643,-0.00763775734230876,0.010019048117101192,0.07844724506139755,0.0068727051839232445,-0.01820260100066662,0.046174872666597366,-0.03298532962799072,0.03358722850680351,0.06751029193401337,-0.08326426148414612,-0.07780870795249939,-0.00027431221678853035,0.03455432504415512,-0.03683261200785637,-0.011984679847955704,-0.04141470417380333,0.08159719407558441,0.06948397308588028,0.016690758988261223,-0.0729026049375534,0.026621198281645775,0.04395590350031853,0.07716373354196548,0.027888651937246323,0.0025045848451554775,0.02950998768210411,0.05468784645199776,0.013959677889943123,-0.009425208903849125,0.004837248474359512,0.028314612805843353,-0.008311090990900993,-0.0035685040056705475,0.06725744158029556,-0.010530015453696251,-0.044345103204250336,-0.055399902164936066,0.08805771172046661,0.006798333954066038,-0.09017012268304825,0.041914816945791245,-0.07017195224761963,-0.04845980554819107,0.01517166942358017,0.059953611344099045,-0.0026695802807807922,-0.016460418701171875,0.08748966455459595,0.0764535665512085,0.040513407438993454,0.061046041548252106,0.04142104089260101,0.0007819668389856815,-0.04249673709273338,0.06286632269620895,0.018983740359544754,0.010456431657075882,-0.016390280798077583,-0.07558511942625046,-0.04407257214188576,-0.01874581351876259,0.05102335289120674,-0.04692380875349045,-0.04783163219690323,0.021979225799441338,-0.06582073867321014,-0.07325457781553268,0.07253868877887726,0.08322746306657791,-0.02385633997619152,0.0012285868870094419,-0.007623916957527399,0.0667886734008789,-0.07033774256706238,-0.052039824426174164,-0.07405132800340652,-0.03753483667969704,0.07181491702795029,-0.05116868019104004,-0.0015839934349060059,0.05011500418186188,-0.05507323890924454,-0.07700753211975098,-0.07854434102773666,-0.009418729692697525,-0.06748570501804352,0.04154298081994057,-0.07271691411733627,0.041317470371723175,-0.0844670757651329,0.02795550599694252,-0.04594481736421585,0.067548006772995,0.02139010652899742,0.012982510961592197,-0.05272718518972397,0.03257697820663452,0.06652190536260605,0.07705557346343994,0.028253884986042976,0.09136749804019928,0.08886055648326874,0.07676402479410172
-0.03707033023238182,0.023464741185307503,-0.019362520426511765,-0.08394454419612885,-0.06941522657871246,0.02687818743288517,0.09411109983921051,-0.07486265152692795,-0.0458490289747715,0.019175777211785316,0.052018046379089355,0.038840532302856445,-0.0613895021378994,0.044904064387083054,-0.07516669481992722,-0.04054559767246246,-0.04294463247060776,-0.07791478931903839,0.07827752828598022,0.015521924942731857,0.04862595722079277,0.06411810219287872,-0.03582872450351715,-0.022713005542755127,-0.033951517194509506,0.08073978126049042,0.0854002833366394,0.020703215152025223,-0.02051447331905365,-0.03838692232966423,0.07081005722284317,0.045070674270391464,-0.049467749893665314,0.08677534013986588,-0.045416705310344696,-0.014128737151622772,0.07868599146604538,0.004250073339790106,0.019165968522429466,0.08877086639404297,-0.02097410149872303,-0.019734494388103485,0.049882922321558,-0.03927834704518318,-0.02194041572511196,0.01493930909782648,-0.007508015725761652,0.07721326500177383,0.0036756996996700764,-0.06970679759979248,0.0010902121430262923,0.05982877314090729,0.019507482647895813,-0.07564573734998703,-0.014522209763526917,0.0790133997797966,0.05766493082046509,-0.06568983942270279,0.08082934468984604,0.07468590140342712,0.06371511518955231,0.06387002766132355,-0.06419479846954346,0.06504496186971664,0.004573585465550423,0.035801492631435394,-0.04225211963057518,0.0012241362128406763,0.06932640075683594,0.06431020796298981,0.013441374525427818,-0.06024906039237976,0.09305451810359955,-0.004812868312001228,0.045300379395484924,0.061823710799217224,-0.04295280948281288,-0.05169752612709999,-0.030765043571591377,-0.041940681636333466,-0.029552539810538292,-0.042546965181827545,0.027577117085456848,-0.05780436843633652,0.07603446394205093,-0.08817049860954285,0.0012515679700300097,-0.02880745381116867,0.04690013825893402,0.013879679143428802,0.07398921251296997,0.03791793808341026,-0.01399997342377901,-0.053887732326984406,0.07243067026138306,-0.004122015088796616,0.04011402279138565,0.027196191251277924,0.011784096248447895,0.056520961225032806,0.0027352431789040565,-0.03325103223323822,0.004878134001046419,-0.08034198731184006,0.05547955632209778,-0.07610954344272614,-0.08317604660987854,-0.005089049227535725,0.08697330951690674,-0.04198974743485451,-0.05746917054057121,0.045560408383607864,0.011423424817621708,0.05485594645142555,-0.04968186840415001,0.07386607676744461,0.030955098569393158,0.04893171414732933,-0.0739990770816803,0.09090592712163925,-0.048545897006988525,0.06232516095042229,-0.060841154307127,0.018739761784672737,-0.048194535076618195,0.07290612906217575,0.038854390382766724,-0.009072715416550636
0.032203298062086105,0.02671332284808159,-0.01144388411194086,-0.04022597894072533,-0.007552972063422203,0.02110305055975914,0.07487943768501282,0.0052915033884346485,0.051232628524303436,0.04919937252998352,0.061739999800920486,-0.02564358524978161,0.08938103169202805,0.0706186518073082,0.012014687061309814,-0.06576207280158997,-0.07388636469841003,-0.06627272069454193,-0.06269477307796478,-0.024243677034974098,-0.007779182866215706,0.016449052840471268,-0.087112657725811,0.01032921764999628,0.043598722666502,-0.057618074119091034,0.031213749200105667,-0.046892501413822174,0.07158418744802475,0.07845092564821243,-0.009959356859326363,0.06825702637434006,0.01985648088157177,0.005287596490234137,0.048325616866350174,0.05138867348432541,-0.017166808247566223,-0.0012457999400794506,0.04460800066590309,-0.042687080800533295,-0.07254382967948914,0.0737791433930397,0.013013232499361038,0.0026158946566283703,0.07748480886220932,-0.0074926745146512985,0.029723897576332092,0.052941203117370605,0.03037785366177559,-0.07549378275871277,-0.033525723963975906,-0.052288733422756195,0.05525568500161171,0.006845868658274412,0.0008627815404906869,0.027357811108231544,0.0005552655202336609,-0.0045384569093585014,-0.023975325748324394,0.0030841317493468523,0.07383740693330765,0.08115153014659882,-0.05131146311759949,0.007078003138303757,0.060010455548763275,-0.05700072646141052,0.004653487354516983,0.08503152430057526,-0.08458270132541656,0.04599704220890999,0.07545153051614761,0.06935259699821472,0.0474117249250412,-0.018185477703809738,0.013952737674117088,-0.041762154549360275,0.06144758313894272,0.009347319602966309,-0.027965400367975235,-0.03341246396303177,-0.035589370876550674,-0.0819312259554863,-0.029905101284384727,0.00277586467564106,-0.09387572854757309,-0.03039843589067459,-0.0509648434817791,0.035596176981925964,0.04755811765789986,0.05148015543818474,0.06452693045139313,-0.07322078198194504,0.0209366362541914,0.026449231430888176,-0.04499929025769234,0.04154407978057861,-0.032121337950229645,-0.045902568846940994,0.01119191013276577,-0.029575875028967857,-0.04493137076497078,-0.024236440658569336,0.013589445501565933,0.002695041708648205,-0.035649385303258896,0.054213281720876694,-0.07192900776863098,0.036259934306144714,-0.004280080087482929,0.0425424799323082,0.07720323652029037,-0.03406072035431862,0.004851570352911949,0.09355943650007248,-0.054955024272203445,-0.01979917287826538,-0.07026155292987823,-0.007771287113428116,0.07003848254680634,-0.09548789262771606,-0.00574033847078681,0.07679310441017151,0.003674172330647707,0.07019316405057907,0.06203322485089302,-0.013860256411135197,0.06770932674407959,0.010714326053857803
-0.03707084432244301,0.015185774303972721,-0.040276192128658295,-0.05638412758708,-0.038051214069128036,0.0733356699347496,0.06720459461212158,0.03610336408019066,0.07656075805425644,0.062156520783901215,-0.058971960097551346,-0.02127176523208618,0.08060930669307709,0.04037046059966087,-0.012516804039478302,0.06435361504554749,-0.03937283530831337,0.07610108703374863,-0.007664544507861137,0.07410416752099991,0.07896611094474792,0.07477910816669464,0.048938680440187454,-0.008754372596740723,0.06335875391960144,-0.0407751239836216,-0.02412508614361286,-0.027330268174409866,-0.05601300671696663,-0.07121572643518448,0.0928095355629921,-0.09028742462396622,-0.03785238415002823,0.058226753026247025,0.03295173868536949,-0.02701554261147976,-0.06885220110416412,-0.009064100682735443,0.04769308492541313,0.07750696688890457,0.07199345529079437,0.06400211155414581,0.03145841136574745,-0.05260376259684563,0.08222032338380814,0.05962247774004936,0.07947743684053421,0.02487887069582939,0.001900050207041204,0.013441337272524834,-0.050306741148233414,-0.0846310406923294,-0.022036608308553696,-0.08331909775733948,0.08038799464702606,0.0757828876376152,-0.007407837547361851,0.03667956590652466,0.06944314390420914,-0.05644186958670616,-0.06976527720689774,-0.07869047671556473,-0.012332214042544365,-0.030103052034974098,0.05183180794119835,0.04090884327888489,-0.017422689124941826,0.007953394204378128,-0.07094662636518478,-0.003934685606509447,0.03992457687854767,0.029740937054157257,-0.0827602967619896,-0.06050587445497513,0.06130595505237579,0.0032837435137480497,-0.0618489645421505,0.017152564600110054,0.0017667058855295181,0.07205148041248322,0.04594512656331062,0.015192558988928795,0.014371109195053577,0.08322323113679886,-0.006533169653266668,0.057877279818058014,-0.08366658538579941,0.07101258635520935,0.0945800170302391,-0.07421684265136719,-0.009934077970683575,-0.0945490151643753,-0.028012454509735107,-0.04547121003270149,-0.013880866579711437,-0.06319643557071686,0.07117345184087753,0.0067660072818398476,0.0305627454072237,0.012323450297117233,-0.039953604340553284,0.027491804212331772,-0.04405755549669266,0.06301306188106537,0.013211491517722607,-0.0022016861476004124,0.042188163846731186,0.05210069939494133,0.06047074496746063,0.06002120301127434,0.01049933023750782,0.08076371252536774,0.026937156915664673,-0.05594358593225479,0.0898771807551384,0.050787340849637985,-0.048911090940237045,-0.08622132986783981,0.08327984809875488,-0.045211490243673325,-0.023570580407977104,-0.04212169721722603,-0.02413742057979107,-0.09423809498548508,0.00446548406034708,-0.05750095471739769,0.0016535113099962473,-0.07607071101665497
0.04462778940796852,-0.08493697643280029,-0.050019145011901855,0.021634763106703758,0.034510545432567596,0.015179505571722984,-0.05647306144237518,0.03899917006492615,-0.08240276575088501,0.04163298383355141,-0.007942921482026577,0.023153992369771004,0.02191953919827938,-0.06481179594993591,0.021678408607840538,-0.07252923399209976,0.07380574941635132,-0.032250355929136276,0.023796377703547478,-0.08539961278438568,0.0724048912525177,-0.006651432253420353,-0.08029745519161224,-0.06636059284210205,0.06189732253551483,-0.0027854028157889843,-0.06440712511539459,0.001986488699913025,-0.062450509518384933,-0.041676051914691925,-0.02410287596285343,0.06952499598264694,0.07090216875076294,-0.020785421133041382,0.027123652398586273,0.024312259629368782,0.04093191772699356,-0.06084465980529785,0.019892696291208267,-0.016541754826903343,-0.09195450693368912,-0.06023944169282913,-0.00028157647466287017,-0.09234123677015305,0.020841477438807487,-0.016390493139624596,0.022720739245414734,-0.08066050708293915,-0.08025206625461578,0.027563411742448807,0.031474970281124115,0.04715270921587944,-0.04265805333852768,0.04084232077002525,-0.023549884557724,0.009078542701900005,0.06080760061740875,0.018635880202054977,-0.04631241038441658,-0.061402659863233566,0.04179726168513298,0.07004372030496597,-0.03419400751590729,-0.07302962988615036,0.01470237784087658,-0.006126789376139641,-0.025064339861273766,0.028435537591576576,-0.07549427449703217,-0.0664542093873024,0.09089856594800949,-0.06034378707408905,0.03079311177134514,-0.029822878539562225,-0.08849235624074936,0.0032861120998859406,-0.07093361765146255,0.03795848786830902,-0.06406458467245102,-0.07622473686933517,-0.009094459004700184,-0.05163354054093361,-0.010657229460775852,0.0532747283577919,-0.033065784722566605,0.06372679769992828,0.04681132361292839,-0.07220915704965591,0.08367247134447098,-0.07523689419031143,0.007592534646391869,-0.0367613323032856,-0.07613450288772583,-0.02193824201822281,0.04980107769370079,0.04053758084774017,-0.0680375024676323,-0.08620785921812057,-0.01238271128386259,0.010235835798084736,-0.010165107436478138,-0.00384069443680346,-0.03636506572365761,0.08058392256498337,0.012744267471134663,-0.024835608899593353,0.05458788946270943,0.026696546003222466,-0.08456072211265564,0.039897095412015915,0.03188120573759079,0.05451218783855438,-0.093354731798172,0.04023323953151703,-0.06317751109600067,-0.045852866023778915,0.0672387108206749,-0.023413565009832382,0.004387597553431988,0.07309150695800781,-0.08164812624454498,0.005976424086838961,-0.02746860682964325,-0.06709852069616318,0.03369319438934326,-0.08275022357702255,-0.05410166084766388,-0.07514489442110062
0.022399140521883965,-0.010920769535005093,-0.011330741457641125,-0.0585399866104126,-0.05457455292344093,-0.05142039805650711,-0.00570537569001317,-0.05241023749113083,-0.07487141340970993,-0.08553192019462585,-0.047421880066394806,-0.02865244261920452,-0.026934096589684486,-0.019550278782844543,-0.03090731054544449,-0.0454985611140728,0.08214522153139114,0.015556326135993004,-0.06175046041607857,0.032101087272167206,0.04889202117919922,0.01577785052359104,0.08666667342185974,-0.08949198573827744,-0.07354707270860672,-0.07915721088647842,-0.03708750009536743,-0.08705401420593262,0.008231955580413342,-0.028170181438326836,0.025782311335206032,0.03892797231674194,-0.030633514747023582,0.014700383879244328,-0.03985397517681122,-0.015632854774594307,-0.09168292582035065,0.012759272940456867,-0.007684602402150631,0.014493584632873535,-0.06389398872852325,-0.017903288826346397,-0.03317508473992348,0.05231357738375664,-0.09381511062383652,0.045147743076086044,0.0006226404220797122,0.03518148139119148,0.01349067222326994,-0.002863142406567931,0.06317426264286041,-0.08263950049877167,-0.07614929974079132,-0.06443864852190018,0.08088289946317673,-0.0494324155151844,0.06989189982414246,0.010290279053151608,0.025822915136814117,-0.09492415934801102,-0.06121794506907463,0.07322537153959274,-0.02500312589108944,0.032181307673454285,-0.016047026962041855,-0.016470933333039284,-0.03479960933327675,0.06731650978326797,-0.05066750943660736,-0.02906707488000393,0.043030042201280594,-0.021682891994714737,0.06459057331085205,-0.03777307644486427,-0.09038329869508743,-0.004957796540111303,-0.017577843740582466,-0.0456102192401886,-0.04776732623577118,-0.05040997639298439,0.08059602975845337,-0.07509364932775497,-0.07630085200071335,0.03708450868725777,0.025857165455818176,-0.06569888442754745,0.017215503379702568,-0.05466172471642494,0.04457786679267883,0.007219038438051939,0.0018212053691968322,0.07879460602998734,-0.028951656073331833,-0.03683456778526306,-0.02908206731081009,0.0802176371216774,-0.06327924132347107,-0.029178470373153687,-0.025071630254387856,0.025364220142364502,-0.06244497001171112,0.014738583005964756,-0.04795651510357857,-0.05373048782348633,-0.06733863055706024,-0.022067908197641373,-0.042712293565273285,-0.03490986302495003,0.08231399208307266,-0.02150813862681389,-0.04225630313158035,0.07774905115365982,0.06616174429655075,-0.0340692438185215,0.08221947401762009,-0.07645640522241592,-0.07365765422582626,-0.08838289231061935,-0.0024491464719176292,0.07850690186023712,-0.09413743764162064,-0.01032546442002058,-0.058163292706012726,0.039635613560676575,0.04061346501111984,0.05236157402396202,0.04397719353437424,0.0097840940579772
0.04135437682271004,-0.06703139841556549,0.09518537670373917,-0.05866612493991852,-0.06748953461647034,0.06711659580469131,-0.023362385109066963,0.01745457947254181,0.0022024770732969046,-0.09294651448726654,0.0006164111546240747,0.03120797500014305,-0.09184042364358902,-0.018564069643616676,0.027351364493370056,0.0644812136888504,-0.05349570885300636,0.06225885823369026,0.018183531239628792,-0.023210978135466576,-0.0036062076687812805,-0.003784195752814412,-0.057269372045993805,-0.0881248414516449,-0.0509721115231514,0.013978088274598122,-0.08017320930957794,0.039114005863666534,0.02734857238829136,0.059679728001356125,-0.056267574429512024,-0.027115225791931152,-0.03735749050974846,-0.058477483689785004,0.05647340789437294,-0.02560848742723465,0.08003785461187363,-0.055140867829322815,-0.0006580949993804097,-0.0703849345445633,0.06659991294145584,-0.05650421604514122,-0.06800006330013275,-0.04423794895410538,-0.0632188692688942,-0.0008352927397936583,0.002511142287403345,0.05497859790921211,0.027209782972931862,0.0700172409415245,0.06357263028621674,-0.07163223624229431,0.03516535460948944,-0.009048957377672195,-0.023630209267139435,-0.06847529858350754,0.0242262315005064,-0.06929587572813034,-0.048800885677337646,0.0842171162366867,0.08946635574102402,-0.06024867668747902,-0.04816767945885658,0.019249089062213898,0.03704126924276352,0.04696927219629288,-0.07832453399896622,0.018707381561398506,-0.0675678700208664,-0.014176999218761921,0.026459230110049248,0.08849731832742691,-0.02659793011844158,0.06155698373913765,0.053567640483379364,0.051580335944890976,-0.03514693304896355,0.04020679369568825,-0.007968121208250523,-0.04756803810596466,0.0667339414358139,-0.09034761041402817,-0.024868194013834,0.05872691795229912,0.03793817013502121,0.0856153815984726,0.00838114507496357,0.06429372727870941,0.0017597231781110168,-0.061409324407577515,0.061609573662281036,-0.019858112558722496,0.07483771443367004,0.043570682406425476,-0.07041754573583603,0.0047474391758441925,0.09202487766742706,0.029272783547639847,0.023854857310652733,0.025625716894865036,-0.07359318435192108,0.046180855482816696,-0.07991541922092438,-0.06149773672223091,-0.07148575782775879,-0.06443101167678833,-0.0041944715194404125,-0.043690506368875504,-0.028044776991009712,-0.04976222664117813,0.0892331674695015,0.05787143483757973,-0.004927589558064938,-0.09532947093248367,0.010975576005876064,-0.050300002098083496,-0.02630850300192833,0.03797127678990364,0.09380863606929779,-0.017633985728025436,-0.02374173514544964,0.037516459822654724,-0.03464195132255554,0.014273244887590408,-0.002287013456225395,0.0287221297621727,-0.05416470393538475,-0.04543466120958328
0.07880735397338867,0.03625134751200676,-0.04853568226099014,-0.034737516194581985,0.05182070657610893,-0.0825095921754837,0.0822034627199173,0.0059851896949112415,-0.04921931400895119,0.06153511255979538,-0.0006396761164069176,0.04062037169933319,0.06507772952318192,0.02619151957333088,0.06947802007198334,-0.04569905623793602,0.05100453644990921,0.01586231030523777,0.008681803941726685,0.027391718700528145,0.02731623314321041,-0.06532751023769379,0.05928824469447136,-0.049659229815006256,0.07889772206544876,-0.026241155341267586,0.04057450592517853,-0.08258666843175888,0.03562916815280914,-0.03826283663511276,-0.04484792798757553,-0.0030703002121299505,-0.08189661055803299,-0.08548559993505478,0.07656422257423401,-0.027395613491535187,-0.045302148908376694,0.06350135803222656,0.019770819693803787,-0.07029611617326736,0.04221988096833229,0.07358372956514359,0.05883905664086342,-0.07411479204893112,-0.05571376904845238,0.04480912908911705,-0.012388824485242367,-0.03151334822177887,0.03449088707566261,-0.0437210351228714,-0.0705752894282341,-0.04330335184931755,-0.030752379447221756,0.05842095613479614,0.08306322991847992,0.06609455496072769,0.05227058380842209,0.03928489238023758,-0.02405538782477379,0.07530096173286438,0.014678280800580978,0.0679505467414856,0.05403728783130646,-0.08471257239580154,0.01858304813504219,-0.0019979686476290226,0.05570560321211815,0.05445796996355057,-0.017566019669175148,0.08250755816698074,0.0034108073450624943,0.066069595515728,0.005529667250812054,0.07532643526792526,-0.08869791030883789,0.047345373779535294,0.04502176120877266,0.05526578426361084,0.07201042026281357,-0.06159457191824913,0.011357739567756653,0.024742430076003075,0.07158452272415161,0.03979508578777313,0.015175423584878445,-0.06497562676668167,0.07407315820455551,-0.060351330786943436,0.06876906007528305,0.08810494840145111,-0.09108959138393402,-0.04679544270038605,-0.06804778426885605,0.090099036693573,0.07754672318696976,-0.007401865441352129,0.005646089557558298,-0.01804039441049099,0.039260655641555786,-0.0436893031001091,-0.003810163354501128,-0.08451785147190094,-0.07551834732294083,0.03887910395860672,-0.05483075976371765,-0.0901491716504097,0.03987887129187584,-0.07580582797527313,-0.0773705318570137,-0.052947815507650375,-0.045709479600191116,-0.06467009335756302,-0.039930619299411774,-0.052846815437078476,0.06467472016811371,-0.06066581606864929,0.005203878972679377,-0.015237122774124146,0.07183519750833511,0.0688743069767952,-0.015787674114108086,0.029241370037198067,-0.05798057094216347,0.08068500459194183,-0.05459379404783249,0.03141067922115326,-0.058703240007162094,-0.025978321209549904
-0.09554440528154373,0.02798711694777012,0.06371891498565674,-0.02134842984378338,0.08134768158197403,0.08099596947431564,0.061060581356287,0.01632046513259411,0.0606670007109642,-0.07694308459758759,0.07184845954179764,-0.009799651801586151,0.09502411633729935,-0.07304641604423523,-0.07484573125839233,-0.04906540736556053,0.026608165353536606,0.07794979959726334,0.039755817502737045,0.07230986654758453,0.013480128720402718,-0.06009024754166603,0.046175528317689896,0.024949003010988235,0.0029495549388229847,-0.02973596565425396,-0.04523852467536926,0.044029299169778824,-0.024669405072927475,0.024258356541395187,-0.010967288166284561,-0.04834993556141853,0.09240365028381348,-0.007779653649777174,-0.06859686225652695,0.024134209379553795,-0.05672049894928932,0.03331635519862175,-0.013531895354390144,-0.0807742029428482,-0.019876446574926376,0.0243227556347847,0.08522031456232071,0.059910666197538376,0.004229134414345026,-0.0887361615896225,-0.0928591638803482,-0.05414799600839615,-0.05005165934562683,0.009201384149491787,0.05304555967450142,-0.04915483295917511,-0.056965090334415436,0.02536957710981369,-0.09013057500123978,-0.021286537870764732,0.04162988066673279,-0.03380807861685753,-0.006761722266674042,-0.057747308164834976,-0.07723324745893478,-0.023817427456378937,0.03677576407790184,-0.008549639955163002,-0.08126552402973175,-0.035629864782094955,-0.03291631117463112,-0.07799512147903442,-0.026081861928105354,-0.027295023202896118,-0.07433625310659409,-0.03691638633608818,0.05584736168384552,-0.03495677933096886,-0.009651447646319866,-0.0445597879588604,0.03587055206298828,0.031151805073022842,0.04065563529729843,0.07033957540988922,-0.02026270143687725,0.04873981699347496,-0.07138532400131226,-0.06475912779569626,0.05032665282487869,-0.029419638216495514,0.04076593741774559,-0.03920227289199829,0.02980535477399826,0.007762060035020113,0.02677447348833084,-0.03636688366532326,0.03323419392108917,-0.08963117748498917,0.0347568616271019,0.03974165767431259,0.03157103434205055,-0.073546402156353,0.03381451219320297,-0.023666059598326683,-0.06792949140071869,-0.0778251439332962,0.008171651512384415,-0.05453899875283241,0.011697803623974323,-0.07316965609788895,0.031060518696904182,-0.013313417322933674,0.009108178317546844,0.006722558755427599,0.00518925953656435,0.02942846529185772,0.022674212232232094,-0.05062219128012657,0.049321118742227554,0.010171634145081043,-0.0287492536008358,0.006442786194384098,0.06791520118713379,0.0036941026337444782,-0.02611115761101246,0.09143397212028503,0.011300750076770782,0.028563668951392174,-0.009334513917565346,-0.059838537126779556,0.06465568393468857,-0.017226332798600197
0.04994034394621849,0.06473151594400406,0.047740817070007324,-0.02438303269445896,-0.05082240328192711,-0.03982957452535629,-0.04870031401515007,-0.043038420379161835,-0.004369446076452732,0.004463870078325272,0.019131194800138474,-0.08045799285173416,-0.02922697737812996,-0.09455012530088425,0.03473008796572685,0.06584558635950089,-0.0953061506152153,-0.09086085855960846,0.09046289324760437,0.0666092187166214,0.07464811950922012,-0.04195275530219078,0.02025042288005352,-0.08455604314804077,-0.003784100990742445,-0.026166144758462906,0.03223364055156708,-0.06399919092655182,0.015608766116201878,-0.04046063497662544,-0.07182000577449799,-0.040056172758340836,-0.05625021085143089,0.010721486061811447,-0.05176100879907608,-0.07206974923610687,0.06239578127861023,-0.04358862340450287,0.021597525104880333,0.05521988496184349,-0.04697350040078163,0.0518602691590786,-0.054768964648246765,0.011884369887411594,0.023780617862939835,-0.038608185946941376,-0.022402599453926086,0.059377800673246384,-0.018535995855927467,0.06484192609786987,0.009261424653232098,-0.011897371150553226,0.052687231451272964,-0.0376727320253849,0.029427532106637955,0.04007363319396973,0.03833824396133423,0.08732687681913376,0.016465649008750916,-0.006031471770256758,-0.07890774309635162,0.08337593823671341,0.08936645835638046,0.023253697901964188,-0.007128352299332619,-0.02278795838356018,-0.015158990398049355,-0.03822281211614609,0.012725574895739555,0.032447271049022675,0.018550697714090347,-0.09127450734376907,-0.08092869073152542,-0.028544921427965164,0.021338624879717827,-0.06772734969854355,-0.04773098975419998,-0.05029638111591339,-0.015256687067449093,-0.03244242072105408,0.024894027039408684,0.08186929672956467,-0.06177666038274765,0.03462636470794678,-0.05152023956179619,-0.08913470059633255,0.0701119676232338,0.061712633818387985,-0.059973038733005524,0.019439352676272392,-0.00025687587913125753,0.04140254855155945,0.06782039254903793,0.08041483908891678,-0.06128597632050514,0.018630366772413254,0.04711277782917023,0.057488515973091125,-0.007049560081213713,-0.002248852513730526,-0.04507416859269142,0.07183670997619629,0.06267742812633514,-0.0802169218659401,0.09471627324819565,-0.01632598042488098,0.04542292281985283,0.04097346216440201,0.05616467818617821,0.010211698710918427,-0.03940883278846741,0.013908835127949715,0.025948192924261093,-0.09116476774215698,0.029272396117448807,0.05479723587632179,-0.0021344381384551525,0.030492691323161125,0.03755269572138786,0.0921214371919632,0.04323389753699303,0.0358857624232769,-0.019523300230503082,-0.022504299879074097,0.07486861944198608,0.03360176831483841,0.07498212158679962,0.07036665081977844
-0.0128211984410882,-0.026997793465852737,-0.0893683210015297,0.046027254313230515,0.0007130260346457362,-0.009898713789880276,-0.010777418501675129,-0.019940096884965897,0.038142602890729904,-0.046929921954870224,-0.02306954376399517,0.03524744510650635,-0.03130899369716644,0.0030112750828266144,0.04317054897546768,-0.0062418654561042786,0.027680180966854095,-0.04041188582777977,0.04713316261768341,0.05716536194086075,0.03535928204655647,0.06997865438461304,-0.006638020742684603,0.0490800105035305,-0.05604694411158562,-0.055126238614320755,0.01846679300069809,-0.08422744274139404,0.06851136684417725,-0.08421199023723602,-0.06668969988822937,0.01110010128468275,0.044293101876974106,-0.019993020221590996,-0.002894529141485691,0.0833667516708374,-0.08030325174331665,-0.05795522406697273,-0.03454059734940529,0.02393871732056141,-0.07666719704866409,0.048689212650060654,0.034161489456892014,0.04074897989630699,-0.07169151306152344,-0.06768809258937836,-0.04386629909276962,0.0630616769194603,-0.0900438129901886,-0.05915360897779465,0.009315240196883678,-0.05154913291335106,-0.09166646748781204,-0.07798780500888824,0.030624857172369957,-0.06871408224105835,0.00660543330013752,0.03165976703166962,-0.002302386797964573,0.08733826130628586,0.016633957624435425,-0.015081227757036686,-0.08876123279333115,-0.006329057272523642,0.05897190049290657,0.025021616369485855,-0.0428551621735096,-0.05468549206852913,0.05752120539546013,-0.012858172878623009,0.052802689373493195,0.07466170936822891,0.07517395168542862,-0.014398490078747272,-0.030151374638080597,0.08816507458686829,-0.002902028150856495,0.08734972029924393,0.04595537856221199,0.030620642006397247,0.07749516516923904,-0.07031044363975525,-0.047855667769908905,0.010968098416924477,-0.05711256340146065,-0.013821711763739586,0.07611823827028275,-0.06515448540449142,0.05967097729444504,-0.013474006205797195,-0.061368558555841446,-0.055975817143917084,-0.01429585088044405,-0.06815964728593826,0.08179110288619995,0.010919464752078056,-0.06299995630979538,0.006812759675085545,0.02669660933315754,0.005855074618011713,0.006120344623923302,-0.030497530475258827,-0.0474054180085659,0.020055148750543594,-0.0041928887367248535,0.01440576370805502,0.010584083385765553,0.07849350571632385,-0.009406715631484985,-0.04082078859210014,0.06010674685239792,-0.0038472572341561317,-0.06829528510570526,-0.0030280801001936197,0.048074137419462204,0.05077385902404785,-0.021141188219189644,0.010292969644069672,-0.08046365529298782,0.08152267336845398,-0.07107240706682205,0.054930754005908966,0.004547631833702326,0.03492608293890953,-0.037557147443294525,-0.07136181741952896,-0.03601938113570213,-0.05690617114305496
-0.024012573063373566,0.02044747956097126,-0.08484558761119843,-0.03875679522752762,0.006748805288225412,0.06016745790839195,0.04164478927850723,0.05778324976563454,-0.06177932396531105,0.035294052213430405,-0.06713307648897171,0.05985889956355095,0.04066944122314453,0.05094290152192116,0.06135712191462517,-0.020857520401477814,0.004343608394265175,0.08696334064006805,0.029075244441628456,-0.08056297153234482,0.026944715529680252,-0.060681652277708054,-0.08631794899702072,0.09421159327030182,0.008132929913699627,-0.02828080952167511,0.0385618656873703,-0.006123361177742481,0.027926137670874596,0.06704463064670563,-0.04029734060168266,0.06956798583269119,-0.06364807486534119,-0.012948972173035145,0.015067147091031075,0.0014044874114915729,-0.06383523344993591,0.08021697402000427,0.04577018693089485,0.0858469307422638,-0.013613959774374962,0.04771064221858978,-0.021645044907927513,0.032777972519397736,-0.005586582701653242,-0.04081161320209503,-0.07472650706768036,0.01210028026252985,-0.0025763404555618763,0.010616404935717583,0.005298021249473095,0.0586467869579792,0.09076813608407974,0.03932851925492287,0.05729740485548973,0.00019934456213377416,-0.03695118799805641,0.009848926216363907,-0.07959043979644775,-0.06069100275635719,-0.04264973849058151,0.031170325353741646,-0.046750567853450775,0.0058371881023049355,0.009604725055396557,-0.011297500692307949,0.007027612067759037,0.06270626932382584,0.05323338136076927,-0.008080368861556053,0.056008197367191315,-0.006010671146214008,0.032884228974580765,-0.004901308100670576,0.015914354473352432,-0.010493028908967972,-0.04835045710206032,-0.036146387457847595,0.0837772861123085,0.011423517018556595,0.007533844094723463,-0.038079507648944855,-0.05333968624472618,-0.05214312672615051,-0.05418410524725914,0.029335075989365578,0.0011598111595958471,-0.015859968960285187,-0.006688052322715521,0.08210919052362442,0.08016978204250336,-0.0073301056399941444,-0.06152597814798355,0.07436496019363403,0.00015621050260961056,0.05764893442392349,-0.018132150173187256,0.03265457600355148,-0.051426369696855545,-0.03992348164319992,-0.07196751236915588,-0.0247641671448946,0.059185419231653214,-0.07183045148849487,-0.08059549331665039,0.05074595287442207,0.007732694502919912,0.08041127771139145,-0.0647553950548172,0.07550214231014252,-0.03171587362885475,0.08636394143104553,0.013701628893613815,0.0768069326877594,-0.029726019129157066,-0.02093678154051304,0.05182777717709541,0.03486327826976776,0.05648203194141388,0.004026466049253941,0.013152246363461018,0.01045904029160738,0.062398333102464676,0.06445015966892242,0.07000777870416641,-0.05018346756696701,0.05725099891424179,0.022865882143378258
0.0752645954489708,-0.02999759092926979,-0.02572883479297161,0.05146125331521034,-0.037600357085466385,0.04681405797600746,-0.03800792619585991,0.09139857441186905,-0.01689237728714943,0.06507162004709244,0.039326559752225876,0.035708919167518616,0.07512330263853073,-0.013839390128850937,-0.010925664566457272,0.0648011788725853,0.03962019830942154,0.060954105108976364,-0.041946958750486374,0.02402377314865589,-0.06562583148479462,-0.036510221660137177,-0.0788971409201622,-0.05285993218421936,0.06597117334604263,0.012493888847529888,-0.06288944184780121,0.09065380692481995,-0.04393744468688965,0.032111756503582,-0.07385745644569397,-0.0487893745303154,-0.04005033150315285,-0.06343413144350052,-0.08402971178293228,0.03455483540892601,0.03966490924358368,-0.0036387229338288307,0.0601615309715271,0.03927282616496086,-0.019011758267879486,-0.06124981492757797,0.04421196132898331,0.00802977941930294,-0.024871861562132835,0.010575028136372566,-0.032599762082099915,0.034804657101631165,-0.0015297515783458948,0.0028878701850771904,-0.026883559301495552,0.06665418297052383,-0.018130788579583168,-0.05641470104455948,0.008853361010551453,-0.062243517488241196,-0.0516756996512413,0.05956964194774628,-0.029421359300613403,-0.05865689367055893,0.05892057716846466,-0.02584954723715782,-0.049563318490982056,-0.06184092164039612,-0.020824113860726357,-0.04835602641105652,-0.06515535712242126,-0.019643263891339302,0.027440495789051056,0.07326057553291321,0.04344939440488815,-0.06524980068206787,-0.07528360188007355,-0.027301466092467308,-0.03531857207417488,0.05013243108987808,-0.05588335543870926,-0.038341619074344635,0.00745745562016964,-0.04884960502386093,0.03766800835728645,0.034906547516584396,0.032799720764160156,0.06826093047857285,0.0660969540476799,-0.04001912102103233,-0.01242136862128973,-0.06485328823328018,0.04550882428884506,0.09315982460975647,-0.058638494461774826,0.013004089705646038,0.07036072015762329,-0.040395352989435196,-0.0029314043931663036,0.012622934766113758,-0.037199076265096664,0.028113756328821182,0.03605671972036362,0.09023362398147583,0.0640094131231308,0.03418189659714699,0.06978438794612885,-0.0560983270406723,-0.0649663507938385,0.012739166617393494,0.04225639998912811,0.08338870108127594,0.08202274888753891,-0.04069818928837776,0.04743462800979614,0.03813716396689415,0.006355827674269676,0.019473914057016373,0.02612270414829254,-0.07705675810575485,0.003073457395657897,0.05591496825218201,0.06964082270860672,0.08590639382600784,0.0014041245449334383,-0.07059960067272186,-0.078516386449337,0.041905708611011505,0.06126631423830986,0.06651784479618073,-0.03340356796979904,-0.07280713319778442
-0.08710023015737534,0.008712032809853554,0.09055402874946594,0.05761938542127609,0.05282865837216377,0.08553701639175415,-0.08740638941526413,-0.014337184838950634,0.06829296052455902,-0.09661834686994553,0.07133635878562927,0.0383845753967762,-0.08108958601951599,-0.04341099411249161,0.021425072103738785,-0.07508382201194763,-0.036826953291893005,0.03098841942846775,0.045783836394548416,-0.047931693494319916,0.08190315961837769,0.02444039285182953,0.017372766509652138,-0.02185106836259365,0.02336571179330349,0.07777196913957596,-0.03327500447630882,0.04021567478775978,0.029573559761047363,0.07324281334877014,0.022571643814444542,-0.017619499936699867,-0.0052196872420609,-0.04318102076649666,-0.05165085941553116,-0.038438137620687485,0.024751491844654083,-0.05466894432902336,0.029530100524425507,0.01865183562040329,0.04258723929524422,-0.04899179935455322,-0.01024195272475481,0.018876047804951668,-0.07860776782035828,0.02780171111226082,0.01089540310204029,0.01757151074707508,0.09447608888149261,0.048220038414001465,-0.029666416347026825,0.001234741066582501,-0.07378865778446198,-0.03539546579122543,-0.06574733555316925,0.010274217464029789,-0.005820662714540958,0.08450359851121902,0.07263635843992233,0.05043163150548935,-0.06338169425725937,-0.0424843430519104,-0.0206503476947546,0.01723795011639595,0.03669748455286026,0.08476614207029343,-0.025683660060167313,0.017750049009919167,0.08971401304006577,0.08086621016263962,-0.005840901285409927,0.04012439399957657,0.09355393797159195,-0.06809978932142258,0.07500079274177551,-0.010150645859539509,-0.045264098793268204,0.04862217605113983,-0.05446664243936539,-0.02024138532578945,0.09151285141706467,0.011023839004337788,-0.019857510924339294,0.07400140166282654,-0.029352528974413872,0.03217130899429321,-0.053279295563697815,-0.048296838998794556,-0.0880451500415802,0.06166810169816017,0.0021245204843580723,-0.055296625941991806,-0.02396002784371376,0.04194595292210579,0.050439368933439255,0.04920869320631027,0.06207660213112831,-0.03995879739522934,-0.05499592423439026,-0.05227676033973694,0.01753474958240986,0.019230099394917488,0.03871840238571167,-0.006227671168744564,-0.006168165244162083,0.05030164122581482,-0.004661248996853828,0.07519271969795227,0.06619422137737274,-0.05467189848423004,-0.09372317790985107,0.03669998049736023,0.06430745869874954,-0.009527849033474922,0.003834065981209278,0.05844360962510109,-0.06815992295742035,0.03824973106384277,0.056562505662441254,0.02011839672923088,-0.025891292840242386,-0.013237394392490387,-0.07562246918678284,0.09360896050930023,0.09640234708786011,0.08342721313238144,0.04348498210310936,0.07030853629112244
