"# weights_layers.0.weight - Shape: torch.Size([128, 64])"
# Dtype: torch.float32
# Device: cpu
# Exported: 2025-10-26T18:09:44.277763

dim_0,dim_1,dim_2,dim_3,dim_4,dim_5,dim_6,dim_7,dim_8,dim_9,dim_10,dim_11,dim_12,dim_13,dim_14,dim_15,dim_16,dim_17,dim_18,dim_19,dim_20,dim_21,dim_22,dim_23,dim_24,dim_25,dim_26,dim_27,dim_28,dim_29,dim_30,dim_31,dim_32,dim_33,dim_34,dim_35,dim_36,dim_37,dim_38,dim_39,dim_40,dim_41,dim_42,dim_43,dim_44,dim_45,dim_46,dim_47,dim_48,dim_49,dim_50,dim_51,dim_52,dim_53,dim_54,dim_55,dim_56,dim_57,dim_58,dim_59,dim_60,dim_61,dim_62,dim_63
0.10919123142957687,-0.10728714615106583,-0.12759602069854736,0.008475425653159618,-0.031200015917420387,-0.11720279604196548,-0.07759581506252289,0.07716812938451767,0.06091299280524254,0.043699007481336594,0.061864133924245834,0.06773526966571808,0.0769767314195633,-0.0129749346524477,-0.012493195943534374,0.13284118473529816,0.0035820533521473408,-0.02320055663585663,0.09682198613882065,0.07493804395198822,0.00429648207500577,0.07734568417072296,0.11686356365680695,-0.01250272337347269,-0.05226590856909752,0.034281808882951736,0.1237315684556961,-0.06183979660272598,-0.11772723495960236,-0.05572034791111946,0.0210574921220541,-0.10719695687294006,-0.08073057234287262,0.02143612690269947,0.11339922994375229,0.06446793675422668,0.0849122628569603,0.04182581603527069,0.027513129636645317,0.11005305498838425,-0.03137432411313057,-0.017469169571995735,0.02080691233277321,0.02087160013616085,-0.006125838961452246,-0.04416407272219658,0.10115658491849899,0.07883111387491226,-0.09929893910884857,0.015435531735420227,-0.12489458918571472,0.10710591822862625,0.05486644431948662,0.06338699162006378,0.1310385763645172,0.09508718550205231,0.06517968326807022,-0.043817490339279175,-0.010365989059209824,0.072736956179142,0.10641618818044662,-0.04296927526593208,0.11695113033056259,0.07940445095300674
0.10239120572805405,-0.014678062871098518,0.0006951943505555391,-0.07012756168842316,-0.11460360884666443,-0.01713360659778118,0.025489524006843567,-0.08928661793470383,0.0372261106967926,-0.11927984654903412,-0.1098598763346672,0.1211247369647026,-0.0987999439239502,-0.006887494120746851,-0.04006282612681389,0.052580464631319046,0.026424698531627655,-0.053256236016750336,-0.0716099813580513,-0.10006455332040787,-0.03628331795334816,0.07188130170106888,-0.025571759790182114,-0.09099115431308746,0.02673649974167347,-0.12358306348323822,-0.11535513401031494,0.06460703909397125,-0.11995144933462143,0.005245535634458065,-0.07953052222728729,0.10119349509477615,-0.0771368071436882,-0.1235426515340805,0.08905584365129471,0.003543092869222164,-0.08823784440755844,0.0656549334526062,-0.10129915922880173,0.04854085296392441,-0.05996541678905487,0.0761939138174057,0.07266722619533539,-0.021096808835864067,0.10964684188365936,0.011598393321037292,-0.0010744001483544707,0.10186342149972916,0.07119332253932953,-0.06588584184646606,0.05664987117052078,-0.08014903962612152,0.01712929829955101,-0.10962771624326706,0.07251513004302979,-0.11403205990791321,-0.02740664780139923,0.0807802826166153,-0.041097186505794525,0.13167400658130646,0.030419236049056053,0.0001796436554286629,0.0638670101761818,-0.08038700371980667
0.055518925189971924,-0.13174177706241608,0.045073602348566055,-0.025844022631645203,0.10662811249494553,-0.021338853985071182,0.02360706403851509,-0.10453954339027405,0.07885544747114182,-0.11540459841489792,0.06626022607088089,0.02854360267519951,0.10755236446857452,0.11513591557741165,0.020288677886128426,-0.10966473072767258,0.10822176933288574,-0.06256554275751114,-0.09548844397068024,0.05690964311361313,-0.06133008003234863,0.08046743273735046,0.08914102613925934,-0.030365269631147385,-0.01763436757028103,-0.02334960736334324,-0.04553462564945221,-0.10178030282258987,-0.021353216841816902,0.13158440589904785,0.08067528903484344,0.04107647016644478,-0.08966522663831711,0.041146449744701385,-0.021822355687618256,-0.06428512930870056,0.05003941059112549,-0.06015408784151077,0.019529519602656364,-0.031560126692056656,-0.11173638701438904,0.07721027731895447,0.00358252483420074,0.06802045553922653,-0.03231355547904968,0.018497690558433533,-0.06671091169118881,0.08065992593765259,-0.06028449162840843,0.029225662350654602,0.11989986896514893,-0.10671333223581314,-0.06477196514606476,0.06673985719680786,-0.02833239547908306,-0.0428045354783535,-0.11687447875738144,0.11129210144281387,0.05249349772930145,0.0037094454746693373,0.022686336189508438,0.0950261726975441,0.1088174507021904,-0.0615348257124424
-0.07586081326007843,-0.09288211911916733,-0.1014019176363945,0.07404359430074692,-0.105347640812397,0.10232680290937424,0.1181100532412529,-0.09790683537721634,0.10960852354764938,0.08194706588983536,-0.11649864912033081,-0.04841019585728645,0.07515741139650345,-0.033252790570259094,-0.033197399228811264,-0.03311352804303169,0.09252646565437317,-0.08536992967128754,-0.04195551574230194,-0.029600154608488083,0.024291198700666428,-0.0715867429971695,-0.06910089403390884,-0.02716876193881035,0.028037386015057564,0.04182549938559532,-0.08636505901813507,-0.11857512593269348,-0.09005440026521683,0.0907866433262825,0.03359197452664375,-0.05132177844643593,-0.03010915033519268,-0.10915184766054153,-0.1079326719045639,0.004146136809140444,-0.07724481076002121,-0.010402648709714413,-0.07044863700866699,0.07099160552024841,0.05477656051516533,-0.0015091552631929517,0.005622230935841799,0.0314067043364048,0.06360965967178345,0.02583354525268078,-0.03634520620107651,0.01839297078549862,0.10200338065624237,0.05603407695889473,-0.11526064574718475,0.01839912310242653,-0.12110226601362228,0.10258693993091583,0.03993865102529526,-0.04191473871469498,0.12041858583688736,0.07675667107105255,0.06126636639237404,0.08198260515928268,0.032610733062028885,-0.03144881874322891,-0.04639771208167076,-0.11562548577785492
0.0526193305850029,0.06290318071842194,0.029264938086271286,-0.0564623661339283,-0.09036843478679657,-0.1031324565410614,-0.01767079532146454,-0.015495258383452892,-0.09901220351457596,0.06495056301355362,0.05872880667448044,0.057023439556360245,-0.06553865969181061,0.029680510982871056,0.09444347769021988,-0.0137214045971632,0.024818461388349533,0.0586760975420475,-0.014301554299890995,0.1096244603395462,0.07947158068418503,-0.00694364495575428,-0.0456228032708168,0.004445791244506836,0.1040581464767456,0.03780331462621689,-0.1094382107257843,-0.10955757647752762,-0.12245035916566849,0.01841314323246479,-0.04998274892568588,-0.04113951325416565,-0.02045019343495369,0.03965888172388077,-0.0383024662733078,0.08718976378440857,-0.08632857352495193,-0.07763732224702835,-0.08254124969244003,-0.0903732031583786,0.004261457826942205,-0.1223311573266983,-0.0010204280260950327,-0.10139799118041992,-0.05657597631216049,0.039885833859443665,0.10312987864017487,-0.030447563156485558,-0.09629733860492706,-0.10127332806587219,-0.06878191977739334,-0.057755857706069946,-0.07732392102479935,0.02264229580760002,0.10949960350990295,-0.07793261110782623,0.020084824413061142,0.12366537749767303,-0.0800621286034584,0.1080818921327591,0.04447918385267258,-0.11217095702886581,0.0757283866405487,0.0011420343071222305
0.011737233027815819,-0.03949230909347534,0.08309999853372574,0.014549430459737778,0.09952062368392944,0.034154437482357025,-0.09075000882148743,0.0540614128112793,0.00018021278083324432,-0.0890548825263977,0.0003854898386634886,-0.08970627933740616,0.04015691950917244,0.06443033367395401,0.016169151291251183,0.12379179149866104,-0.007386264391243458,-0.07612816244363785,0.07959210127592087,0.12079372256994247,-0.07384531944990158,-0.006183817982673645,-0.10574155300855637,0.023502280935645103,0.03136257827281952,-0.029070064425468445,-0.07521207630634308,0.13252094388008118,0.010012433864176273,-0.055866893380880356,0.06312034279108047,-0.09070903807878494,-0.033271629363298416,-0.0606277696788311,-0.10550760477781296,-0.0013363704783841968,0.04542141780257225,-0.06715293228626251,-0.08434408158063889,0.1122814491391182,-0.04824358969926834,0.07664796710014343,-0.02151305228471756,-0.10923976451158524,0.008048834279179573,-0.13031888008117676,-0.005144232418388128,0.024912461638450623,0.007992180064320564,-0.10239696502685547,0.03453448787331581,0.07855600863695145,0.015318895690143108,0.12226185202598572,-0.12771493196487427,0.08668079227209091,-0.10054021328687668,0.08460137993097305,-0.04263654351234436,-0.040594588965177536,0.03420905023813248,0.03221185505390167,0.009451435878872871,-0.06720882654190063
0.09817402064800262,0.07335448265075684,-0.05843326449394226,-0.09513390809297562,0.09380082786083221,-0.082391656935215,-0.06067616492509842,0.010552963241934776,-0.013057827018201351,-0.04042684659361839,-0.03621486574411392,0.0527130588889122,0.060505468398332596,-0.03372274711728096,-0.060643911361694336,0.09063032269477844,-0.08622712641954422,0.1054297611117363,-0.08756788820028305,-0.014472609385848045,0.02859264239668846,-0.11339253932237625,0.028304539620876312,-0.02315160632133484,0.04862985387444496,0.10806311666965485,0.1296340376138687,-0.1009390726685524,-0.09675893932580948,0.03348345682024956,-0.058107100427150726,0.07572976499795914,0.07457780838012695,-0.007266536355018616,-0.12561604380607605,0.04955320432782173,0.05750327929854393,-0.01744975335896015,0.004603694658726454,0.055059365928173065,0.05518120527267456,0.004305329639464617,0.05673045292496681,-0.09882427752017975,-0.011422580108046532,-0.01678813248872757,-0.01571524888277054,0.08621981739997864,-0.07350049912929535,-0.1264626830816269,0.00020416243933141232,-0.0005068095633760095,-0.0959579274058342,-0.1307036131620407,0.10203555226325989,-0.0037330063059926033,0.09415066987276077,0.09639069437980652,0.08412076532840729,-0.1116492748260498,-0.08798921853303909,-0.05908465012907982,0.10406691581010818,0.11769331246614456
0.13231079280376434,0.08626104146242142,0.03250095993280411,0.1304641216993332,0.033297475427389145,-0.047253914177417755,-0.008986108936369419,0.03659429773688316,0.10162106156349182,-0.04566043242812157,0.10058966279029846,0.07247678935527802,-0.09860198944807053,-0.049223314970731735,0.07805463671684265,0.1199020966887474,0.0750025287270546,0.0018184318905696273,0.03728175535798073,-0.027996115386486053,0.03411506488919258,-0.06532655656337738,0.049360472708940506,-0.0012139559257775545,0.11524492502212524,-0.002280413405969739,0.1142282485961914,0.1113348975777626,0.06903073191642761,-0.0397578626871109,0.08375603705644608,-0.11776524782180786,0.12077867239713669,-0.05417918413877487,0.08962099254131317,-0.09273707121610641,0.056280262768268585,-0.020603742450475693,-0.013805299066007137,0.09732683002948761,-0.052299898117780685,0.0021256795153021812,0.08478531986474991,0.09544650465250015,0.020684121176600456,0.016845032572746277,0.005174752790480852,-0.03668373078107834,-0.11033335328102112,0.09736398607492447,-0.028558827936649323,0.03783832862973213,0.021800315007567406,-0.03795311599969864,-0.08271338045597076,-0.1261528581380844,-0.08748815953731537,-0.044314559549093246,0.11457497626543045,0.0224990863353014,0.04634550213813782,-0.036456216126680374,-0.07912270724773407,0.015970295295119286
0.12223224341869354,-0.006406858563423157,0.026598848402500153,0.09772837907075882,0.02414512261748314,-0.01311961468309164,0.06994950026273727,0.08000995218753815,0.0973927229642868,0.1083606481552124,0.10290886461734772,-0.09011070430278778,-0.05547749623656273,-0.11913865059614182,-0.08224675059318542,0.061830054968595505,-0.0632687509059906,0.10148008912801743,-0.053467120975255966,0.07443036884069443,-0.011353096924722195,0.05862501636147499,-0.04795895144343376,0.06594761461019516,-0.06306006759405136,-0.014226540923118591,0.07317914068698883,0.00979346502572298,-0.03550535440444946,-0.049811024218797684,-0.048537954688072205,-0.021708641201257706,0.11293106526136398,0.01857556588947773,-0.040048789232969284,0.10163857787847519,0.09791876375675201,0.1168186292052269,0.06955473124980927,-0.007982788607478142,0.08051212131977081,-0.10847826302051544,-0.02148701809346676,0.055941902101039886,-0.011621976271271706,0.00959955994039774,0.11203857511281967,-0.09581492096185684,-0.12402597814798355,-0.055324893444776535,-0.12199505418539047,0.009345291182398796,0.00441767368465662,0.0003950402606278658,0.050022244453430176,-0.10150432586669922,0.09695111215114594,-0.05919043347239494,-0.03488486260175705,-0.01799960620701313,-0.11728175729513168,-0.0818634182214737,-0.11139871180057526,0.01836259290575981
0.0027690930292010307,0.12888650596141815,0.11522670090198517,0.08618149161338806,0.10323141515254974,-0.0017329746624454856,-0.10162083804607391,0.01285956148058176,0.04156724736094475,-0.07483195513486862,0.048790592700242996,0.00771726481616497,-0.10258287191390991,0.07298795133829117,0.1165112853050232,-0.10951951146125793,-0.07389353960752487,0.010691158473491669,0.09064367413520813,0.10479176789522171,0.07775460928678513,-0.0008725543739274144,-0.09338414669036865,-0.10934075713157654,-0.03919471055269241,-0.09131652861833572,0.02360951341688633,-0.10075225681066513,0.024209503084421158,-0.0009249402210116386,0.10288679599761963,0.038122739642858505,0.09737973660230637,-0.018292006105184555,-0.007142241578549147,0.044415660202503204,0.03987079858779907,0.076964370906353,0.03600022569298744,0.027965711429715157,-0.055482830852270126,0.08121447265148163,-0.06785368174314499,0.12302784621715546,0.06948409229516983,-0.11777983605861664,-0.043525442481040955,0.09650957584381104,0.10186028480529785,-0.011435920372605324,-0.03305864706635475,0.10423380136489868,0.10382110625505447,-0.11255389451980591,0.09701108187437057,0.11436982452869415,0.06307946145534515,-0.11425025761127472,-0.00921139307320118,-0.02807294763624668,-0.02035708911716938,0.07299736887216568,0.12013896554708481,0.11068488657474518
-0.035452064126729965,-0.034774571657180786,-0.12610699236392975,0.05087660253047943,0.037131138145923615,-0.034749578684568405,0.020924260839819908,-0.09606830775737762,0.11477111279964447,0.028004301711916924,-0.06750297546386719,0.01712791807949543,-0.09598790854215622,-0.057077374309301376,-0.05449410527944565,0.0011807279661297798,-0.0588894858956337,-0.08474595099687576,-0.09487401694059372,0.03922963887453079,0.06307262182235718,-0.026372665539383888,-0.010668161325156689,0.016506783664226532,-0.01595764420926571,0.11633943021297455,0.05572744086384773,-0.11985541135072708,-0.04815110191702843,-0.0023750101681798697,0.0036157278809696436,-0.09817871451377869,0.06410180777311325,0.12302687019109726,-0.021173860877752304,-0.07758438587188721,-0.04106852039694786,0.03766882047057152,-0.10477525740861893,0.07052692025899887,0.048546262085437775,-0.10520391911268234,0.013919686898589134,-0.08131726086139679,0.01804722100496292,0.005906105972826481,-0.0656285360455513,0.06468962132930756,-0.02587181329727173,-0.004790477454662323,-0.07127142697572708,-0.012127557769417763,0.06424520909786224,0.04851817712187767,-0.10925672203302383,-0.017772240564227104,-0.07260103523731232,-0.0498356893658638,0.10071007907390594,-0.10653495043516159,-0.049442682415246964,-0.0985100194811821,-0.0788513720035553,-0.05109730362892151
0.07862754911184311,-0.017735633999109268,-0.0887928232550621,0.045060787349939346,0.10119440406560898,-0.03438936546444893,0.06100128963589668,-0.07114002108573914,-0.03198712319135666,-0.07626749575138092,-0.10652749240398407,0.08313477039337158,0.10036351531744003,0.10025892406702042,0.10866240411996841,0.0701523870229721,-0.027644814923405647,0.07631003111600876,0.04505477473139763,0.07628384232521057,-0.05019666254520416,-0.1023193746805191,-0.09349203109741211,-0.11158052831888199,0.03330250829458237,0.029150689020752907,-0.05788594111800194,-0.10562261939048767,-0.0007736753905192018,0.04101870581507683,-0.12204477190971375,-0.09100039303302765,0.0012868924532085657,0.09155582636594772,0.03676023706793785,-0.12396411597728729,0.05889422819018364,0.02790294773876667,-0.06663431972265244,-0.056794423609972,0.06886953860521317,0.12099539488554001,0.00709910923615098,-0.11355715990066528,-0.07833761721849442,-0.11827818304300308,-0.09021799266338348,0.08475597202777863,0.08365074545145035,0.07669258862733841,-0.026163088157773018,-0.09130989015102386,-0.05950232595205307,-0.024799898266792297,0.1129077821969986,0.12526391446590424,0.032229285687208176,0.0061825416050851345,0.11402168869972229,0.025428486987948418,-0.04207313805818558,0.024529580026865005,0.07467455416917801,0.07813167572021484
0.03837998956441879,-0.08340678364038467,0.06307138502597809,0.008236657828092575,-0.0011356874601915479,-0.05395985394716263,0.08431589603424072,-0.05897899717092514,-0.1204681545495987,-0.0767480880022049,0.0823872908949852,0.07405713200569153,-0.10254538804292679,-0.07337966561317444,0.04884059354662895,0.057497575879096985,-0.0398818738758564,0.03251902014017105,0.09787891060113907,0.004041195847094059,-0.09329953044652939,-0.06861696392297745,0.10245907306671143,-0.058979492634534836,0.016108032315969467,-0.022551121190190315,0.12424600124359131,-0.053300242871046066,0.07437396049499512,-0.07960645854473114,0.11716213077306747,-0.10556898266077042,0.04189763590693474,0.08846404403448105,-0.029556715860962868,0.05171654000878334,-0.05630668252706528,0.10725066810846329,0.02272268757224083,0.09665858000516891,-0.10407300293445587,-0.09499818086624146,0.1256304532289505,0.08187846839427948,0.0010982780950143933,0.08363203704357147,0.05459113419055939,0.11461728811264038,-0.06603033095598221,0.07799690216779709,0.11697551608085632,0.03396241366863251,-0.0849371999502182,0.10867611318826675,0.09590769559144974,0.09292558580636978,0.057721566408872604,0.04241970553994179,0.03408978506922722,-0.11116420477628708,-0.0482795275747776,0.028901223093271255,-0.07850149273872375,0.12007234990596771
-0.045656390488147736,-0.08599358797073364,0.04360544681549072,-0.0678001269698143,-0.13147947192192078,-0.10110876709222794,-0.1246819794178009,-0.08063270896673203,0.06951671093702316,0.13094612956047058,0.010006892494857311,0.07941552996635437,-0.014720204286277294,0.026104852557182312,0.10132773220539093,0.02203000895678997,0.032017987221479416,0.11490369588136673,0.015171235427260399,-0.09238586574792862,0.07950553297996521,0.09580732882022858,-0.08479776978492737,0.07062668353319168,-0.013783502392470837,-0.04420110955834389,-0.04415086284279823,-0.03293820098042488,0.11740147322416306,0.1094013974070549,0.04874759167432785,0.13077151775360107,0.03305353969335556,0.01616298407316208,-0.06399710476398468,0.014357571490108967,-0.029368476942181587,-0.03770695626735687,-0.0049192593432962894,0.011514553800225258,-0.11332950741052628,-0.11168694496154785,0.09081467986106873,-0.12674696743488312,-0.0023199294228106737,0.00995748583227396,-0.05075037479400635,-0.06077902019023895,0.06594971567392349,0.09249984472990036,-0.11798717081546783,0.024702025577425957,-0.11496752500534058,-0.05955847352743149,0.04797494411468506,0.02469315566122532,0.11795606464147568,0.06824170053005219,0.11291753500699997,-0.08752026408910751,0.014739698730409145,-0.06938127428293228,-0.05399613827466965,-0.12048768997192383
0.09119094908237457,0.0986323207616806,0.12651962041854858,-0.05849717557430267,0.11260127276182175,-0.0913061797618866,-0.06841064989566803,0.045101940631866455,-0.12509170174598694,-0.010134201496839523,0.04543958976864815,0.01251115370541811,0.08583808690309525,0.024590307846665382,-0.02650309167802334,0.08681493252515793,0.030556680634617805,-0.024421721696853638,0.023055456578731537,-0.062469229102134705,0.03511916846036911,0.10369795560836792,-0.02208382450044155,-0.09921736270189285,0.1093694418668747,-0.09260492026805878,-0.02230488881468773,0.06806574016809464,0.005184020847082138,0.01064139325171709,0.11078602075576782,0.000881411018781364,0.06577593088150024,-0.10802270472049713,-0.08921753615140915,-0.1183546707034111,0.035010866820812225,0.07064025104045868,0.06034813076257706,0.06293127685785294,0.009039525873959064,0.07226638495922089,0.0039040115661919117,-0.0626942440867424,-0.00659495173022151,-0.03730492666363716,-0.11896459013223648,0.06540238112211227,-0.02996690943837166,0.033908993005752563,-0.06893964111804962,-0.08478173613548279,0.06217418611049652,0.04977824538946152,0.005974116735160351,0.02568437159061432,-0.04571026936173439,-0.005621934775263071,0.0652068480849266,-0.11518241465091705,-0.02714754268527031,0.1116935983300209,-0.005446390714496374,-0.10068035125732422
0.12538692355155945,0.1139087975025177,-0.08272650092840195,0.0062948474660515785,-0.10772017389535904,0.0748269185423851,0.019724272191524506,0.1160341426730156,0.05772960186004639,0.01721966825425625,0.10763917863368988,-0.07848203927278519,-0.09829626977443695,0.04264989495277405,-0.06190629303455353,0.0901508554816246,0.02219945192337036,0.03491310030221939,0.09081118553876877,0.011029904708266258,-0.08386047184467316,-0.10406605899333954,-0.08117473125457764,0.029383089393377304,0.019812840968370438,-0.12396249920129776,-0.09598279744386673,0.0838455781340599,-0.11785947531461716,0.024369316175580025,0.008833431638777256,-0.034244902431964874,-0.10170411318540573,-0.03310553357005119,-0.07455206662416458,0.020130401477217674,0.042296137660741806,-0.048076726496219635,-0.03378340229392052,0.07285495102405548,-0.06002350524067879,-0.024327199906110764,0.026238566264510155,0.11268362402915955,-0.05065908282995224,-0.04767395183444023,0.029834166169166565,-0.040406908839941025,-0.03647337481379509,-0.12981587648391724,-0.07348311692476273,-0.09311254322528839,-0.01876445859670639,0.08441761136054993,-0.09371133148670197,0.06434089690446854,-0.13169610500335693,0.12321993708610535,-0.008639438077807426,-0.11359036713838577,-0.010855335742235184,-0.07090572267770767,-0.10214946419000626,-0.07655102759599686
-0.07906772941350937,0.12075123190879822,-0.018350878730416298,-0.06310900300741196,0.019233036786317825,-0.039358433336019516,0.10138799250125885,0.045907456427812576,0.10179626196622849,0.038969676941633224,-0.027606258168816566,-0.037893038243055344,0.09519264847040176,0.022800663486123085,-0.05848732963204384,0.07878825813531876,0.05277309566736221,-0.06275225430727005,-0.08205939084291458,0.053103040903806686,0.006321941968053579,0.022952726110816002,-0.007280161138623953,-0.10991007834672928,-0.0692598968744278,-0.13130630552768707,0.04775751382112503,0.028359999880194664,-0.07234591245651245,-0.09192901849746704,0.07862438261508942,0.0003084558411501348,-0.09395735710859299,0.029652457684278488,-0.0003079060697928071,0.027760887518525124,0.037139829248189926,-0.007210732437670231,-0.09451887011528015,-0.027542762458324432,0.01856568455696106,0.095979243516922,0.12173901498317719,0.11225593090057373,-0.11611355096101761,-0.04078853130340576,-0.0018820008262991905,-0.0833318755030632,-0.06662840396165848,-0.010425063781440258,-0.02913040854036808,0.0878157764673233,-0.11553443223237991,0.003538393182680011,-0.08313196897506714,-0.06464477628469467,0.033073123544454575,0.05444430932402611,-0.11322139948606491,-0.10818623006343842,-0.06999601423740387,-0.05711091682314873,0.10032796859741211,-0.09415505826473236
0.11154963076114655,0.0035199890844523907,-0.059895750135183334,-0.05183832347393036,0.103384830057621,0.03836790844798088,0.08627905696630478,-0.0522540919482708,0.11455535888671875,-0.02536121942102909,0.00811130553483963,0.06000356376171112,-0.08159814774990082,0.07142534106969833,-0.025113634765148163,-0.11718406528234482,0.0729849636554718,-0.1076185330748558,-0.12145567685365677,0.05304581671953201,-0.09466398507356644,-0.06092933937907219,0.06250519305467606,0.11951769888401031,-0.08960125595331192,-0.01426625158637762,-0.008245243690907955,0.019720135256648064,0.10559524595737457,-0.1274918168783188,-0.018013330176472664,0.04289349168539047,-0.023818841204047203,0.031261615455150604,-0.02936723455786705,-0.01889413595199585,-0.010681153275072575,0.10016830265522003,0.0779128298163414,-0.08691978454589844,-0.09080414474010468,0.10867150872945786,-0.06088779494166374,0.09603961557149887,-0.054983753710985184,-0.08290457725524902,-0.013003255240619183,0.032099321484565735,0.07848992943763733,0.04757395386695862,0.10620974749326706,-0.1187758594751358,0.07850830256938934,0.029530620202422142,-0.06103874742984772,0.00011447799624875188,-0.0958838239312172,0.029723357409238815,-0.03522059693932533,-0.039869315922260284,0.03556092828512192,0.1116521954536438,-0.09242251515388489,-0.09061936289072037
0.12106801569461823,0.07997971028089523,-0.009607108309864998,0.035493768751621246,0.08973611891269684,-0.07127755880355835,-0.10668658465147018,-0.09948310256004333,0.008097845129668713,-0.02755274623632431,-0.0355205163359642,0.024091890081763268,0.07349327951669693,0.10248839110136032,-0.024252472445368767,-0.10639995336532593,0.07685723900794983,-0.03057171031832695,-0.13283024728298187,0.06802109628915787,-0.06803596019744873,0.08947829157114029,0.052847251296043396,-0.025014260783791542,0.055655136704444885,0.09675698727369308,-0.06879942864179611,-0.11227525025606155,-0.11069237440824509,-0.060264017432928085,-0.12123800069093704,0.001577064860612154,0.026952164247632027,0.11460981518030167,0.036402542144060135,0.10526180267333984,-0.027133198454976082,-0.045548032969236374,0.1023349016904831,-0.07200279086828232,0.1208382248878479,-0.10609365254640579,-0.06388510763645172,-0.09161096066236496,-0.015618029981851578,-0.10287845134735107,-0.05264430120587349,-0.0997432991862297,0.1142941489815712,-0.13164515793323517,-0.05061511695384979,0.06929570436477661,0.08417195826768875,-0.05373014137148857,-0.011346247047185898,-0.035924967378377914,0.054036322981119156,-0.03131380304694176,-0.03645417094230652,-0.08526083081960678,-0.0907151997089386,0.06501243263483047,0.07862948626279831,-0.11779152601957321
0.014913776889443398,0.10949328541755676,0.007124151103198528,0.07829554378986359,0.011173940263688564,0.074760302901268,-0.03408236429095268,0.02749137207865715,0.041267696768045425,-0.09248887002468109,-0.0921192467212677,0.10361288487911224,0.03090549260377884,-0.10123006254434586,-0.10014175623655319,0.11480738967657089,0.10392767190933228,-0.13067853450775146,-0.08870363980531693,0.022353993728756905,-0.07575147598981857,-0.01398309413343668,0.019000612199306488,0.10470586270093918,-0.018166573718190193,0.06342856585979462,0.02165137603878975,0.126541405916214,0.011032477021217346,-0.11639408022165298,0.061064232140779495,-0.12014437466859818,0.0016313716769218445,0.07927678525447845,0.05962778627872467,0.1032591164112091,0.04047910496592522,-0.10440875589847565,0.0712083950638771,-0.0646033063530922,-0.05605228245258331,0.06600800901651382,-0.11500272899866104,-0.035660021007061005,-0.03115439973771572,0.11058582365512848,-0.052352190017700195,-0.050310637801885605,-0.03266935795545578,-0.07163593918085098,0.0028543814551085234,-0.08938832581043243,-0.032349664717912674,0.11325253546237946,0.0530361607670784,0.010297630913555622,-0.08668968826532364,0.10897918045520782,0.01335328072309494,0.02494787611067295,0.06277693063020706,-0.07542689889669418,-0.029233232140541077,0.04349808767437935
0.11149077862501144,0.09569349884986877,0.019182831048965454,0.01402232050895691,-0.04058583825826645,0.032015297561883926,-0.11261262744665146,0.060283467173576355,0.08819994330406189,-0.04593221843242645,0.03738933429121971,0.02639043889939785,-0.11272964626550674,0.05779724940657616,-0.06237176060676575,0.060272809118032455,0.11248461902141571,0.0523042157292366,-0.1005033627152443,-0.008561265654861927,0.04699481278657913,-0.028728248551487923,0.015758410096168518,0.12186937779188156,-0.08343518525362015,-0.06294248253107071,0.05928373336791992,-0.08440136909484863,0.010027403943240643,0.11401844024658203,-0.08107323944568634,-0.07269564270973206,0.07179442793130875,-0.1084366887807846,-0.02767312154173851,-0.025438975542783737,0.09918103367090225,-0.0050581954419612885,0.03113112784922123,0.10804331302642822,0.03168101608753204,0.024585898965597153,-0.035569943487644196,-0.11187069118022919,0.07021868973970413,-0.10291881114244461,-0.10701325535774231,0.055530671030282974,-0.0056655313819646835,-0.01670069992542267,-0.10684099048376083,-0.06303155422210693,0.005482496693730354,-0.03953291475772858,0.02389843389391899,0.12291648983955383,-0.024921854957938194,0.12809652090072632,-0.04814891144633293,0.06930289417505264,-0.0518973134458065,-0.015858128666877747,0.016985105350613594,0.07970257103443146
0.012158448807895184,-0.09471213817596436,0.04556664824485779,-0.12221579253673553,-0.10876019299030304,-0.08755449950695038,0.02178078331053257,0.07333128154277802,0.02563745342195034,0.1185348853468895,0.07618340104818344,-0.10967395454645157,0.09799914807081223,0.06274187564849854,0.06641240417957306,0.05808337777853012,-0.039763156324625015,-0.077313132584095,-0.08654963970184326,-0.06076594814658165,-0.08950469642877579,-0.028743140399456024,0.10939732939004898,-0.11505361646413803,-0.04137171804904938,0.06087305396795273,0.08877085149288177,0.03776019811630249,0.0351824089884758,0.013717833906412125,0.11557295173406601,-0.049922604113817215,-0.06413180381059647,0.053458113223314285,-0.0065315584652125835,-0.09179473668336868,-0.09028628468513489,-0.07770010083913803,0.026276802644133568,-0.10549555718898773,0.0691455826163292,0.08038869500160217,-0.11616012454032898,0.11132824420928955,-0.045293863862752914,0.10008668899536133,-0.02552753873169422,0.1195015236735344,0.00990341231226921,0.12241422384977341,-0.013418399728834629,-0.11702722311019897,0.08473068475723267,-0.08659520745277405,0.032865606248378754,0.03387760743498802,-0.0840834453701973,-0.02629462257027626,0.11806372553110123,0.06660982221364975,-0.010504946112632751,0.05624581500887871,0.008091283962130547,-0.09447035193443298
-0.11015785485506058,0.10541614890098572,-0.03995276242494583,-0.09424673020839691,-0.07109664380550385,-0.11177186667919159,-0.04389134421944618,0.005551430396735668,-0.1187501922249794,0.016626637428998947,-0.030963074415922165,-0.025750311091542244,0.05837295576930046,-0.12431491166353226,0.08919931948184967,0.027918975800275803,0.000640449405182153,0.015679389238357544,-0.13100911676883698,0.11941011250019073,-0.08522652834653854,0.10441891849040985,-0.049965325742959976,0.03875840827822685,0.036081116646528244,-0.01535453088581562,0.03131186589598656,-0.014514775946736336,0.03853091225028038,-0.043634966015815735,0.08460939675569534,0.01817259006202221,-0.11178260296583176,-0.05918602645397186,-0.04691661521792412,-0.09952500462532043,-0.11099816113710403,0.0714949294924736,0.00800823699682951,-0.09075066447257996,-0.07538916915655136,0.12425794452428818,0.08514069020748138,0.012573583982884884,0.12201695144176483,0.11852162331342697,-0.017870429903268814,0.09038271009922028,0.10671626776456833,0.1178380697965622,0.0625966489315033,-0.0787496492266655,0.000574501056689769,-0.06430632621049881,0.07749035954475403,0.05578294023871422,-0.047716058790683746,0.12195788323879242,0.03382794186472893,0.017079919576644897,-0.05082886293530464,-0.06947989761829376,0.06041834130883217,-0.020949849858880043
0.06470856070518494,0.03806434944272041,0.0526309534907341,0.11613321304321289,0.007805079687386751,0.0077498722821474075,-0.004684440791606903,0.06208350509405136,0.004533277824521065,0.018358860164880753,-0.01726163737475872,-0.0013354683760553598,-0.0550989955663681,-0.0764545276761055,0.08247039467096329,-0.06749220192432404,0.056753888726234436,0.06880945712327957,-0.10341767221689224,-0.05084383860230446,0.0628722757101059,-0.038317255675792694,0.10211722552776337,0.11659324914216995,0.027385953813791275,-0.09879299253225327,-0.09850235283374786,0.08570513874292374,-0.05567454919219017,0.11859553307294846,0.04481807351112366,-0.02666659839451313,0.01790875568985939,0.014849500730633736,0.05903596058487892,0.1265474557876587,0.026586022228002548,0.1108100488781929,0.02756447345018387,-0.04490621015429497,-0.041559524834156036,0.08062972128391266,0.07002094388008118,-0.11453240364789963,0.07556507736444473,-0.01377914659678936,0.05345702916383743,0.11271558701992035,0.11794177442789078,0.020648732781410217,0.0015292763710021973,-0.11033743619918823,0.10907962918281555,-0.023220587521791458,0.07071106135845184,-0.05815983936190605,-0.10920335352420807,0.013501673936843872,-0.10572434961795807,0.05008396506309509,0.030012404546141624,-0.12445158511400223,0.12248694151639938,0.04542072117328644
-0.08376829326152802,0.007255079224705696,0.05551375448703766,0.06825949996709824,0.014731984585523605,0.014408770017325878,0.04230816662311554,0.09538491070270538,-0.11856753379106522,-0.08825766295194626,-0.04370162636041641,0.09206154942512512,0.08123277127742767,-0.05636211112141609,-0.11149182170629501,-0.027137823402881622,-0.06917402893304825,0.02783738076686859,-0.05667683482170105,-0.006696881260722876,-0.11961520463228226,-0.07563354820013046,0.05694517120718956,-0.06844832748174667,-0.021197427064180374,0.08617256581783295,-0.01598929613828659,0.09987923502922058,0.02339598909020424,0.10018549859523773,0.028751986101269722,-0.081351138651371,-0.11341364681720734,-0.09309808164834976,0.10477734357118607,0.12375621497631073,0.022880932316184044,0.07827377319335938,0.06279360502958298,0.06747493892908096,-0.03687995299696922,0.008144319988787174,0.06464401632547379,0.03228582441806793,0.05505489557981491,0.022827284410595894,-0.11561072617769241,-0.07637808471918106,-0.06002180650830269,0.08165104687213898,0.03132205083966255,-0.114792101085186,0.03065391257405281,0.04848930612206459,0.037980817258358,-0.09245548397302628,-0.03154831379652023,0.07820077240467072,0.10472596436738968,0.00809685792773962,0.037496767938137054,-0.06081201508641243,-0.03665902093052864,0.030338462442159653
0.08034738898277283,0.10878355801105499,0.020314648747444153,0.041435062885284424,0.045815203338861465,0.03170982003211975,0.10663484036922455,0.029604753479361534,-0.07745777070522308,0.028419993817806244,-0.10157696157693863,0.0570068396627903,-0.025347428396344185,-0.11559135466814041,-0.11758573353290558,0.08961605280637741,0.06458786875009537,-0.13351881504058838,-0.023964736610651016,0.08487848937511444,0.010720359161496162,0.01898011937737465,0.07858827710151672,0.01333548128604889,0.10584253072738647,0.12826892733573914,0.007627512793987989,0.11963468044996262,-0.11499311774969101,-0.10463275760412216,-0.12882937490940094,0.07167411595582962,0.08336392045021057,-0.039340704679489136,0.03622870892286301,0.0032661622390151024,-0.021675745025277138,-0.09198826551437378,-0.09060992300510406,0.05512833222746849,0.040175557136535645,-0.017492948099970818,-0.06488309055566788,-0.06657548993825912,-0.09628176689147949,-0.07908446341753006,0.08373881131410599,-0.05589517205953598,0.03860735148191452,-0.006528859026730061,-0.06176763400435448,0.07801507413387299,0.06672686338424683,0.0751037448644638,0.0625011995434761,0.10655312985181808,0.06122879683971405,-0.07101414352655411,-0.05080009251832962,0.09711948037147522,0.08417651057243347,-0.10923389345407486,0.08446652442216873,-0.06120216101408005
0.11250485479831696,-0.08584902435541153,0.029889049008488655,0.06333642452955246,0.13037292659282684,0.0017214175313711166,0.029585951939225197,-0.024105379357933998,-0.1077951043844223,0.054719358682632446,0.00508238235488534,-0.11122739315032959,-0.10363642871379852,-0.0972316563129425,0.07728809863328934,0.07365059852600098,0.1099180281162262,-0.1116337776184082,-0.035238731652498245,0.10861319303512573,-0.11710236966609955,0.00877108983695507,-0.11335043609142303,-0.07850685715675354,-0.09827093034982681,0.013872724026441574,-0.06246495991945267,0.015380874276161194,-0.09695937484502792,0.058740369975566864,0.09658939391374588,0.10611063987016678,-0.02161276526749134,-0.0815923735499382,0.0687769278883934,0.0626521185040474,-0.04672178626060486,0.07536445558071136,0.02834530547261238,-0.04645179212093353,0.07571328431367874,0.07128114998340607,0.02366473525762558,-0.08084001392126083,-0.014396632090210915,0.10028032958507538,0.007850763387978077,-0.13064850866794586,0.002932495204731822,-0.042447350919246674,0.04696077108383179,-0.07552684098482132,-0.03306656330823898,-0.10545551031827927,-0.12300506234169006,-0.07021043449640274,-0.07579862326383591,0.03206010162830353,0.05363045632839203,0.08670258522033691,-0.06926197558641434,-0.07286953926086426,0.04053943231701851,-0.055343057960271835
-0.08948943018913269,0.012891448102891445,0.06389053165912628,0.0034338515251874924,-0.11095582693815231,0.03999777138233185,0.06030016019940376,-0.005258697550743818,-0.06938502937555313,0.016593383625149727,0.03367623686790466,-0.06376654654741287,-0.04374217987060547,-0.055745773017406464,-0.025997912511229515,0.047584403306245804,-0.05177025869488716,0.0024506880436092615,-0.07182576507329941,-0.030588334426283836,0.007400995586067438,0.06377489864826202,0.08450454473495483,-0.10516580194234848,0.002700764685869217,-0.02182568982243538,0.08297058194875717,-0.04185785353183746,-0.025952111929655075,-0.073064886033535,0.062278863042593,-0.02955932728946209,-0.00350751425139606,-0.044276025146245956,-0.07093288749456406,-0.1016940176486969,-0.011057532392442226,0.013381445780396461,0.0012946000788360834,0.11960060149431229,-0.0978400930762291,-0.0060392143204808235,0.011408574879169464,0.08280769735574722,0.07200688123703003,0.08644308149814606,-0.10683546215295792,0.03752519562840462,-0.09979068487882614,0.04458025097846985,-0.10936931520700455,0.09861009567975998,0.11858485639095306,0.03250977024435997,0.012049317359924316,-0.09820299595594406,-0.04371194168925285,0.003431491320952773,-0.019337095320224762,-0.1115904301404953,-0.08168813586235046,-0.05405168607831001,0.06052525341510773,0.017476145178079605
-0.06324443221092224,0.05649906396865845,-0.10787032544612885,0.0261567123234272,0.09378809481859207,-0.01744857244193554,0.018156396225094795,-0.04678460583090782,-0.022312942892313004,-0.07654212415218353,0.02904813550412655,-0.05942866951227188,-0.03229932859539986,-0.09817925095558167,0.05127985030412674,-0.11746872961521149,-0.0619954913854599,0.04638203978538513,0.12142037600278854,-0.08928443491458893,-0.13362383842468262,0.0664297565817833,-0.04492921754717827,0.06258398294448853,0.12001993507146835,0.09612973034381866,0.009363814257085323,-0.050223130732774734,-0.033706825226545334,0.01667994074523449,0.041895654052495956,0.08847879618406296,0.09140419214963913,0.01842067763209343,-0.034244854003190994,0.12216643989086151,-0.06777063012123108,-0.08986874669790268,0.007394053507596254,0.06596335023641586,0.011789715848863125,-0.015333707444369793,0.06839791685342789,-0.10314194858074188,0.016191992908716202,0.08367204666137695,-0.014344452880322933,0.1089567318558693,-0.051594506949186325,-0.07416238635778427,0.11188388615846634,0.023164229467511177,-0.10291852802038193,-0.040793728083372116,0.04250042513012886,-0.03126515448093414,0.11067834496498108,-0.11438464373350143,0.06096760183572769,-0.044753678143024445,-0.119810551404953,-0.07906372845172882,0.08011215180158615,-0.036452483385801315
-0.11541946232318878,0.11313694715499878,0.04733362793922424,0.0973881334066391,-0.08438333123922348,-0.07607439160346985,0.09987116605043411,0.10704083740711212,-0.004737439565360546,-0.07560566812753677,0.05160025879740715,-0.004110525827854872,0.08104530721902847,-0.1264580339193344,-0.05973624438047409,0.10031548142433167,-0.0032140451949089766,0.12079256772994995,0.012615000829100609,0.06373488157987595,0.06821771711111069,0.017353570088744164,0.09237382560968399,0.011336468160152435,0.08687549829483032,-0.06598195433616638,0.0802466869354248,-0.07707462459802628,-0.03458835184574127,-0.010937816463410854,-0.03612789139151573,0.05634433031082153,-0.09904282540082932,0.00287960865534842,0.04901794716715813,0.0760134682059288,0.04241989925503731,-0.09915711730718613,0.05267469584941864,0.020554635673761368,0.00454347487539053,-0.08177700638771057,-0.06171141192317009,-0.04947042465209961,-0.0356115847826004,-0.10293546319007874,-0.0892757698893547,0.05025893822312355,0.015790946781635284,0.06335477530956268,-0.06643804907798767,0.06016969308257103,0.03545359522104263,-0.08429736644029617,-0.0046328166499733925,-0.06280004233121872,0.0023067223373800516,0.07506150752305984,-0.05795466527342796,0.09106837213039398,-0.008737669326364994,0.004468356259167194,0.005734746810048819,-0.0011331455316394567
-0.02784672938287258,0.016131766140460968,-0.10984081029891968,-0.10912102460861206,0.01108775194734335,-0.03657403215765953,0.0437018945813179,0.012099729850888252,0.06416463106870651,0.10716661065816879,-0.07040687650442123,0.007340436801314354,0.05753866583108902,-0.11007901281118393,0.039242226630449295,0.050513144582509995,-0.0044831521809101105,-0.08214373886585236,0.10738983750343323,-0.03475969657301903,0.1031758189201355,-0.07826017588376999,-0.06165599822998047,0.09367351233959198,-0.056764986366033554,0.07945390790700912,0.04114031419157982,-0.07856238633394241,0.10739875584840775,-0.015469972044229507,0.0007277794647961855,0.08356056362390518,0.11426497250795364,-0.1326519101858139,-0.011660853400826454,-0.019781451672315598,-0.07713595777750015,-0.11585557460784912,-0.004405658226460218,-0.10719160735607147,0.01670438051223755,-0.08832104504108429,-0.06864521652460098,0.07512667775154114,0.1055307611823082,-0.08818410336971283,0.09100605547428131,-0.10082657635211945,0.015219579450786114,-0.022411655634641647,-0.06863421946763992,-0.031000733375549316,-0.03255699202418327,-0.07777494192123413,-0.02729804441332817,0.006970633286982775,-0.0456726960837841,-0.02655790187418461,-0.028071649372577667,-0.05424003675580025,-0.05726960301399231,0.03701690211892128,0.06052462011575699,0.04620712250471115
-0.017367711290717125,-0.1238177940249443,0.015416326932609081,-0.0034226947464048862,-0.0724894180893898,0.09020419418811798,-0.07857689261436462,0.1153595969080925,0.011695586144924164,-0.0029129860922694206,0.09070920944213867,0.0710386112332344,0.12017302960157394,0.04126247018575668,-0.04968704655766487,0.09419146925210953,0.04025261849164963,0.048935335129499435,-0.09757646173238754,-0.0017193704843521118,-0.016926605254411697,0.08721323311328888,0.09760381281375885,-0.08744168281555176,0.1254560500383377,0.000536909734364599,-0.1000375971198082,-0.01248204056173563,-0.011733858846127987,-0.03860517218708992,-0.008772999979555607,0.07546669989824295,-0.05434669181704521,-0.04217701777815819,0.12098196893930435,-0.06005099043250084,-0.10940984636545181,0.06563443690538406,0.1204460933804512,0.09066968411207199,-0.06860329210758209,-0.04752109944820404,-0.06661876291036606,0.03393981605768204,0.00730473455041647,-0.0726570338010788,0.11420604586601257,0.08263200521469116,-0.008905796334147453,-0.039326805621385574,-0.05901562049984932,-0.08749013394117355,0.03043411858379841,0.030477534979581833,-0.09778401255607605,-0.07020392268896103,0.03261851146817207,-0.0730595737695694,0.05646359920501709,0.00886649638414383,-0.02211979404091835,0.12718376517295837,0.1127847284078598,0.04809918627142906
-0.03806212916970253,-0.06756263226270676,0.056543342769145966,0.014198550954461098,0.029772786423563957,-0.11322415620088577,-0.07369489967823029,-0.07127438485622406,0.10810013115406036,-0.0464140959084034,0.051603708416223526,0.124208003282547,0.02204410918056965,0.0014250475214794278,-0.10342968255281448,-0.11226984858512878,-0.06563818454742432,-0.10159295797348022,0.09396502375602722,0.028349585831165314,0.001557587063871324,0.11397229880094528,-0.07667385041713715,0.11620021611452103,0.07693356275558472,0.026732012629508972,-0.10994963347911835,-0.10082735121250153,-0.048036765307188034,-0.09182057529687881,0.09306294471025467,0.012429551221430302,-0.027342475950717926,-0.09546664357185364,0.0207354873418808,0.09997881948947906,0.04814726486802101,-0.1009485125541687,0.03898671641945839,0.08935921639204025,0.11277887970209122,0.04265967011451721,0.10506518930196762,-0.0498887300491333,0.10911787301301956,-0.06730925291776657,0.05156952142715454,-0.11172526329755783,0.0740143433213234,0.0371222048997879,-0.06614985316991806,-0.006779163144528866,-0.0839763730764389,0.09828751534223557,-0.08009455353021622,-0.051756344735622406,0.015856178477406502,-0.07465635985136032,-0.03719443082809448,0.12764526903629303,-0.09340459853410721,-0.03300601989030838,0.048957709223032,-0.011928723193705082
0.014821913093328476,0.0822506919503212,-0.08549373596906662,-0.10016848146915436,0.08213365077972412,0.027601614594459534,0.12010488659143448,-0.032147347927093506,-0.08898839354515076,-0.041035883128643036,-0.12509004771709442,-0.012653511948883533,0.10976707190275192,0.05572550371289253,0.09120925515890121,-0.03732239454984665,0.04639595374464989,-0.028926027938723564,-0.0637405663728714,0.046461071819067,0.09814880043268204,0.021747341379523277,-0.06423360109329224,-0.05900431424379349,-0.01835460774600506,-0.0757392942905426,0.08437123894691467,0.09301498532295227,0.09203397482633591,-0.0012496218550950289,-0.03655626252293587,-0.06961475312709808,-0.022326156497001648,0.004927385598421097,-0.04089382290840149,0.05241600424051285,0.037805285304784775,0.032522838562726974,0.05372896045446396,0.039954036474227905,0.04882626608014107,0.08103445917367935,0.11825497448444366,0.05981509014964104,-0.030247341841459274,0.0577826164662838,-0.05856476351618767,0.02153053507208824,-0.10510511696338654,0.06076042726635933,-0.11856775730848312,-0.07006195932626724,0.08376685529947281,0.09374905377626419,-0.1139790341258049,-0.03924156725406647,0.0984082892537117,-0.0925535187125206,0.008253257721662521,-0.07236667722463608,0.11051963269710541,-0.02319018356502056,-0.009374347515404224,-0.05770351365208626
-0.06162634864449501,0.00703689269721508,0.10786730796098709,-0.0876297801733017,-0.042990244925022125,-0.005212129093706608,0.1274212896823883,-0.07529386132955551,-0.09155197441577911,0.09444767236709595,0.017801938578486443,0.04089611396193504,-0.09418294578790665,-0.0996537059545517,-0.002659751567989588,0.01596575602889061,0.010705353692173958,-0.04084302484989166,-0.018300114199519157,0.08870652318000793,0.025619778782129288,0.015699002891778946,-0.12225640565156937,0.033977046608924866,-0.04354151338338852,0.09948798269033432,0.09143494814634323,-0.1090109571814537,0.06957745552062988,0.08173959702253342,-0.029338931664824486,0.04766827076673508,0.07033027708530426,0.08081541955471039,0.10025600343942642,-0.03507072478532791,-0.04363538697361946,0.07580558955669403,0.09568293392658234,-0.11790698021650314,-0.09975869953632355,-0.10563826560974121,0.09481783956289291,0.027767013758420944,-0.058953557163476944,0.029419390484690666,-4.9099602620117366e-05,0.031779028475284576,-0.046145979315042496,0.05205502733588219,-0.0981798768043518,0.03528078645467758,0.06960023194551468,0.06512419879436493,-0.06434507668018341,-0.0420234277844429,0.11408688873052597,-0.06916815787553787,0.10221124440431595,-0.10517926514148712,-0.0718856006860733,0.011127392761409283,0.05441518500447273,-0.048393428325653076
-0.029599690809845924,0.0678720474243164,0.0894765853881836,0.013616674579679966,0.015870222821831703,0.11144711822271347,0.04493379965424538,-0.0328751876950264,-0.11943915486335754,-0.05321817472577095,0.034105170518159866,-0.1147182285785675,0.01648584008216858,-0.018622376024723053,-0.09269174188375473,0.06587245315313339,0.061280906200408936,0.11658789217472076,-0.11922789365053177,-0.08652946352958679,0.09657049924135208,-0.09800121188163757,0.10915092378854752,0.08603381365537643,-0.031178046017885208,0.08719785511493683,0.04841218888759613,-0.02896755374968052,0.005139295011758804,-0.040431905537843704,-0.02522878348827362,0.09139741957187653,-0.12594924867153168,-0.06176202371716499,-0.026614710688591003,-0.0500170961022377,-0.11060197651386261,0.0029883342795073986,0.039583757519721985,-0.1095777377486229,0.03393472358584404,0.02284127287566662,-0.03336517885327339,0.09850593656301498,0.01243131048977375,-0.037581734359264374,0.029891956597566605,0.08643949031829834,-0.09925470501184464,-0.015204341150820255,0.009851223789155483,-0.024819040670990944,0.048282019793987274,0.007735368795692921,0.10782857984304428,-0.04968825355172157,-0.07840535789728165,0.11822318285703659,0.04651230201125145,-0.005618815775960684,0.12097802013158798,-0.096230149269104,-0.03506940230727196,0.08797085285186768
0.1184806227684021,0.03417644277215004,0.11542009562253952,-0.04643137380480766,0.07398395985364914,-0.10804127156734467,0.020891563966870308,0.07308949530124664,0.03525000810623169,0.06229567155241966,0.006575076840817928,0.06174638867378235,-0.13274697959423065,-0.00015967868966981769,0.028579236939549446,0.07238882780075073,-0.02238062210381031,-0.020000455901026726,-0.1188681572675705,0.06077425554394722,0.057623300701379776,-0.050043098628520966,0.09072507172822952,-0.019952239468693733,0.037521183490753174,0.04747498407959938,0.0624319426715374,0.035478539764881134,-0.10053351521492004,0.09413210302591324,-0.0026295429561287165,0.10890519618988037,0.027693532407283783,0.00322635006159544,-0.006080138962715864,-0.11527501791715622,0.03535746410489082,0.08440601080656052,0.04371901601552963,-0.1030590608716011,-0.0005997060216031969,-0.025574175640940666,0.10437331348657608,0.007272457703948021,-0.044817812740802765,-0.10995392501354218,0.03477704897522926,-0.11369793862104416,-0.08155231922864914,0.04287301003932953,-0.08885306119918823,-0.0488252118229866,0.063865065574646,0.09569720923900604,0.07904863357543945,-0.02973398193717003,0.00421505980193615,0.10557766258716583,-0.02704508602619171,0.1180848479270935,0.00604265509173274,0.11165280640125275,-0.07708500325679779,0.031039774417877197
-0.03470646217465401,-0.10357659310102463,-0.08185669034719467,0.023512225598096848,-0.020022328943014145,-0.06588361412286758,0.10780932009220123,-0.08262939006090164,0.017750238999724388,0.07956337183713913,0.06113860011100769,-0.10890762507915497,0.07158693671226501,0.03484966233372688,-0.10877690464258194,-0.06441926211118698,0.022753799334168434,0.04218798130750656,-0.11325181275606155,-0.09815964102745056,0.011559832841157913,-0.007169413845986128,0.04834088310599327,0.04550653696060181,-0.022879216820001602,-0.05764492228627205,0.11684460937976837,0.11437434703111649,-0.11178451776504517,-0.012666923925280571,0.09195292741060257,-0.09758805483579636,0.07090035825967789,-0.002337227575480938,-0.1019565761089325,0.03453826159238815,0.07048483192920685,0.025748394429683685,-0.11201533675193787,0.08206390589475632,-0.10250940173864365,-0.10999703407287598,-0.03455515578389168,0.008212374523282051,0.0309529397636652,0.06684204936027527,-0.11673583835363388,0.054507654160261154,0.059739623218774796,-0.08734505623579025,-0.1038888469338417,0.10216131061315536,0.04955686256289482,-0.10785502195358276,-0.09093377739191055,0.04015900567173958,-0.010977106168866158,-0.02935345098376274,-0.009850145317614079,-0.05119949206709862,0.09419167786836624,-0.0319254994392395,-0.0728209987282753,0.07891356945037842
0.03409310057759285,-0.10851502418518066,-0.11946656554937363,0.03782740607857704,-0.11035380512475967,-0.04655995965003967,0.09675373136997223,0.12452367693185806,-0.07840646803379059,-0.0028385729528963566,0.0472368448972702,0.08378440141677856,0.025625407695770264,0.12697456777095795,-0.047668833285570145,0.0005057697417214513,0.11052080243825912,-0.06547605246305466,-0.12961013615131378,0.05077964439988136,-0.09431032091379166,-0.0745222419500351,0.1080225482583046,0.08791574835777283,0.06684841215610504,0.09338610619306564,-0.11461690068244934,0.040394969284534454,0.03067319467663765,0.11181234568357468,-0.12526476383209229,-0.04205016419291496,-0.09487028419971466,-0.07988254725933075,-0.07457350939512253,-0.06511560827493668,0.018217995762825012,0.06281208246946335,-0.10327361524105072,0.09385737776756287,0.09636616706848145,-0.05896291136741638,-0.05885430797934532,-0.08488626033067703,0.11686327308416367,0.07327915728092194,-0.05835391953587532,0.058859579265117645,-0.09521831572055817,-0.08347687125205994,0.059501878917217255,-0.02452935464680195,0.12286414951086044,-0.01034819707274437,-0.11241937428712845,0.002920193364843726,-0.018887938931584358,0.09164528548717499,-0.033971674740314484,-0.0426781065762043,0.044378846883773804,0.12463217973709106,0.10052865743637085,-0.09164556860923767
-0.024097014218568802,-0.06084991246461868,-0.03710480406880379,0.019651245325803757,-0.03558086231350899,0.05343034863471985,0.08750186860561371,-0.017248257994651794,-0.015839051455259323,0.07562620937824249,0.012999754399061203,-0.007165393326431513,0.006269340869039297,-0.030499674379825592,-0.06748667359352112,0.06644889712333679,-0.04446055740118027,-0.11961758136749268,-0.12976917624473572,0.11591029167175293,-0.0982985571026802,-0.021151287481188774,-0.0297267884016037,-0.11671194434165955,0.049008093774318695,0.11923275887966156,0.03463461250066757,-0.04279244691133499,-0.09880159050226212,-0.06570789963006973,0.04132304713129997,-0.0005146281910128891,-0.04989534616470337,-0.06040303409099579,0.02631474658846855,0.10505720227956772,0.07686689496040344,0.062283750623464584,0.019380668178200722,-0.09935227781534195,-0.11439648270606995,0.10805121064186096,0.05522118881344795,0.01681526005268097,-0.04920630529522896,0.0415104441344738,-0.0680772066116333,-0.062302302569150925,-0.0699826255440712,-0.04639946669340134,0.015201309695839882,-0.06312759220600128,-0.054310452193021774,-0.003953644074499607,-0.13213661313056946,0.12221033871173859,-0.008697031065821648,0.029971880838274956,-0.039743974804878235,-0.09425143152475357,-0.10977505147457123,0.10220769047737122,0.07948572933673859,0.06546279788017273
-0.046103693544864655,0.11477246135473251,0.10392404347658157,-0.02489458955824375,-0.08132857829332352,-0.10562663525342941,-0.029374364763498306,-0.023532886058092117,0.11971268802881241,-0.07145773619413376,-0.020241908729076385,0.11421998590230942,0.13065072894096375,0.10127919912338257,0.07816309481859207,-0.038433268666267395,0.08371473848819733,0.008872593753039837,0.0014075366780161858,-0.073505699634552,-0.011515387333929539,0.08376294374465942,-0.07331527024507523,0.11076054722070694,0.024581193923950195,0.055410295724868774,-0.08262810111045837,0.0703340470790863,-0.02452872321009636,0.02072804421186447,0.04229140654206276,0.09228450059890747,-0.07927604764699936,-0.11785131692886353,0.1016208827495575,0.04578355699777603,0.05785619840025902,0.000959242694079876,0.03854185342788696,-0.0789104551076889,-0.10514234751462936,0.0376819483935833,0.0673798993229866,-0.05300720036029816,0.0857783704996109,0.07127989828586578,-0.024278471246361732,-0.050644293427467346,0.06470432877540588,0.05012066289782524,0.08976053446531296,0.11110725998878479,0.016672980040311813,0.09988728910684586,0.06821370869874954,0.034232042729854584,-0.07773321121931076,0.07068697363138199,-0.07353933155536652,-0.07234135270118713,0.005100779701024294,-0.013958661817014217,-0.06884132325649261,-0.032842956483364105
0.09041887521743774,-0.11501716077327728,0.002690910827368498,-0.0010005946969613433,0.01260330155491829,0.0005023792036809027,0.054633546620607376,0.05813457444310188,-0.03610527887940407,0.07021849602460861,-0.005900251679122448,0.029603974893689156,0.030582357197999954,-0.11559704691171646,-0.12155377119779587,-0.04260178282856941,0.03681619465351105,0.018584543839097023,0.018737951293587685,-0.023204443976283073,-0.006142050493508577,-0.11543188989162445,0.059972018003463745,-0.03925400972366333,0.12750275433063507,-0.015875747427344322,-0.11445538699626923,0.03901916369795799,0.06052730232477188,0.04107757285237312,0.03712420165538788,0.11748069524765015,0.07011489570140839,0.12116443365812302,-0.08301381766796112,0.1288362443447113,-0.08664556592702866,-0.04644738882780075,-0.1310695856809616,0.09323690831661224,-0.09250853955745697,-0.039820753037929535,-0.05337541922926903,0.061905719339847565,-0.01760232076048851,-0.007237541489303112,0.03384023532271385,-0.07440607994794846,-0.06644541025161743,-0.05290680751204491,-0.05045001953840256,0.017861420288681984,-0.08526789397001266,0.06884849816560745,0.1073414757847786,0.00104124890640378,-0.05612868815660477,0.00013917835894972086,-0.05267757922410965,-0.11918805539608002,-0.05833008140325546,-0.09376141428947449,0.012136667966842651,-0.08115623146295547
0.017267391085624695,-0.11168316751718521,-0.06210766360163689,-0.10719159990549088,0.03604840487241745,-0.06409019231796265,0.11217669397592545,-0.00872052926570177,-0.07175606489181519,-0.023572901263833046,0.11501219868659973,-0.11572584509849548,-0.06327611953020096,0.11322273313999176,0.0023403381928801537,-0.022877104580402374,0.036274343729019165,0.0709475502371788,-0.04879430681467056,0.12105139344930649,0.03785690665245056,0.0068405806086957455,0.012873541563749313,-0.020617129281163216,-0.005519029684364796,-0.059138741344213486,-0.013859502971172333,-0.07061678171157837,-0.008026684634387493,-0.007237087935209274,-0.08237450569868088,0.05944961681962013,0.09681583195924759,0.09925274550914764,-0.012639663182199001,-0.05890325456857681,0.09761656820774078,-0.08265740424394608,-0.050263501703739166,-0.06791502237319946,-0.11277537047863007,-0.07242908328771591,0.05917171388864517,0.021817276254296303,0.018448568880558014,0.1135910302400589,-0.10010179132223129,-0.12328784167766571,-0.08474238216876984,-0.027184663340449333,-0.003560813842341304,-0.0008078041719272733,-0.10161209851503372,-0.08987485617399216,-0.05303284898400307,0.10397859662771225,0.041059885174036026,0.09493272751569748,0.05189649388194084,0.13014470040798187,0.08616545051336288,0.06909222155809402,0.09568892419338226,0.06094259023666382
-0.07132144272327423,-0.026253655552864075,0.12430192530155182,-0.057427339255809784,-0.04165177419781685,0.08759375661611557,-0.04685400053858757,0.08755121380090714,0.1016244888305664,-0.07623104006052017,0.09571827203035355,0.028167881071567535,-0.03886003792285919,0.0900430902838707,0.0313849151134491,0.051241010427474976,-0.0804414376616478,0.0487961582839489,0.0031871588435024023,0.02213318645954132,0.02050502970814705,-0.054731711745262146,-0.040580060333013535,-0.02752719074487686,-0.09043246507644653,0.04843658208847046,0.11012967675924301,-0.0615248829126358,-0.009284516796469688,-0.10019564628601074,0.01434625405818224,0.0543816015124321,0.026250626891851425,0.07162430137395859,-0.10614971816539764,0.05746884271502495,-0.07064007967710495,0.11275700479745865,-0.11631567776203156,-0.00815895851701498,0.038729459047317505,0.055125683546066284,0.10506944358348846,-0.0615675114095211,-0.04540574178099632,0.102584607899189,-0.09221245348453522,0.01003599725663662,-0.0015078724827617407,-0.057025887072086334,0.03000657632946968,-0.019366813823580742,0.07685259729623795,-0.09790603816509247,-0.11661569029092789,0.03384936600923538,0.011613280512392521,-0.1206481009721756,-0.0906313955783844,-0.06244199350476265,0.04984630271792412,-0.03456411883234978,-0.10846883058547974,0.010439402423799038
0.012028895318508148,-0.0952700600028038,0.07817550003528595,0.08090370893478394,-0.011048457585275173,0.03724304586648941,-0.0737423449754715,0.08688570559024811,0.014904203824698925,0.10867760330438614,0.12264111638069153,-0.06784724444150925,0.055994778871536255,0.022570421919226646,-0.04455837979912758,-0.10186921805143356,0.07286233454942703,-0.08324872702360153,0.08603531122207642,0.11627549678087234,-0.0196091141551733,-0.1111094206571579,-0.09471239149570465,-0.02966349944472313,-0.03441719710826874,-0.11750944703817368,0.050838153809309006,0.0027349679730832577,0.05366373807191849,-0.03025839477777481,-0.07581409811973572,0.11873365193605423,0.020120110362768173,0.020772378891706467,0.07878973335027695,0.0646805539727211,0.014357331208884716,-0.05568539351224899,0.03552465885877609,0.09581225365400314,0.09677844494581223,-0.00929446704685688,-0.11133389174938202,-0.08033078908920288,0.07257949560880661,0.11231584846973419,0.07009623944759369,0.08016259223222733,0.12539713084697723,-0.03115898184478283,0.0957053005695343,-0.008791699074208736,0.09367666393518448,0.06756255030632019,-0.0018781782127916813,-0.005180766806006432,0.06540849804878235,-0.02184193581342697,-0.005481237545609474,0.03925290331244469,-0.07131803035736084,-0.01903877593576908,0.05887230858206749,0.02204163931310177
0.08627665042877197,0.03025379776954651,0.067848801612854,0.005168404895812273,-0.02752027101814747,-0.03759218007326126,0.07213908433914185,0.0029930893797427416,-0.031104113906621933,-0.09303446859121323,-0.0689450055360794,0.08264469355344772,0.01894163340330124,0.060918256640434265,-0.09204491972923279,0.10959472507238388,0.04244948923587799,0.1037788912653923,-0.0267435722053051,0.10052219033241272,-0.07982160151004791,0.014112718403339386,0.01671101339161396,-0.053375352174043655,-0.010372461751103401,0.037636540830135345,-0.061253637075424194,0.019978933036327362,0.04148160293698311,-0.10253430902957916,-0.044369716197252274,0.07467599958181381,-0.08014854043722153,-0.004002960864454508,0.09117196500301361,-0.03204396367073059,0.07750420272350311,0.06847204267978668,-0.055039867758750916,0.11144615709781647,0.10682373493909836,0.09012486785650253,0.0406222939491272,0.07374859601259232,-0.05235295370221138,-0.010831606574356556,0.09737328439950943,-0.1060601994395256,0.020311949774622917,0.11160150170326233,0.0027951947413384914,-0.04615865647792816,-0.10003408789634705,-0.056683484464883804,-0.03170996904373169,0.01782240904867649,0.05697476118803024,-0.0796871930360794,-0.10927683115005493,-0.009397926740348339,-0.040780168026685715,-0.044032853096723557,-0.09491433948278427,0.006327271927148104
0.0035793439019471407,0.04029865562915802,-0.008811972104012966,-0.05076127499341965,-0.05133359506726265,0.00500896479934454,-0.03399678319692612,-0.030607173219323158,-0.02809046395123005,-0.04388134926557541,0.11167053133249283,0.01566651277244091,0.08665474504232407,0.0715508908033371,0.09404490143060684,-0.011447634547948837,-0.1061859205365181,-0.07741227000951767,-0.018090931698679924,0.027578206732869148,-0.03674585744738579,-0.11621119827032089,-0.0629238709807396,0.10578644275665283,-0.06419852375984192,-0.09115276485681534,0.08752541244029999,-0.053533632308244705,-0.004854212980717421,0.12402308732271194,0.10490702837705612,0.10463014990091324,-0.08215176314115524,0.014861947856843472,-0.008404979482293129,0.010488120838999748,0.1211031824350357,0.07902118563652039,-0.11498398333787918,0.12469767779111862,0.10818086564540863,-0.08990307152271271,-0.10529743880033493,0.09593048691749573,-0.045070942491292953,-0.10819783806800842,0.05929866433143616,0.0026204888708889484,0.08412160724401474,-0.07871823757886887,0.1221909448504448,-0.03883185610175133,-0.07528971135616302,0.04397616162896156,-0.11060506850481033,-0.09125098586082458,-0.019915148615837097,0.010218363255262375,-0.04636676609516144,-0.009671340696513653,-0.1128736287355423,0.08656235039234161,-0.0027989388909190893,0.025739280506968498
0.0815514549612999,0.06736061722040176,0.09723149985074997,0.06535688042640686,0.04159604385495186,-0.06818247586488724,0.09771771728992462,-0.024618808180093765,0.06076561659574509,0.11980139464139938,-0.07808493077754974,-0.017510218545794487,-0.08349359780550003,-0.012850016355514526,-0.027390900999307632,-0.0970069169998169,-0.044261056929826736,0.056700725108385086,-0.0837506428360939,-0.015659518539905548,0.08479350060224533,0.1119789332151413,-0.11878272891044617,0.08567676693201065,0.012870942242443562,0.043413352221250534,0.07269246131181717,0.0906839519739151,-0.056477226316928864,0.0918157771229744,-0.005347779020667076,0.011737408116459846,0.036178406327962875,-0.10649039596319199,-0.05934827774763107,-0.1319521814584732,0.030776094645261765,0.06380415707826614,-0.04224034771323204,0.02384337969124317,-0.015277334488928318,-0.033810101449489594,-0.08706381916999817,0.051966629922389984,-0.003131633624434471,0.06088890880346298,0.12322108447551727,-0.09098649770021439,-0.012803008779883385,-0.03835873305797577,0.07108426094055176,0.10495352745056152,0.10223783552646637,-0.006310741417109966,0.04007057845592499,-0.04975513741374016,-0.12307178974151611,-0.1160011813044548,0.054319512099027634,-0.0989575907588005,-0.06898580491542816,0.037517763674259186,-0.10722973942756653,0.0780147835612297
0.08874796330928802,-0.006938023027032614,0.02615727297961712,0.08750021457672119,0.04547903314232826,-0.12329762428998947,0.04616114869713783,-0.1309797763824463,-0.0771932303905487,-0.13390107452869415,-0.06206509470939636,0.0015866679605096579,0.0010746653424575925,0.009652414359152317,0.001322038471698761,-0.10508181899785995,0.01566670648753643,-0.041366517543792725,0.07054737210273743,0.10133816301822662,-0.016714783385396004,0.01732807047665119,-0.0691634938120842,0.060287345200777054,0.10061684995889664,0.03997275233268738,0.03991367667913437,-0.007347235456109047,-0.08731254190206528,-0.02481701970100403,-0.07913912832736969,0.09959708899259567,-0.0691680833697319,-0.08565864711999893,0.038846373558044434,-0.04341566562652588,-0.013574461452662945,0.1300821304321289,0.059044260531663895,0.09091443568468094,-0.03541535511612892,-0.02850905992090702,-0.08951398730278015,0.027975300326943398,0.07910968363285065,-0.07191954553127289,-0.041538771241903305,0.09277985990047455,-0.04108862206339836,0.060196250677108765,0.09110738337039948,0.07028205692768097,-0.060763634741306305,-0.0066806962713599205,0.08050625771284103,0.10961127281188965,0.06883716583251953,-0.07284056395292282,0.07512496411800385,-0.035433702170848846,0.1259089708328247,-0.08292119950056076,0.12256016582250595,0.1142052561044693
-0.016451602801680565,-0.06371673941612244,-0.10389749705791473,-0.020818935707211494,-0.0751284658908844,-0.0030791570898145437,-0.10560329258441925,0.043773308396339417,0.08033735305070877,0.017573263496160507,0.041223976761102676,0.08133105933666229,0.04913372918963432,-0.08056409657001495,0.03696972876787186,-0.008894572965800762,-0.036638107150793076,-0.052238840609788895,0.05357694998383522,-0.10956504940986633,-0.1260598748922348,0.05113789811730385,-0.10149641335010529,0.04036819189786911,-0.053287506103515625,0.014607921242713928,-0.048860155045986176,0.07352712005376816,-0.030135300010442734,-0.045953407883644104,0.06599045544862747,-0.015166924335062504,0.08499078452587128,0.10073917359113693,0.012848377227783203,-0.05379561707377434,0.046253498643636703,0.10794631391763687,-0.012983162887394428,0.04187088459730148,-0.07791575789451599,0.06544413417577744,-0.0273894015699625,-0.1068231388926506,-0.027803929522633553,0.06197107955813408,-0.04129539802670479,-0.05482030287384987,-0.014339424669742584,0.08426466584205627,-0.08728785067796707,-0.12043411284685135,-0.058024562895298004,-0.10615703463554382,0.10725559294223785,0.01313904207199812,0.024795563891530037,0.04119313135743141,0.031061509624123573,-0.007219858467578888,0.06054779142141342,-0.1215234026312828,-0.0069344537332654,-0.1213763952255249
-0.01170478854328394,-0.107386015355587,0.004211404360830784,0.12420352548360825,0.11210353672504425,0.07857801020145416,0.08575408905744553,-0.11286170035600662,0.1059962585568428,0.07971803098917007,-0.02794656716287136,0.02897837944328785,-0.020832784473896027,0.04045472294092178,0.02649480476975441,0.0380752831697464,0.04664882645010948,-0.12270435690879822,0.04008070006966591,-0.04975304752588272,-0.03175216168165207,-0.105750173330307,-0.09271183609962463,0.0785214751958847,0.018508180975914,0.02108617313206196,0.022265641018748283,-0.050110336393117905,-0.04962850734591484,0.09217926114797592,0.1263922154903412,0.0325254462659359,-0.018380379304289818,0.1286640763282776,-0.029098888859152794,0.09199932217597961,0.09430371969938278,-0.0738096833229065,-0.05633815750479698,-0.09566855430603027,0.05990390107035637,0.023090189322829247,0.06904695183038712,0.020027102902531624,0.012374619022011757,0.09401164948940277,-0.052750442177057266,0.09750990569591522,-0.048474930226802826,0.11723215132951736,-0.05171002075076103,-0.026560645550489426,-0.08842074871063232,0.013170922175049782,-0.003110927063971758,-0.09417302161455154,-0.08772721141576767,0.010243859142065048,-0.027530916035175323,0.035521604120731354,0.05292085185647011,-0.023197103291749954,-0.07712976634502411,-0.038695577532052994
0.09147019684314728,0.030024144798517227,-0.018982496112585068,0.0009882253361865878,0.10721055418252945,0.0536821186542511,0.12347368150949478,-0.11389954388141632,0.022453363984823227,-0.061960671097040176,0.060865044593811035,0.045918527990579605,0.12266892194747925,0.08809463679790497,0.054366614669561386,-0.011614905670285225,0.10954882204532623,0.005649716127663851,-0.05385155230760574,0.09248295426368713,0.08429936319589615,0.12955456972122192,0.09482371062040329,-0.04901766777038574,0.12629413604736328,-0.09623075276613235,0.11747647821903229,-0.10833672434091568,0.009255138225853443,0.03775206580758095,0.06278370320796967,0.10685382783412933,-0.05190856009721756,0.0764678418636322,0.11466701328754425,-0.008387435227632523,-0.06302507221698761,0.00373805477283895,-0.025102786719799042,0.12959054112434387,0.11706438660621643,-0.1223224326968193,-0.06878267973661423,0.07737226784229279,0.029523395001888275,0.05066344141960144,0.12147022038698196,-0.03139838948845863,0.04331924393773079,0.00610937736928463,0.06443996727466583,-0.04445253312587738,0.0565454326570034,0.11809304356575012,0.011868542060256004,-0.05447360873222351,-0.0732986181974411,0.0635228306055069,0.10524119436740875,-0.0073901331052184105,-0.11198628693819046,0.06876331567764282,0.03565528988838196,-0.001410198281519115
0.06445574760437012,-0.037955570966005325,0.12276263535022736,-0.11362720280885696,-0.03326104208827019,-0.008049082942306995,-0.12211167067289352,0.11319734901189804,0.064616359770298,0.0818197950720787,-0.041609086096286774,0.038255203515291214,0.04096382483839989,0.07848624140024185,-0.12234915047883987,0.08085000514984131,-0.12857463955879211,-0.10908028483390808,-0.06857818365097046,0.07719103991985321,0.07749728858470917,-0.10831504315137863,0.053320325911045074,0.0766255110502243,-0.09547445178031921,0.013518765568733215,0.12900397181510925,0.130059614777565,0.08610203862190247,-0.12089792639017105,0.10101903229951859,0.005478249862790108,0.10388501733541489,-0.01871819607913494,-0.050186771899461746,0.0790739357471466,-0.0050118532963097095,-0.10444032400846481,-0.016030272468924522,0.04729791358113289,-0.019755203276872635,-0.08463190495967865,-0.059796806424856186,-0.006839656736701727,-0.045267704874277115,0.12859021127223969,-0.09112058579921722,0.0722154900431633,-0.0966000184416771,-0.034209977835416794,-0.0679505467414856,0.004413059446960688,-0.10576514154672623,0.07714203000068665,-0.024144122377038002,0.06237123906612396,-0.0009601333877071738,-0.08271827548742294,0.1128951832652092,-0.1272648721933365,-0.07307843863964081,-0.07053996622562408,0.10268119722604752,-0.06108495593070984
0.07013417035341263,0.11759116500616074,0.09386345744132996,0.04636508598923683,0.0746721401810646,0.09296039491891861,-0.07338880002498627,0.0889844074845314,-0.11356843262910843,-0.061318423599004745,-0.012280612252652645,-0.04301952198147774,-0.031424589455127716,0.0629611685872078,0.008304203860461712,0.037284303456544876,0.010343711823225021,-0.035793691873550415,0.11620166152715683,0.06809060275554657,-0.04979448765516281,-0.11506395787000656,-0.028710735961794853,-0.08246421068906784,-0.06845218688249588,-0.10911695659160614,0.10843536257743835,-0.054230883717536926,-0.007089131511747837,-0.10333960503339767,0.10729612410068512,-0.08861390501260757,-0.009411030448973179,-0.12193790078163147,0.06222066655755043,0.06290260702371597,0.0200003981590271,0.09388230741024017,-0.11011207848787308,0.0328865721821785,0.04418645426630974,-0.08557817339897156,0.09116614609956741,-0.10395868122577667,0.11662886291742325,0.02986259013414383,0.10277794301509857,-0.05914972722530365,0.11584227532148361,-0.0752449631690979,-0.016682462766766548,-0.07215537130832672,0.08444742113351822,-0.05462360754609108,0.11155685782432556,0.010197441093623638,0.11095649003982544,0.022233474999666214,-0.03912074863910675,0.09733515232801437,0.0896737352013588,-0.009138586930930614,-0.026653926819562912,0.08648380637168884
-0.07105381786823273,0.040443919599056244,-0.010661656036973,0.050049133598804474,-0.07023753970861435,-0.09062762558460236,0.09286123514175415,-0.10240780562162399,0.0574355274438858,-0.04663051292300224,0.03895705193281174,-0.11211015284061432,-0.010989601723849773,0.06771045178174973,-0.040065567940473557,0.01226539071649313,-0.06248438358306885,0.03455616161227226,0.055597495287656784,0.0019423601916059852,0.012246128171682358,-0.09512419253587723,0.06947011500597,-0.07512997835874557,-0.09281430393457413,0.0062672472558915615,-0.003175468649715185,-0.1146022379398346,-0.1171208843588829,-0.09265267103910446,-0.10568559914827347,-0.09550067037343979,0.06555192917585373,-0.06251945346593857,0.1252892017364502,-0.09569834917783737,-0.03385838121175766,-0.021699242293834686,0.09527365118265152,0.06515543907880783,0.013310043141245842,-0.049094803631305695,0.054728779941797256,-0.09203336387872696,0.02071823552250862,0.08333581686019897,0.028979230672121048,0.07054418325424194,-0.03115096315741539,0.09643320739269257,0.011303978972136974,0.04975065961480141,0.017853135243058205,0.015470476821064949,-0.08923287689685822,0.08589737862348557,-0.12302898615598679,-0.047371622174978256,0.009740195237100124,0.04128655791282654,-0.06703242659568787,-0.05700637027621269,-0.04913438856601715,-0.12429510802030563
-0.10552328824996948,0.03894132748246193,-0.0021837581880390644,-0.023143520578742027,0.05489549785852432,0.05091942101716995,-0.10321316868066788,-0.015588159672915936,0.019158758223056793,-0.03599199280142784,0.09848836809396744,-0.08912988752126694,0.061683714389801025,0.061267074197530746,-0.0957784354686737,-0.09856163710355759,0.0644051656126976,-0.06989583373069763,0.08461608737707138,0.017151614651083946,-0.021798953413963318,0.11012692749500275,-0.028063325211405754,0.008645170368254185,-0.07530201226472855,0.0024592839181423187,0.11775948107242584,0.12085612118244171,-0.04870247840881348,-0.045689333230257034,0.11923390626907349,0.10017171502113342,-0.027406038716435432,-0.004647569730877876,-0.07750517874956131,-0.1087881475687027,0.017314087599515915,-0.0916331559419632,0.0479070208966732,0.10566219687461853,-0.05368054658174515,-0.07450946420431137,-0.10727016627788544,-0.004949601367115974,-0.04493299126625061,0.12388170510530472,0.07216826826334,0.09399942308664322,0.11747604608535767,0.015328047797083855,-0.0829184278845787,-0.023880610242486,-0.10691844671964645,-0.059243060648441315,-0.11928870528936386,0.03537646308541298,-0.10515084117650986,0.006178359035402536,0.10157931596040726,-0.016999663785099983,0.10077353566884995,0.02851935289800167,-0.031073037534952164,0.037998560816049576
0.12120473384857178,0.06634602695703506,-0.11516633629798889,-0.02019582875072956,-0.029733043164014816,-0.05469313636422157,-0.004660048987716436,-0.12373696267604828,0.09530387818813324,-0.08917948603630066,0.054181527346372604,0.029520034790039062,0.039243265986442566,-0.09882038831710815,-0.08863871544599533,-0.09424148499965668,0.06285553425550461,0.07530494034290314,0.020007263869047165,0.05102253705263138,0.044557053595781326,0.04940858855843544,-0.07442817836999893,0.030067691579461098,-0.020142391324043274,0.06577178835868835,0.10307003557682037,0.04528173431754112,-0.02503260038793087,0.09490499645471573,0.09822551906108856,-0.02413664385676384,0.10045091062784195,-0.06678176671266556,0.07338425517082214,-0.0006884823087602854,-0.00030248251277953386,-0.03707099333405495,0.1141296774148941,-0.02250133454799652,-0.08423635363578796,-0.05772002786397934,-0.03674043342471123,0.08753496408462524,0.09718521684408188,0.03924804925918579,-0.010922171175479889,0.0014545345911756158,0.001179773942567408,-0.11781280487775803,-0.04774559289216995,0.09716366231441498,0.0020092965569347143,-0.09536110609769821,-0.12367237359285355,-0.00458900909870863,-0.059292759746313095,-0.07442617416381836,-0.02442368119955063,0.08663392812013626,0.088193379342556,-0.0423690602183342,0.10778223723173141,0.10377984493970871
0.03655272722244263,0.04757406935095787,-0.056810151785612106,0.09804212301969528,-0.11191172897815704,-0.10249857604503632,-0.11408043652772903,-0.07566961646080017,-0.0006687986897304654,-0.04869432747364044,-0.07575638592243195,0.08741364628076553,0.02994985319674015,0.05910702049732208,-0.014384111389517784,0.023459330201148987,0.06765788048505783,-0.04135306552052498,-0.010954958386719227,-0.041446488350629807,-0.07722574472427368,0.013218697160482407,0.06574385613203049,-0.04444175958633423,0.051439717411994934,0.06043412163853645,-0.046914733946323395,-0.1088562160730362,0.07592839002609253,0.08869898319244385,-0.053157564252614975,-0.007088478654623032,0.010977361351251602,-0.07040539383888245,-0.03077017329633236,-0.06206958368420601,0.1277545839548111,0.09510977566242218,-0.016644733026623726,0.05095052719116211,-0.03369370847940445,0.08126788586378098,0.056074246764183044,-0.001445389469154179,0.09730435907840729,-0.0822199285030365,0.029566098004579544,-0.09482113271951675,-0.09852490574121475,0.025945181027054787,0.06428474932909012,0.07734925299882889,-0.060495197772979736,-0.002957454649731517,-0.05605131387710571,0.06567230075597763,0.08142199367284775,0.057022400200366974,-0.05323198065161705,0.1151689663529396,0.04737253859639168,0.02958911657333374,0.015991250053048134,0.012478435412049294
0.1094670221209526,0.06980428844690323,0.08397283405065536,-0.017823120579123497,0.12299858033657074,0.0962059423327446,-0.04111649468541145,-0.0424424447119236,-0.10199082642793655,0.10750772804021835,-0.02745671756565571,0.006621691398322582,-0.05884910747408867,0.09589661657810211,-0.02555052936077118,-0.08167567849159241,-0.03638402000069618,0.015056170523166656,-0.05874902009963989,0.0392545647919178,-0.10032157599925995,0.0290317852050066,-0.07110211998224258,0.02129429019987583,-0.028483305126428604,0.07353800535202026,-0.11484333872795105,-0.03441280126571655,-0.06595002114772797,-0.10338599979877472,0.10323251783847809,-0.07297851145267487,-0.003964678850024939,-0.01326239388436079,0.09543042629957199,-0.11214008182287216,0.08408571034669876,-0.10063714534044266,-0.0026916582137346268,-0.10635881125926971,0.05150333046913147,0.025533417239785194,-0.03716244921088219,-0.10583611577749252,0.11442232877016068,-0.025185974314808846,0.04487157240509987,0.08364329487085342,0.06107093766331673,0.0696135014295578,0.10895388573408127,0.11149190366268158,0.10078411549329758,0.06625541299581528,-0.08829331398010254,0.055926062166690826,0.11341818422079086,0.0569157749414444,-0.07401948422193527,-0.06163989007472992,0.10995112359523773,-0.06488978117704391,-0.10041119158267975,0.05248909071087837
-0.06660845875740051,-0.06796041876077652,8.625214104540646e-05,0.011799627915024757,0.03713897988200188,0.08474886417388916,0.05952245369553566,0.09930454939603806,0.022020334377884865,-0.09342342615127563,0.04028347507119179,0.033199653029441833,-0.02530156634747982,0.024982614442706108,0.002702874131500721,-0.042028434574604034,0.06384296715259552,-0.0850219875574112,0.034068986773490906,-0.08085383474826813,0.0827622190117836,-0.09083765745162964,-0.07207603007555008,-0.017909005284309387,-0.06589317321777344,0.08050502836704254,-0.06149958074092865,-0.04810401797294617,-0.008249618113040924,-0.10729636996984482,-0.021144909784197807,0.08693565428256989,0.08598998188972473,-0.03412395343184471,0.06650520116090775,-0.0375358872115612,0.001710298121906817,0.08095237612724304,-0.0903429314494133,-0.11706144362688065,0.08508308976888657,0.08052472025156021,-0.05007157474756241,0.04353320226073265,0.09202824532985687,-0.11822117120027542,0.07955355942249298,0.05728790909051895,0.06604907661676407,-0.031408701092004776,0.07754728198051453,0.039826322346925735,-0.053184423595666885,-0.07752763479948044,0.022068249061703682,-0.04469143971800804,0.05833824723958969,0.04635089263319969,-0.08783860504627228,-0.0722682923078537,-0.09377051889896393,0.11487332731485367,-0.021275702863931656,-0.016547314822673798
-0.09859771281480789,0.09077270328998566,-0.03020738810300827,-0.04970717802643776,-0.10509990900754929,0.08930900692939758,-0.004470006097108126,0.03241780400276184,0.014560354873538017,0.03886362910270691,-0.10897912830114365,0.12900519371032715,-0.05432290583848953,0.05477936938405037,-0.05660777539014816,0.058097973465919495,0.04079747200012207,0.02821306698024273,-0.025722423568367958,-0.008042381145060062,-0.04502485319972038,0.08637965470552444,-0.111908458173275,0.05750415474176407,-0.05389431118965149,0.11371733993291855,-0.12545958161354065,0.0443258062005043,-0.07851129025220871,-0.07298345118761063,-0.074488565325737,-0.08999335020780563,0.034564245492219925,0.011956043541431427,0.06869711726903915,-0.053908392786979675,-0.029415417462587357,-0.10847625881433487,0.06062963977456093,0.007097606081515551,-0.05627739429473877,0.029905779287219048,-0.11488597840070724,0.11067765951156616,-0.05934036150574684,0.0923970565199852,-0.10050012916326523,-0.10877487063407898,-0.005469521973282099,-0.00037470721872523427,0.06184487044811249,0.020738331601023674,0.11513986438512802,0.04419170320034027,-0.017967937514185905,0.03665665164589882,-0.11367020756006241,0.028477706015110016,-0.005262680817395449,-0.08715517818927765,0.056967295706272125,-0.03433625027537346,-0.010381536558270454,-0.0012556546134874225
-0.011848637834191322,0.010328736156225204,0.12152805179357529,-0.0016933678416535258,0.0005194653640501201,-0.06932993233203888,0.00917629711329937,0.05017784982919693,0.07258368283510208,0.12297634780406952,0.026853550225496292,0.008584555238485336,-0.03821023553609848,-0.08208363503217697,0.06710432469844818,0.01586056873202324,-0.06663797050714493,0.06372307986021042,0.031409796327352524,0.06213798373937607,0.001201651873998344,0.04083893075585365,-0.06721735000610352,-0.09791217744350433,-0.031771380454301834,0.0749860405921936,-0.03800000622868538,0.08937958627939224,0.050266217440366745,-0.08653068542480469,-0.09589709341526031,0.04245353862643242,0.009127830155193806,0.02228420041501522,-0.022865332663059235,0.06442873179912567,-0.051811330020427704,0.05341744050383568,0.0706484317779541,0.06373749673366547,-0.04558095335960388,0.04674204811453819,0.03148547187447548,-0.10251415520906448,0.10394831746816635,-0.11338640004396439,0.07836838066577911,-0.04499130696058273,0.10141992568969727,0.10965105891227722,0.09572511166334152,-0.04610870033502579,-0.05312030389904976,0.03121298924088478,-0.018160320818424225,-0.12359190732240677,-0.039145778864622116,-0.092781201004982,-0.04144427552819252,0.1275486946105957,0.11306563019752502,0.11473853886127472,0.014722279272973537,-0.11208758503198624
-0.046564701944589615,0.07015904784202576,0.03493061661720276,0.05945252999663353,0.009637334384024143,0.03485720604658127,-0.13206231594085693,-0.020748745650053024,0.0203368179500103,0.020848993211984634,0.02642705664038658,-0.030634885653853416,0.06752527505159378,0.046206261962652206,0.032138824462890625,0.08268338441848755,0.004596497863531113,0.08824469149112701,0.0032994558569043875,-0.12638993561267853,0.07823851704597473,0.10080219060182571,0.008386465720832348,0.12092326581478119,-0.07674933969974518,0.10793623328208923,-0.045290231704711914,-0.0967869833111763,-0.0187684316188097,-0.07695520669221878,-0.07126100361347198,-0.022127702832221985,-0.060432661324739456,-0.12338995188474655,-0.057003483176231384,0.01419022399932146,0.08346976339817047,0.09688819199800491,0.022468989714980125,-0.07050086557865143,0.03269468992948532,-0.10468845069408417,0.02328137308359146,-0.04174549877643585,0.009316113777458668,0.058151550590991974,0.013907835818827152,0.03761442005634308,-0.06831333041191101,0.09785715490579605,0.0030917664989829063,0.06542792916297913,-0.1020878404378891,0.10869558900594711,0.068119578063488,0.034632135182619095,0.0732775628566742,0.027888622134923935,-0.04500728100538254,-0.09962332248687744,-0.011710753664374352,-0.0237943846732378,0.10221460461616516,-0.006663113366812468
-0.08500436693429947,-0.008295880630612373,-0.0030733775347471237,0.1193210780620575,0.0702439546585083,-0.021957028657197952,-0.115868479013443,-0.11764241009950638,0.11881598085165024,0.03923594579100609,-0.04498216509819031,-0.026995617896318436,0.1315082311630249,-0.02606101892888546,0.11755909025669098,0.049818623811006546,0.0033236262388527393,0.03532532975077629,-0.028234733268618584,-0.013166655786335468,0.047330182045698166,-0.08438950777053833,-0.04614444822072983,-0.07960256934165955,-0.06853020191192627,0.10130085796117783,0.11800786107778549,0.10092543065547943,0.07640980929136276,0.021619386970996857,0.015510603785514832,0.009682999923825264,0.12374639511108398,0.11248951405286789,-0.006736659910529852,-0.10284551978111267,0.05710197985172272,0.0487101748585701,0.0016463850624859333,0.08032386004924774,0.06543216109275818,-0.08552885800600052,0.1292053759098053,-0.09703648090362549,0.012864979915320873,-0.09295043349266052,0.06716185063123703,-0.05209650844335556,0.026121091097593307,-0.01174990739673376,-0.06731132417917252,0.09459584951400757,-0.08352822065353394,0.10554249584674835,-0.09937373548746109,-0.12474851310253143,-0.11545514315366745,0.042026586830616,0.0009408215992152691,-0.03696409985423088,0.02337944321334362,-0.09508053958415985,-0.09047696739435196,0.021947937086224556
-0.08738210797309875,-0.09527122229337692,-0.006568869110196829,-0.0593048520386219,-0.02200368419289589,0.05545615032315254,0.08730819821357727,0.037824321538209915,-0.0752485916018486,0.018121814355254173,0.0772271677851677,-0.06553712487220764,0.07977297902107239,0.03581768274307251,-0.10917194187641144,0.015628760680556297,0.029083941131830215,-0.07095954567193985,-0.041838716715574265,0.058500856161117554,0.03601233288645744,0.11531492322683334,-0.048976197838783264,0.12811285257339478,0.062224969267845154,0.0598781444132328,-0.00675489567220211,-0.05327785015106201,-0.1007571592926979,0.07294057309627533,0.07972099632024765,0.032762881368398666,0.03913728892803192,0.1137876957654953,-0.10127793252468109,-0.09032086282968521,-0.008266382850706577,0.059677522629499435,0.10850569605827332,0.12225441634654999,0.011280191130936146,0.07118526846170425,0.10752062499523163,0.058387912809848785,-0.0036759530194103718,-0.04333452135324478,-0.029238276183605194,0.11026723682880402,-0.1208377406001091,0.024644760414958,0.020497668534517288,-0.033088311553001404,-0.08365095406770706,-0.08729340136051178,-0.0036386314313858747,-0.08139587193727493,0.057965461164712906,-0.0840672105550766,-0.025036942213773727,-0.007511686068028212,0.043008171021938324,0.09188982099294662,0.11107456684112549,0.002482615876942873
-0.12003453820943832,-0.02568298578262329,0.016675112769007683,0.04922330006957054,0.11929693818092346,-0.12463665753602982,-0.03633948788046837,0.07190638780593872,0.07517892867326736,-0.04658902809023857,0.03408635035157204,0.07269749790430069,0.0035345328506082296,-0.01072179526090622,0.014337675645947456,-0.059133268892765045,-0.11488373577594757,0.072257861495018,0.045205652713775635,-0.08182400465011597,0.029733501374721527,-0.04671482369303703,0.1046045646071434,-0.05888767167925835,0.1177934929728508,0.0425695925951004,0.014999302104115486,0.03486442193388939,0.022081218659877777,0.06044686958193779,-0.06690220534801483,-0.03955129534006119,-0.05468984320759773,0.014751710928976536,-0.07430087774991989,0.06059517711400986,-0.023468075320124626,0.13072483241558075,0.05436137318611145,-0.12470036000013351,0.02719847671687603,0.05271165817975998,-0.08187172561883926,0.010260405950248241,0.04134642332792282,-0.12594883143901825,-0.11645941436290741,-0.015521839261054993,0.03987272456288338,-0.0726119875907898,-0.059873439371585846,-0.05956194922327995,0.019165530800819397,-0.04884984716773033,-0.05397537723183632,0.01556380931288004,-0.005074475891888142,-0.019681785255670547,0.07686898112297058,-0.09726391732692719,-0.016855882480740547,-0.021759310737252235,0.05505325272679329,-0.0638393759727478
0.009454487822949886,-0.12015705555677414,0.10511866211891174,0.0233316533267498,-0.012256967835128307,-0.11176282912492752,0.08621888607740402,0.08339887857437134,0.08057080209255219,-0.07834479212760925,0.0034975027665495872,-0.07782396674156189,-0.07033570855855942,-0.08785238862037659,0.08559247851371765,-0.031439632177352905,0.07351222634315491,-0.015107402577996254,-0.00290551595389843,0.00023332798446062952,-0.08599425852298737,-0.12162373960018158,0.0476229302585125,-0.0015929031651467085,0.0004282826848793775,-0.004626960959285498,0.0014578793197870255,0.07439768314361572,-0.01945696957409382,-0.024768399074673653,-0.11069028824567795,0.028190314769744873,0.08819478750228882,-0.07474714517593384,-0.05732905864715576,-0.06222318857908249,0.11202956736087799,-0.10783832520246506,0.07420873641967773,-0.06765569001436234,-0.10203211009502411,0.11430157721042633,0.020254241302609444,0.04843509569764137,-0.03957007825374603,-0.11485608667135239,0.01591166853904724,0.03959609568119049,0.10212593525648117,-0.06388409435749054,0.12819159030914307,0.1224929615855217,-0.0836164802312851,-0.03562726825475693,0.10338600724935532,0.05620918050408363,-0.09794291853904724,-0.11512542515993118,-0.12876375019550323,-0.06014830991625786,0.042014800012111664,-0.053680241107940674,0.11336842179298401,-0.01680510863661766
0.06971273571252823,-0.06708667427301407,0.12129126489162445,0.04277803376317024,0.08430938422679901,0.0490572489798069,-0.1121094673871994,0.07858633249998093,-0.043340858072042465,-0.06863320618867874,0.08709971606731415,-0.10133959352970123,0.03763318061828613,-0.09935727715492249,-0.10712587088346481,0.06285354495048523,0.03143686801195145,0.11257335543632507,0.09657347947359085,-0.11025532335042953,0.11284539848566055,0.10895632207393646,0.009377595968544483,0.059744857251644135,0.08971329033374786,-0.1089978814125061,0.08126358687877655,0.082079216837883,-0.12193130701780319,0.027864864096045494,0.05394810065627098,0.04111173003911972,-0.03171776607632637,0.022300008684396744,0.07837499678134918,0.050646450370550156,-0.09844809770584106,-0.045523229986429214,0.12794597446918488,0.07387672364711761,-0.056606631726026535,-0.10860621929168701,0.0913543552160263,0.11629382520914078,-0.08545377850532532,-0.09232211112976074,-0.03199293091893196,-0.019678939133882523,0.023662477731704712,0.07218529284000397,-0.03833102807402611,0.07926657050848007,-0.09797032922506332,0.0772472694516182,0.02600734867155552,-0.06480808556079865,0.021532678976655006,0.019943900406360626,0.05013822764158249,-0.04186663031578064,0.014137296937406063,-0.06707444041967392,-0.0660196915268898,-0.09722849726676941
0.04489130154252052,-0.01580961048603058,0.014788193628191948,-0.05509861186146736,0.04539099335670471,-0.10498852282762527,0.016899826005101204,-0.09718801826238632,-0.12596775591373444,-0.10910962522029877,0.11521710455417633,0.120510034263134,0.05090368911623955,0.029497718438506126,0.10423239320516586,-0.06320926547050476,0.09242988377809525,0.04516119882464409,0.08242378383874893,0.05208927392959595,-0.02079092152416706,-0.0950557067990303,-0.05113717541098595,0.0033812245819717646,0.06304877996444702,-0.03163227066397667,0.0942988321185112,-0.014831325970590115,-0.11449529975652695,-0.09124813228845596,0.0011089111212641,0.08659093827009201,-0.02297770231962204,0.10864390432834625,0.09408814460039139,0.11863582581281662,0.05573497340083122,0.00022610247833654284,-0.061197422444820404,-0.061391349881887436,-0.1084715723991394,-0.07508176565170288,0.052927885204553604,0.03167683631181717,-0.09592259675264359,0.025518035516142845,0.10755286365747452,-0.08915220946073532,0.08267568796873093,-0.027319207787513733,-0.1091194599866867,0.02599158138036728,0.027785317972302437,-0.10365606099367142,0.08194372057914734,-0.09647242724895477,-0.035716790705919266,-0.022149156779050827,-0.08375661820173264,0.03882766142487526,0.059470511972904205,-0.07186062633991241,-0.026856791228055954,0.08624199777841568
-0.0903455838561058,0.051809877157211304,0.07494889944791794,-0.08959684520959854,-0.0889187678694725,0.08757784217596054,-0.012288819998502731,0.08263701945543289,0.04835506156086922,-0.009019485674798489,-0.013797533698379993,-0.08163759857416153,-0.007492743898183107,-0.07434234023094177,-0.10256084054708481,-0.09257599711418152,-0.014426859095692635,-0.05330505967140198,-0.06767375022172928,-0.03734942525625229,-0.038567960262298584,-0.07618983089923859,-0.03941882401704788,0.0010585496202111244,-0.09023243188858032,-0.020513419061899185,-0.0402362123131752,-0.09522182494401932,0.061912551522254944,-0.027670957148075104,0.09883469343185425,-0.09280142188072205,-0.06664296239614487,0.06996749341487885,0.037608154118061066,0.09827107191085815,-0.052598848938941956,-0.11998546868562698,0.05029996484518051,-0.029487090185284615,-0.005978128872811794,-0.09122224897146225,0.06949026882648468,-0.0027267499826848507,0.03455917164683342,0.1129724532365799,0.01613439805805683,0.10427433252334595,-0.04766791686415672,0.005009407643228769,-0.0265212245285511,-0.08156424015760422,0.02106916904449463,-0.09945444017648697,0.03822870925068855,-0.06081051751971245,0.06321872770786285,-0.11574690788984299,-0.0694916695356369,-0.08176619559526443,-0.004927239380776882,0.13293221592903137,0.08651285618543625,0.11720697581768036
0.015717731788754463,0.015906037762761116,-0.01663648895919323,0.03805983439087868,0.039804764091968536,-0.001544959144666791,0.05662957578897476,0.048026662319898605,0.05643443390727043,-0.02174682542681694,-0.09617457538843155,-0.006650211289525032,-0.08020908385515213,0.09800761938095093,-0.05797065421938896,0.036610085517168045,-0.05802030861377716,0.03974653780460358,0.05189153179526329,-0.11850884556770325,0.04462762549519539,-0.0016720977146178484,-0.0505099780857563,0.011867162771522999,-0.061433713883161545,-0.08441732823848724,-0.03265207260847092,0.03879905492067337,-0.10093726962804794,-0.005373457912355661,-0.006665303837507963,0.12571562826633453,0.0632966011762619,0.047740235924720764,-0.11286195367574692,-0.0657142847776413,-0.09846692532300949,0.10468123853206635,-0.0065038688480854034,-0.036210332065820694,0.06991279125213623,0.002375638112425804,0.11369828134775162,0.028578734025359154,-0.05620137229561806,-0.04037212207913399,0.1073625236749649,-0.034846700727939606,0.07845134288072586,-0.11241866648197174,0.031253632158041,-0.06232406198978424,-0.09837964922189713,-0.0012190303532406688,-0.027868125587701797,-0.04390006139874458,0.07792172580957413,-0.01828932575881481,-0.09424720704555511,0.0027309772558510303,-0.05564061179757118,-0.015287486836314201,-0.05857441946864128,0.09977002441883087
0.006741075776517391,-0.11390092968940735,-0.012662145309150219,-0.01325201615691185,0.034733716398477554,-0.0860520750284195,-0.08767390251159668,0.05546281486749649,-0.10402315855026245,-0.08562061935663223,-0.0042145890183746815,-0.003740448970347643,-0.06413557380437851,-0.03303093835711479,-0.11149860173463821,-0.12969058752059937,0.11656796187162399,0.053745757788419724,0.04354799538850784,0.08614212274551392,-0.00013234213110990822,0.02696445770561695,0.02183161862194538,0.020952781662344933,0.005113162100315094,-0.07121283560991287,-0.06077205389738083,0.10345479100942612,-0.10405395179986954,0.08711026608943939,0.05438230186700821,0.10061738640069962,0.08803082257509232,-0.11900501698255539,-0.062339507043361664,0.08003120869398117,0.07842148840427399,-0.06985896825790405,0.05264962092041969,0.06800580769777298,0.03854677453637123,-0.03157057985663414,0.08638662099838257,-0.06502284854650497,-0.04739217832684517,-0.12058615684509277,-0.04075007513165474,-0.09367209672927856,-0.040893685072660446,0.06861183047294617,0.12132136523723602,-0.09475435316562653,0.051536235958337784,0.036414071917533875,-0.10492990165948868,0.05273597687482834,-0.06236571818590164,0.013560839928686619,0.011541886255145073,0.008809071965515614,0.06445986777544022,0.04744338616728783,0.002811399521306157,0.053427599370479584
-0.04310539364814758,0.10815366357564926,-0.0811586081981659,-0.02469167485833168,0.1163930669426918,-0.061173293739557266,-0.013072355650365353,0.038829926401376724,0.0695251002907753,-0.009553360752761364,-0.10122062265872955,0.03840827941894531,-0.07323998957872391,-0.08759094774723053,-0.09163205325603485,0.10638842731714249,-0.08729123324155807,0.054758887737989426,-0.08243399858474731,0.06806161999702454,-0.08668458461761475,-0.0007109831785783172,0.06726006418466568,0.024935398250818253,-0.001991566037759185,-0.04519687592983246,-0.04056921228766441,-0.036763597279787064,0.11307355016469955,-0.025591114535927773,-0.1024504229426384,-0.07174091041088104,0.062153998762369156,-0.1244354322552681,-0.039981909096241,-0.08983844518661499,-0.026879653334617615,-0.09893716126680374,-0.105556420981884,-0.06919363886117935,0.012541686184704304,0.11159354448318481,-0.1091601699590683,-0.060805853456258774,0.11153712123632431,0.09314370900392532,-0.12288734316825867,-0.012697122059762478,-0.0880681648850441,0.017559854313731194,0.06253992766141891,-0.1182439923286438,-0.015874814242124557,-0.11362115293741226,-0.07855049520730972,0.0003697914653457701,-0.05174262449145317,0.08193939179182053,0.08852313458919525,0.017534881830215454,-0.04675227031111717,-0.10525006800889969,-0.05332840234041214,0.012865342199802399
0.09575207531452179,-0.1123373955488205,-0.025628702715039253,0.09142151474952698,0.12262323498725891,0.06511180847883224,0.051888495683670044,0.011491390876471996,-0.11708419024944305,-0.04123411700129509,-0.11643482744693756,-0.06629691272974014,-0.06826411187648773,0.09783365577459335,0.08182701468467712,0.07054256647825241,0.11137716472148895,0.047057051211595535,0.07376124709844589,0.023581450805068016,-0.008414595387876034,-0.03917982056736946,0.04117085784673691,0.030047008767724037,0.08993681520223618,-0.08916699886322021,-0.06445273756980896,-0.06395742297172546,-0.10383711755275726,-0.032795123755931854,-0.012299392372369766,0.10470987111330032,-0.11443880945444107,0.1001727357506752,0.03396577388048172,-0.014476600103080273,-0.08450024574995041,-0.05942336469888687,-0.10108470916748047,0.06213890388607979,0.0457158237695694,-0.06722945719957352,-0.11691807955503464,-0.014429471455514431,0.08774670213460922,0.02624559961259365,-0.08695606887340546,-0.1288686841726303,0.08125606179237366,0.0507768914103508,-0.11067056655883789,-0.11080747097730637,0.023920131847262383,-0.005133364349603653,-0.0755164697766304,0.007537201978266239,-0.08288077265024185,0.09511221200227737,0.02207956649363041,0.08679568767547607,-0.11052149534225464,-0.033438749611377716,0.04054461047053337,0.012078432366251945
0.05717349797487259,-0.09873980283737183,0.016050446778535843,-0.051733486354351044,0.0780351385474205,-0.000586936017498374,0.041277699172496796,0.09546339511871338,-0.030718674883246422,-0.1025877445936203,-0.001761466497555375,0.0995311513543129,0.11884006857872009,-0.06004335358738899,-0.02049475908279419,-0.07714591920375824,0.12360918521881104,0.04184335842728615,-0.04494282975792885,-0.06110725924372673,-0.10179519653320312,0.07902590185403824,-0.05224760249257088,-0.1073852926492691,0.020637881010770798,-0.04722370207309723,0.08476338535547256,-0.07719600200653076,0.12811437249183655,0.04322410747408867,-0.01573662832379341,0.012710130773484707,-0.11498437821865082,0.06375792622566223,0.062208615243434906,0.063849538564682,0.01210716087371111,-0.06120569258928299,0.024148106575012207,0.025306815281510353,-0.0846790075302124,0.044689662754535675,0.12497493624687195,0.11612367630004883,0.050619255751371384,0.10869771242141724,-0.07066815346479416,0.0054735299199819565,-0.07782634347677231,-0.062081482261419296,-0.03939412161707878,-0.03975505754351616,0.09673567861318588,-0.018537485972046852,0.08109525591135025,-0.002868130337446928,0.06244654208421707,-0.027886928990483284,-0.006867785472422838,-0.07314075529575348,-0.12299497425556183,-0.0863209068775177,0.09777368605136871,0.015959398820996284
