"# weights_layers.1.weight - Shape: torch.Size([128, 128])"
# Dtype: torch.float32
# Device: cpu
# Exported: 2025-10-26T18:09:44.281201

dim_0,dim_1,dim_2,dim_3,dim_4,dim_5,dim_6,dim_7,dim_8,dim_9,dim_10,dim_11,dim_12,dim_13,dim_14,dim_15,dim_16,dim_17,dim_18,dim_19,dim_20,dim_21,dim_22,dim_23,dim_24,dim_25,dim_26,dim_27,dim_28,dim_29,dim_30,dim_31,dim_32,dim_33,dim_34,dim_35,dim_36,dim_37,dim_38,dim_39,dim_40,dim_41,dim_42,dim_43,dim_44,dim_45,dim_46,dim_47,dim_48,dim_49,dim_50,dim_51,dim_52,dim_53,dim_54,dim_55,dim_56,dim_57,dim_58,dim_59,dim_60,dim_61,dim_62,dim_63,dim_64,dim_65,dim_66,dim_67,dim_68,dim_69,dim_70,dim_71,dim_72,dim_73,dim_74,dim_75,dim_76,dim_77,dim_78,dim_79,dim_80,dim_81,dim_82,dim_83,dim_84,dim_85,dim_86,dim_87,dim_88,dim_89,dim_90,dim_91,dim_92,dim_93,dim_94,dim_95,dim_96,dim_97,dim_98,dim_99,dim_100,dim_101,dim_102,dim_103,dim_104,dim_105,dim_106,dim_107,dim_108,dim_109,dim_110,dim_111,dim_112,dim_113,dim_114,dim_115,dim_116,dim_117,dim_118,dim_119,dim_120,dim_121,dim_122,dim_123,dim_124,dim_125,dim_126,dim_127
0.06279464066028595,0.0642782598733902,0.05405658856034279,0.035890135914087296,0.022116756066679955,0.0275313388556242,-0.006096957251429558,0.0019615930505096912,0.08059590309858322,0.014542236924171448,-0.014349489472806454,0.04710715636610985,0.06846264749765396,0.0809379443526268,0.0050635142251849174,0.008557481691241264,0.08471295237541199,-0.08440662920475006,-0.02720060385763645,-0.012486293911933899,0.01978130266070366,0.08540291339159012,-0.056106407195329666,-0.03677942976355553,-0.05011848732829094,0.042811911553144455,-0.019046615809202194,-0.038077712059020996,0.04056503623723984,0.054505765438079834,-0.07590615749359131,-0.05408196523785591,0.02688215859234333,-0.047697681933641434,0.06424331665039062,-0.06916691362857819,0.05579007789492607,0.0810157060623169,-0.06336341798305511,-0.0756128802895546,0.004232355393469334,0.04136090353131294,-0.0030704757664352655,0.025067733600735664,0.00765850069001317,-0.03959926590323448,0.06088126823306084,-0.0353318490087986,0.003677648724988103,-0.08218084275722504,-0.05019654333591461,0.09053942561149597,0.07498949021100998,-0.010451926849782467,-0.009768395684659481,-0.07028039544820786,0.000432149856351316,0.026439566165208817,-0.07965075224637985,0.03627495840191841,-0.05856112763285637,0.06552138924598694,-0.08752511441707611,0.06202113628387451,0.06901650130748749,-0.08552516996860504,-0.016792621463537216,-0.021580291911959648,0.008354437537491322,-0.013700904324650764,0.049532417207956314,0.0027068061754107475,-0.0017873609904199839,0.005215255543589592,-0.021506138145923615,0.07035685330629349,-0.004519705194979906,0.056817371398210526,-0.03303796797990799,-0.05929733067750931,0.07812599092721939,-0.062126513570547104,-0.009257571771740913,-0.058778729289770126,0.07748175412416458,0.03513714298605919,0.027190102264285088,-0.05589602515101433,0.05910704284906387,-0.029436763375997543,0.06879965960979462,0.010085564106702805,0.038572221994400024,-0.02520558424293995,-0.07801444828510284,0.027971655130386353,0.05151762440800667,0.06087348982691765,0.094590924680233,-0.04657035693526268,-0.06799829751253128,0.006491922773420811,0.0622645802795887,-0.07131964713335037,0.0019466925878077745,0.059154950082302094,-0.07675288617610931,-0.024922022596001625,0.039588600397109985,0.06758224964141846,-0.08481661230325699,0.0946621522307396,0.008630584925413132,-0.03892365097999573,-0.022490760311484337,0.02006593346595764,0.012827332131564617,-0.05022694170475006,0.055496200919151306,0.03923547640442848,-0.0427745021879673,-0.03893962502479553,-0.07622414082288742,-0.06952701508998871,-0.05317732319235802,-0.03488520160317421,0.07044117897748947,-0.005130472593009472
0.09445492178201675,-0.008792818523943424,0.03048987127840519,-0.01807972602546215,0.04168275371193886,0.07551728188991547,0.08539555221796036,0.07042638212442398,0.05535958334803581,-0.0329178087413311,0.0669272318482399,-0.08589739352464676,-0.004306610208004713,-0.016088612377643585,0.008087209425866604,-0.014224443584680557,0.02573537640273571,-0.06951513141393661,0.01955392397940159,0.07247547805309296,-0.03774899244308472,-0.024947071447968483,-0.013415168970823288,0.009583967737853527,-0.05058422312140465,0.0792531818151474,-0.0692431628704071,-0.029013821855187416,-0.08796126395463943,-0.0073174829594790936,-0.0008487860322929919,0.061350658535957336,-0.0695708617568016,0.04070236533880234,-0.058756519109010696,-0.056478869169950485,0.03428790718317032,0.0027484390884637833,0.04495586082339287,-0.07486322522163391,-0.07730938494205475,-0.0659206360578537,0.06266169250011444,0.007816880941390991,0.077110655605793,-0.012342032045125961,-0.004299889784306288,-0.016982845962047577,-0.06986996531486511,-0.06084996834397316,0.049196757376194,0.0018006727332249284,0.018188901245594025,-0.043150756508111954,0.023589007556438446,0.041912663727998734,0.047734931111335754,-0.037052005529403687,-0.09297746419906616,0.05376763269305229,0.0005778248305432498,0.05230174958705902,-0.04120025411248207,0.08227331191301346,-0.014872261323034763,0.045302487909793854,0.055079687386751175,0.09283918142318726,-0.0734720379114151,-0.041843704879283905,0.050246432423591614,-0.06013850122690201,-0.07643803209066391,0.02369379810988903,-0.055468641221523285,0.08001220971345901,-0.018622219562530518,-0.0714687630534172,-0.05619938299059868,0.0009950025705620646,0.06971186399459839,-0.012666111811995506,-0.07251538336277008,-0.078327476978302,0.08183760941028595,-0.033397797495126724,0.0742739737033844,-0.017007485032081604,0.03405674546957016,0.005403939634561539,0.07934413850307465,-0.07797618955373764,0.03789220005273819,-0.07162109762430191,-0.02844536118209362,-0.07273700833320618,0.020872201770544052,-0.062506765127182,0.07952168583869934,-0.03904363512992859,-0.08042791485786438,-0.07129942625761032,0.04927008971571922,-0.039429921656847,0.07675088196992874,0.072115957736969,0.04170362651348114,0.031299807131290436,-0.04508960247039795,-0.0756583958864212,0.06940967589616776,-0.043031491339206696,0.07244273275136948,-0.08349228650331497,-0.01490710861980915,-0.03506201505661011,-0.06119686737656593,0.03298665210604668,-0.019532393664121628,-0.01611563004553318,-0.08470092713832855,-0.025220908224582672,-0.04840429872274399,-0.004934023600071669,0.09603369981050491,-0.07888611406087875,-0.05167094245553017,0.004882822744548321
-0.06064656004309654,-0.02316342294216156,0.005186912603676319,0.001907446188852191,-0.014379914849996567,0.0030941555742174387,0.006316084880381823,-0.05650290846824646,0.030915969982743263,0.042057257145643234,-0.06286545097827911,0.04218336567282677,-0.04686703160405159,-0.02851070649921894,-0.08260352909564972,-0.02076316438615322,-0.01841137744486332,-0.07232843339443207,-0.06511976569890976,0.002612003358080983,0.07229677587747574,-0.05226961895823479,0.0598987340927124,-0.018748875707387924,0.03251228109002113,-0.012285382486879826,0.08514706045389175,-0.0753287598490715,0.021011115983128548,-0.0881672203540802,-0.006963171064853668,-0.050318893045186996,0.04116330295801163,-0.019715892150998116,0.06537217646837234,-0.052408959716558456,0.046803344041109085,0.028139295056462288,-0.02655944973230362,0.021127993240952492,0.06011727452278137,-0.012006775476038456,0.044283658266067505,-0.011252650059759617,0.05015949532389641,0.0804569199681282,0.02507505565881729,0.05610968545079231,0.03560244292020798,0.01131614949554205,0.08590573072433472,-0.07222677767276764,0.03546551987528801,-0.024085747078061104,-0.07020459324121475,-0.04765419661998749,-0.07109341770410538,-0.006906483322381973,-0.06316327303647995,-0.024746829643845558,-0.06947597116231918,0.007993394508957863,-0.048152338713407516,-0.06632442772388458,-0.03940083459019661,-0.04189648851752281,-0.05423577502369881,-0.06276019662618637,-0.05823759734630585,0.08524686843156815,0.01316244900226593,0.03380567207932472,-0.08828286081552505,0.023811671882867813,-0.013938592746853828,-0.043632641434669495,-0.014631676487624645,0.050026893615722656,-0.0008795587928034365,0.08924822509288788,-0.0805114135146141,-0.06382240355014801,0.020331379026174545,-0.03292315825819969,0.0047452934086322784,-0.08783300966024399,-0.04050104320049286,-0.005038699135184288,0.06709805876016617,-0.0734102874994278,0.029455306008458138,-0.020920267328619957,0.04560592398047447,0.011760283261537552,0.061606891453266144,0.04520370811223984,0.03734677657485008,0.012296761386096478,0.06280840188264847,-0.0892890989780426,-0.08088821172714233,-0.00923252571374178,-0.059003446251153946,0.08572351932525635,-0.026872407644987106,0.005045623052865267,-0.03446968272328377,0.00386863318271935,0.038388390094041824,-0.051144007593393326,0.06129810959100723,0.053765494376420975,-0.006095766089856625,-0.08797832578420639,0.049931302666664124,-0.00888480432331562,-0.07182623445987701,0.06242070719599724,-0.020461931824684143,0.019017845392227173,-0.06815115362405777,0.07822803407907486,0.08206555247306824,0.03306310251355171,-0.02878917194902897,-0.0576280914247036,-0.02376699633896351,0.042233794927597046
-0.042323458939790726,-0.01651587337255478,0.06494691967964172,0.05005286633968353,-0.08511332422494888,0.04426870867609978,-0.044469643384218216,0.014168032445013523,0.044734857976436615,-0.019750170409679413,-0.001063025207258761,0.06239772588014603,0.01274176873266697,0.07337594777345657,-0.07210336625576019,-0.09139037132263184,-0.04312911257147789,-0.03530707582831383,0.07961027324199677,0.013131714425981045,-0.0019877904560416937,0.019104143604636192,0.04173777624964714,0.06284905970096588,0.005942287854850292,-0.08026368170976639,0.07922554016113281,0.029457123950123787,-0.06992802768945694,0.07634935528039932,0.04746964946389198,-0.018506042659282684,-0.04837861657142639,-0.012175981886684895,-0.08909381181001663,0.002117676194757223,0.06528816372156143,0.01563466526567936,0.03629337251186371,0.017594540491700172,-0.0053360858000814915,-0.028709642589092255,-0.08419378101825714,0.022162431851029396,0.07188469171524048,-0.012704459950327873,0.05819261446595192,-0.026126433163881302,-0.013660554774105549,0.08071739226579666,-0.035494305193424225,-0.05625740438699722,0.0717492550611496,0.05939266085624695,-0.07925523072481155,-0.07275243103504181,0.06436224281787872,0.014849142171442509,0.057719022035598755,-0.07602351903915405,-0.04967819154262543,-0.062018826603889465,0.05286027491092682,0.07792173326015472,0.028854545205831528,0.05974461883306503,0.037790510803461075,0.06465895473957062,-0.062070924788713455,0.05578325688838959,0.025877442210912704,-0.07806181907653809,0.019303981214761734,-0.07514343410730362,-0.08168354630470276,-0.009123512543737888,-0.039301589131355286,-0.05947120115160942,0.03324754908680916,0.019818969070911407,-0.0035399163607507944,-0.06290671974420547,0.06574052572250366,-0.0777997300028801,0.04608726128935814,-0.0894961804151535,-0.07178554683923721,0.004526733420789242,-0.012630362994968891,0.01258673332631588,0.07193267345428467,0.002189387334510684,-0.010191366076469421,-0.08045288175344467,-0.04434218630194664,-0.05568897724151611,-0.03144899010658264,-0.07032234221696854,0.06246413290500641,0.05371670424938202,-0.08684654533863068,0.0715223103761673,0.00640434306114912,-0.0666612982749939,-0.029842959716916084,-0.07243416458368301,0.040417030453681946,0.07511421293020248,0.054051294922828674,-0.009029398672282696,-0.09381148964166641,-0.07401783764362335,-0.06024421751499176,0.07353268563747406,0.030934032052755356,-0.01689041033387184,0.030605481937527657,-0.07943812012672424,-0.03839375823736191,-0.05849476158618927,-0.09212224185466766,0.05185068026185036,-0.07625890523195267,0.08366407454013824,-0.07771223038434982,0.09122876822948456,0.015329604968428612,0.03807514160871506
0.03813029080629349,-0.02953162044286728,0.018824588507413864,-0.010069006122648716,-0.02120598591864109,-0.07912222295999527,-0.017712177708745003,0.014332031831145287,-0.0151891577988863,-0.023681681603193283,-0.06286115199327469,-0.09334001690149307,0.04880523681640625,-0.014912101440131664,0.04980774223804474,-0.07718940079212189,0.03909562528133392,0.06705973297357559,0.09064853191375732,0.03818370774388313,0.0328739657998085,-0.06837315112352371,0.07184905558824539,0.062289901077747345,-0.045278728008270264,-0.0701393112540245,-0.05553954467177391,0.04519880563020706,-0.030528388917446136,0.06490547209978104,-0.005124276503920555,0.03845519199967384,0.04802679270505905,-0.04236214980483055,0.0008738522883504629,0.0024852147325873375,-0.04365795478224754,0.021649006754159927,-0.035491835325956345,0.04181094840168953,-0.03186126798391342,0.06793845444917679,-0.012050563469529152,0.037315431982278824,0.06461279094219208,-0.06203629449009895,0.021945489570498466,-0.03929431736469269,0.044039011001586914,-0.0709453672170639,-0.00994722731411457,-0.0018270487198606133,0.00032154496875591576,-0.08341062813997269,-0.012433864176273346,-0.026314564049243927,-0.013339017517864704,-0.0784633606672287,-0.003677261294797063,-0.07479702681303024,-0.06745589524507523,0.02276318334043026,0.06789864599704742,-0.07780855894088745,-0.06935032457113266,0.005407440010458231,-0.05328997224569321,-0.06685658544301987,-0.04591190814971924,-0.014601361937820911,-0.0008619710570201278,0.07003454864025116,-0.08529523015022278,-0.05941764637827873,0.02340848185122013,0.03175829350948334,-0.09031344205141068,-0.07186485081911087,-0.08000355958938599,-0.014920995570719242,0.03698655590415001,-0.033350829035043716,0.029096292331814766,0.02313184179365635,0.007434816099703312,0.042717915028333664,0.08128184080123901,-0.03300802409648895,0.03927765414118767,0.07914716750383377,0.026293855160474777,-0.04040934890508652,-0.08089110255241394,0.08212872594594955,-0.07578034698963165,0.03146364167332649,0.05881638824939728,0.004774844273924828,0.02960224635899067,0.013624554499983788,-0.07722152769565582,0.025872746482491493,0.03927738964557648,0.07905150949954987,-0.024799535050988197,-0.031290218234062195,0.06104535236954689,-0.054846733808517456,0.0034822782035917044,0.08261684328317642,-0.03410116210579872,0.051005423069000244,-0.0023822798393666744,-0.05052683502435684,-0.00785614363849163,-0.008386051282286644,0.02710483781993389,-0.053966037929058075,0.0866858959197998,0.03576374426484108,-0.08006732165813446,-0.08210649341344833,0.019305519759655,0.005752416793256998,-0.04830406606197357,-0.08873634040355682,-0.025379454717040062,-0.06707321107387543
0.04240035638213158,0.013750256039202213,0.007588246837258339,-0.05916907265782356,0.057481516152620316,-0.050227995961904526,0.003265032544732094,-0.09220418334007263,-0.095777727663517,-0.01503684651106596,0.0180954709649086,-0.011648825369775295,-0.031207069754600525,0.06749898940324783,0.06220822036266327,-0.08324237912893295,-0.004963442217558622,-0.04245802387595177,0.051190029829740524,0.0213608555495739,0.024325154721736908,0.0706309974193573,0.05837203934788704,0.06351528316736221,0.009627193212509155,-0.06687726825475693,0.0008017053478397429,-0.05698084458708763,-0.04490039497613907,-0.03190109506249428,0.002891715383157134,-0.05678831785917282,-0.030553612858057022,0.0757632851600647,0.08375413715839386,-0.002151473192498088,0.011526891961693764,-0.08481626957654953,-0.037046000361442566,-0.052100781351327896,-0.054822713136672974,0.05824267491698265,-0.009899305179715157,-0.012705551460385323,-0.06372873485088348,0.033635638654232025,0.055585991591215134,-0.04288964718580246,-0.09176912158727646,0.011220896616578102,0.00445512356236577,0.01483533252030611,-0.00796912144869566,-0.08281169831752777,-0.023912504315376282,0.014911524020135403,-0.09660212695598602,-0.07420968264341354,0.09084746241569519,-0.08916833996772766,0.0538201667368412,-0.07445478439331055,0.08602044731378555,-0.08749943971633911,-0.02162204682826996,-0.016242340207099915,0.06967689096927643,-0.022266490384936333,-0.059060756117105484,0.057568054646253586,-0.07763712853193283,0.07316625863313675,0.07228921353816986,0.03502318263053894,0.014064653776586056,0.07002140581607819,0.06402630358934402,0.03767296299338341,0.0010400116443634033,-0.03406791761517525,0.00568118691444397,-0.007688145153224468,-0.0386229045689106,-0.023423096165060997,0.07836483418941498,0.06112290546298027,0.05803684517741203,0.08611554652452469,-0.02852306328713894,0.04944399371743202,0.0025602795649319887,0.07784556597471237,0.0024128383956849575,-0.03487640619277954,0.07680932432413101,-0.030056007206439972,-0.04864397644996643,-0.022725563496351242,0.05406961962580681,-0.012872421182692051,-0.06290048360824585,-0.07493812590837479,0.007832718081772327,-0.05861585587263107,-0.005430214572697878,-0.019205626100301743,-0.005462251603603363,0.0785432755947113,0.010443909093737602,0.007734570652246475,0.07650856673717499,-0.0003605978563427925,-0.07087256759405136,-0.04303330183029175,0.03470391035079956,-0.008988546207547188,0.05587449669837952,0.04504699632525444,0.03415392339229584,0.08164414763450623,0.08093538135290146,0.03854440897703171,-0.01759093627333641,-0.05984681844711304,0.08270640671253204,-0.07515162974596024,-0.021552348509430885,-0.05827588587999344
0.0035856394097208977,0.04752647504210472,-0.031079590320587158,0.020797722041606903,-0.005352455656975508,0.03057180903851986,-0.015762846916913986,-0.03400053456425667,-0.06492840498685837,0.021510997787117958,0.024228399619460106,-0.05811053141951561,-0.018397370353341103,-0.08445198833942413,-0.06481915712356567,-0.07778172194957733,0.09561885893344879,-0.06600162386894226,0.043812789022922516,-0.06562089174985886,0.012522837147116661,0.051989711821079254,-0.0870613157749176,-0.08155190944671631,0.02368065156042576,0.044087111949920654,-0.06254467368125916,-0.060305412858724594,-0.0714065432548523,0.02555607631802559,-0.06637338548898697,-0.038597483187913895,-0.044188108295202255,0.05829664692282677,0.037336792796850204,0.08936339616775513,0.09340392053127289,0.043176375329494476,0.05942897871136665,0.07532256841659546,-0.06617371737957001,0.03887372091412544,-0.017031246796250343,0.03427428379654884,-0.07945208996534348,-0.03361102193593979,0.004555899649858475,-0.04762965068221092,-0.03314751759171486,0.06826932728290558,0.004507212433964014,0.022026581689715385,0.08999307453632355,0.03199057653546333,0.043211352080106735,-0.016690781340003014,-0.07388314604759216,-0.012840719893574715,0.03553042560815811,0.021600764244794846,-0.044627636671066284,0.04079229384660721,0.04610561951994896,0.04456636682152748,0.004493222571909428,0.03901567682623863,-0.03810233995318413,0.07604305446147919,0.083122618496418,0.0768011137843132,0.007962211966514587,0.05556196719408035,0.010167138651013374,0.022235233336687088,-0.056172940880060196,0.03389686718583107,0.044610414654016495,0.002438791561871767,0.039389800280332565,0.05615464597940445,-0.055248111486434937,-0.07056701183319092,0.013786083087325096,0.01004069298505783,0.07797174155712128,-0.019668029621243477,0.0005477238446474075,-0.006675624754279852,0.0013901449274271727,0.03689658269286156,-0.021803412586450577,-0.006508491933345795,-0.08671005070209503,0.004414926748722792,0.013283960521221161,0.02262183278799057,0.041628532111644745,0.08267027139663696,-0.007109883241355419,0.05158909410238266,-0.06201915815472603,-0.04300585761666298,-0.0785890594124794,-0.0031867865473031998,-0.06720145791769028,-0.05624450370669365,-0.07064888626337051,0.07237766683101654,0.06412767618894577,0.09699717164039612,-0.0020071901381015778,0.014379441738128662,0.050296761095523834,0.06038372218608856,0.07502416521310806,-0.00826848205178976,-0.048389729112386703,-0.004420310724526644,-0.0018013231456279755,-0.020826688036322594,0.030876075848937035,0.03172091767191887,0.020522503182291985,-0.04978654533624649,-0.0760994702577591,0.05514022335410118,-0.0759153962135315,0.024936264380812645
0.032616086304187775,-0.015966176986694336,-0.0518050491809845,0.05281654745340347,0.010981626808643341,0.006511777173727751,0.02705109678208828,-0.026711583137512207,0.09314007312059402,0.06018292158842087,0.00419590761885047,-0.0677962675690651,-0.030969809740781784,0.04387162625789642,0.0012061328161507845,-0.03697596862912178,0.060124244540929794,0.006343738175928593,-0.036422714591026306,-0.09571357071399689,0.07007297873497009,-0.04136843979358673,0.039388060569763184,-0.019231759011745453,0.06915163993835449,-0.01234719343483448,-0.00825398601591587,-0.038409169763326645,-0.026425417512655258,-0.01810450106859207,-0.005641689989715815,0.03648567944765091,-0.03975091502070427,0.059169065207242966,-0.07191532850265503,0.031546950340270996,-0.028187869116663933,0.013691653497517109,-0.022657150402665138,-0.07816620916128159,-0.014644923619925976,0.06970316916704178,-0.08051004260778427,0.056719549000263214,0.012571807019412518,-0.029547030106186867,0.07380810379981995,-0.03105108253657818,-0.007662567775696516,-0.013334855437278748,-0.018525172024965286,-0.0485299788415432,-0.07900124043226242,0.049856409430503845,-0.04685216769576073,-0.062198705971241,-0.007528337650001049,-0.09454724937677383,0.07824099808931351,0.05960284546017647,0.04179934784770012,-0.018027011305093765,-0.05736290290951729,-0.060602523386478424,-0.02420208975672722,0.08153317123651505,0.0634811520576477,-0.006327260285615921,0.03808123618364334,0.07942681759595871,0.05631375312805176,-0.007392398081719875,-0.027757704257965088,-0.02034916542470455,0.04075339436531067,-0.010620106011629105,0.06597171723842621,-0.0619233138859272,-0.08390844613313675,0.043042030185461044,0.04431192949414253,0.004913735203444958,0.008539530448615551,-0.08739025145769119,-0.011471862904727459,-0.08328059315681458,0.028892677277326584,0.022851740941405296,0.05504533275961876,0.024470528587698936,0.06266177445650101,-0.012788905762135983,0.07059498876333237,0.023792482912540436,0.028706427663564682,0.03252442926168442,-0.0826634094119072,0.0257175974547863,-0.06935398280620575,-0.05141019821166992,-0.059045348316431046,0.04889792576432228,-0.028792060911655426,0.006623163819313049,-0.032727114856243134,0.08537562191486359,-0.05016976594924927,-0.07151179015636444,-0.07497144490480423,-0.06597399711608887,0.07692928612232208,0.008294484578073025,0.024433232843875885,-0.02847348153591156,0.08293216675519943,-0.08380799740552902,0.013330391608178616,0.019624950364232063,-0.07560178637504578,-0.06629209965467453,0.06142359972000122,0.059477128088474274,-0.07089508324861526,-0.059692107141017914,-0.08169406652450562,-0.07266409695148468,0.04147778078913689,0.014848243445158005
-0.005528328474611044,0.019736958667635918,0.04995511472225189,-0.09356381744146347,-0.0028063911013305187,0.030803615227341652,-0.05811891704797745,0.06961149722337723,0.08972064405679703,0.025645680725574493,0.01814042590558529,-0.02634676732122898,0.024915244430303574,0.0598432719707489,-0.03358370065689087,0.006829491816461086,0.0464317686855793,-0.020439451560378075,0.0023449589498341084,-0.04565809667110443,-0.04300615191459656,-0.03765927255153656,-0.0558755099773407,-0.061046961694955826,0.012065778486430645,-0.022331029176712036,0.04945841804146767,-0.06384147703647614,0.05610131099820137,0.0647481307387352,0.03728225827217102,-0.04965202882885933,-0.06104249507188797,-0.012941601686179638,0.0933152362704277,-0.01874791830778122,-0.009167361073195934,-0.02082083374261856,-0.0289881881326437,0.0067406329326331615,-0.04639551416039467,-0.04735659807920456,-0.07417848706245422,0.0511794351041317,0.045439980924129486,-0.0352163165807724,0.007702525705099106,-0.03964178264141083,-0.06355059146881104,0.07993423938751221,0.039321038872003555,0.03189082443714142,0.014514898881316185,0.08229583501815796,0.005658778827637434,0.02660289593040943,0.039787422865629196,-0.0658499076962471,0.06113521009683609,0.01670229062438011,0.05807163938879967,-0.042011506855487823,-0.052325960248708725,0.060249779373407364,0.06629276275634766,-0.006640163250267506,0.040132779628038406,-0.05828437954187393,-0.05352270230650902,-0.013988995924592018,0.025432489812374115,0.07640543580055237,-0.026866210624575615,0.07245224714279175,-0.07756730169057846,-0.004127489402890205,0.0832216888666153,-0.0033645988442003727,0.05141528323292732,0.08251777291297913,0.0892944484949112,-0.03606248274445534,0.016965387389063835,-0.06868414580821991,0.05243534594774246,-0.017057785764336586,-0.06940745562314987,0.051677994430065155,0.0064970809035003185,-0.017541496083140373,0.07742514461278915,-0.06305151432752609,-0.009835906326770782,-0.05859827995300293,-0.02379797212779522,0.046095967292785645,0.03909601271152496,0.0009461604058742523,0.07689261436462402,0.0236685648560524,0.0010780096054077148,0.047835346311330795,0.008498390205204487,-0.021418942138552666,-0.082120880484581,-0.08370863646268845,-0.056942977011203766,-0.04089799523353577,0.04953669011592865,-0.05067567154765129,-0.008561572059988976,-0.07391120493412018,-0.05283820256590843,0.0379057414829731,-0.003604030469432473,-0.027316205203533173,0.06671023368835449,0.07550215721130371,-0.08848211169242859,-0.07577424496412277,0.048885054886341095,-0.06656230986118317,-0.019259531050920486,0.05619186908006668,-0.05922597274184227,0.0343136340379715,0.03788815811276436,0.062461309134960175
0.01873038150370121,-0.04220999777317047,-0.08428466320037842,-0.061119429767131805,0.030810846015810966,0.001648787991143763,0.048172738403081894,-0.06344486773014069,0.03917839005589485,-0.054687339812517166,-0.06481669843196869,-0.05549296736717224,0.03185393288731575,0.0013074033195152879,-0.029737183824181557,0.05830903723835945,-0.007670795079320669,0.00067421660060063,0.014574789442121983,0.061578862369060516,-0.06184925511479378,0.06105784326791763,0.06223031133413315,0.015185262076556683,0.061766769737005234,0.007503441534936428,-0.0440414734184742,0.07826220989227295,-0.08841709047555923,-0.02744283340871334,0.07808161526918411,-0.0030783694237470627,-0.08583241701126099,-0.07169880717992783,0.08489455282688141,0.08559931814670563,0.014181114733219147,0.008870427496731281,0.04879850149154663,-0.024983884766697884,-0.006648187059909105,-0.0759756788611412,-0.08831030875444412,0.012845526449382305,0.016156502068042755,-0.014700772240757942,0.04475807398557663,0.03707626089453697,0.015183810144662857,-0.0001317003625445068,0.015453055500984192,0.04573318734765053,0.08572405576705933,0.05008045956492424,0.04531964287161827,-0.01498535368591547,0.06550009548664093,0.02860826998949051,0.054357241839170456,-0.03115399181842804,0.023527951911091805,-0.06236012279987335,-0.0917743444442749,0.0694672018289566,-0.03100116178393364,-0.0488106906414032,-0.028951721265912056,0.06991863995790482,-0.0636688619852066,-0.07569372653961182,0.04034227877855301,-0.03162688389420509,-0.07108636945486069,-0.0009330056491307914,-0.028764063492417336,-0.02720380201935768,-0.04543774574995041,-0.010830260813236237,0.06306606531143188,-0.019977707415819168,-0.09178229421377182,-0.057068511843681335,-0.08113663643598557,0.07205568999052048,0.034871362149715424,0.06797803938388824,0.06767343729734421,-0.002832933561876416,0.06621422618627548,-0.023795749992132187,0.052702393382787704,0.038494620472192764,0.07905048877000809,0.06883879005908966,-0.03435490280389786,-0.0366305373609066,0.00029627676121890545,0.0011396290501579642,0.07161025702953339,-0.053786952048540115,0.037276867777109146,-0.052747566252946854,-0.08063990622758865,-0.04847131296992302,0.0527375154197216,0.05806880444288254,-0.007158068940043449,0.016407083719968796,0.037063539028167725,-0.000708598701748997,0.031903449445962906,-0.02856697142124176,0.06368185579776764,-0.030517082661390305,0.07904849946498871,-0.07635697722434998,-0.07582215219736099,-0.015617304481565952,-0.09664486348628998,-0.007175750099122524,0.04720383509993553,0.02269304171204567,0.02039635181427002,-0.04250034689903259,-0.04843650385737419,-0.07660353928804398,-0.026297276839613914,-0.015749448910355568
0.03597085177898407,-0.09558729082345963,-0.045239172875881195,-0.02587077207863331,0.0009659225470386446,-0.09521633386611938,-0.059925999492406845,-0.008657287806272507,-0.060846712440252304,0.014274046756327152,0.04624348506331444,-0.06573665142059326,0.08921471983194351,0.07058127969503403,-0.027918655425310135,-0.02658054791390896,-0.060646120458841324,-0.05236038565635681,-0.04649687558412552,-0.03444119170308113,-0.050747379660606384,-0.005421745590865612,0.05214177817106247,-0.05549263581633568,0.04708953574299812,0.007900102064013481,0.08675847947597504,0.0782914087176323,-0.061471570283174515,-0.017954081296920776,-0.06947489827871323,-0.06489742547273636,0.0036333801690489054,-0.05443211644887924,-0.03440093994140625,-0.059072345495224,0.003952530678361654,-0.04154406487941742,0.05938432365655899,-0.045825909823179245,-0.05507362633943558,-0.015543549321591854,0.0006343602435663342,-0.04516599327325821,0.03178243339061737,0.05797853693366051,0.03749832883477211,-0.002010082360357046,-0.07757771015167236,-0.01673470251262188,-0.003127338830381632,-0.021677028387784958,-0.019194306805729866,0.06477639824151993,-0.04265574738383293,0.09542061388492584,0.02866719290614128,-0.049808014184236526,-0.00855308212339878,-0.06545863300561905,0.054256681352853775,-0.047770630568265915,-0.05248438939452171,0.007288539316505194,-0.060778677463531494,-0.06153251230716705,0.02057659812271595,0.04762488231062889,-0.028323667123913765,0.06345614790916443,0.03191724419593811,0.03750326856970787,0.06237290799617767,-0.05048273503780365,-0.036574024707078934,-0.07759979367256165,0.06076893210411072,-0.006758902221918106,-0.05704222619533539,-0.005912240594625473,-0.04245350509881973,0.06416568160057068,-0.0022897750604897738,-0.06277298927307129,-0.014189720153808594,-0.007537494413554668,-0.015468422323465347,0.05124024301767349,0.04869168624281883,0.04771265760064125,0.05590099096298218,-0.05519278347492218,-0.06510049849748611,-0.02644653059542179,0.024840515106916428,-0.017886342480778694,0.03380631282925606,-0.02369854785501957,-0.028964653611183167,0.03981536626815796,0.01307533960789442,-0.003912558313459158,0.06193200498819351,0.056892793625593185,0.06213992089033127,0.06454138457775116,-0.07836494594812393,-0.034923963248729706,-0.02909701317548752,0.04143998771905899,0.08279430866241455,-0.031058024615049362,-0.07985863089561462,-0.07080402225255966,-0.08059404045343399,0.061932750046253204,-0.03985985368490219,0.025057276710867882,0.01361065823584795,-0.010888178832828999,0.0754002034664154,0.01709814742207527,-0.014653569087386131,0.03980066627264023,-0.031747233122587204,-0.00448980275541544,0.016410645097494125,-0.010112219490110874
0.06338521093130112,-0.08088330179452896,-0.02696072869002819,-0.09249247610569,0.04908042401075363,0.00438449252396822,-0.046248797327280045,-0.055779676884412766,0.016135375946760178,-0.04567201808094978,0.061691123992204666,0.007943743839859962,-0.04639498144388199,0.06335123628377914,0.007578553631901741,0.0209851935505867,0.014311786741018295,0.04084305465221405,0.05523282662034035,0.02393389120697975,-0.07467155903577805,0.09231367707252502,0.03648096323013306,-0.010789483785629272,-0.008730578236281872,0.09051986783742905,-0.09292197972536087,0.06081390753388405,-0.052852876484394073,-0.026449469849467278,0.0008538938127458096,0.03534675016999245,-0.02698841691017151,-0.06128907948732376,0.04044084623456001,0.056103430688381195,-0.06108633428812027,-0.06937962025403976,-0.031687118113040924,0.008424056693911552,-0.081414133310318,-0.07915440201759338,-0.00016233684436883777,0.016071096062660217,0.03435829281806946,-0.05229535326361656,-0.06461310386657715,-0.0225193090736866,0.009939774870872498,0.028887977823615074,-0.007957126945257187,-0.026249902322888374,0.03921040520071983,0.059130847454071045,-0.061676304787397385,-0.025032881647348404,0.06875050067901611,-0.07622522860765457,-0.06293348222970963,0.056678883731365204,0.0899641364812851,0.07892072945833206,-0.07665961235761642,-0.07245952636003494,-0.07301133871078491,-0.03990626335144043,0.04831210896372795,0.09422027319669724,-0.0756291076540947,0.05262502282857895,0.03515903279185295,-0.030296552926301956,0.037904225289821625,-0.0819346085190773,0.06671327352523804,0.07692420482635498,0.0006269470904953778,0.04177471622824669,-0.005351018160581589,0.04028293862938881,0.062086839228868484,0.019541185349225998,-0.055958185344934464,-0.06574136763811111,0.030246783047914505,0.0886002779006958,-0.08725991100072861,0.02541293203830719,0.06886547803878784,0.07121223956346512,-0.06744344532489777,0.05880694463849068,0.05124632269144058,0.030603282153606415,0.01148997526615858,0.01968792825937271,-0.06672076880931854,-0.045337773859500885,0.05514537915587425,-0.038995590060949326,-0.015066137537360191,-0.06131651625037193,0.012281459756195545,-0.02751704677939415,-0.08789601176977158,-0.012634789571166039,-0.02816343680024147,0.008189402520656586,-0.009268920868635178,0.04900980368256569,0.09558538347482681,-0.05399244651198387,-0.05054106190800667,0.05708535760641098,-0.03865787014365196,0.017869379371404648,-0.07638638466596603,-0.08024853467941284,-0.09436164051294327,0.013844342902302742,-0.027323948219418526,0.013452763669192791,-0.02307567000389099,0.040465667843818665,0.004407711327075958,-0.013317067176103592,0.04528094828128815,-0.003462682943791151
0.0013397795846685767,0.05041754990816116,0.0031999757047742605,-0.03579576313495636,0.04639529436826706,0.04190651327371597,-0.07447697967290878,0.06365785747766495,0.04847552999854088,0.08148100972175598,0.06308553367853165,0.0003864224418066442,0.06041526049375534,-0.029353942722082138,-0.0747181847691536,0.0702320858836174,-0.0867329090833664,-0.01957772858440876,0.048808127641677856,-0.05840093642473221,0.059945058077573776,0.08582686632871628,0.08652818948030472,-0.07386688888072968,0.06404192745685577,-0.038314949721097946,-0.023486416786909103,0.09228113293647766,-0.0694727674126625,0.04672025144100189,0.018453126773238182,-0.03542501479387283,-0.014254425652325153,0.03368566930294037,-0.05806741490960121,0.02879011072218418,0.07121751457452774,-0.05475916340947151,0.0761922225356102,-0.00244325865060091,0.006888155359774828,0.0007143630646169186,0.05743202567100525,0.06890815496444702,-0.02719273418188095,0.011788195930421352,-0.007164973299950361,0.05350209027528763,-0.018757537007331848,-0.07159151881933212,-0.020190555602312088,-0.07156514376401901,0.048648301512002945,-0.06680464744567871,0.030106278136372566,-0.05241642892360687,-0.02469494380056858,-0.07794084399938583,-0.05379744619131088,-0.07769806683063507,0.06412496417760849,0.014178449288010597,-0.04272640869021416,0.0654069185256958,-0.00433970196172595,0.07050656527280807,-0.04792257398366928,-0.011941740289330482,0.012751593254506588,-0.0803147703409195,-0.03960677236318588,-0.06504658609628677,0.05383661761879921,-0.004541222471743822,0.009787713177502155,0.03802632912993431,-0.05471818521618843,0.08115685731172562,-0.020983053371310234,-0.018510153517127037,0.0532035157084465,0.008212211541831493,0.0035595293156802654,0.007899190299212933,-0.0004441400815267116,0.007344279903918505,0.0736117735505104,0.046903204172849655,0.025684110820293427,-0.012597562745213509,0.022569440305233,0.015613972209393978,0.03295731544494629,0.0647570937871933,-0.036653030663728714,0.06283378601074219,-0.05038733407855034,0.08012647926807404,-0.0319107323884964,0.003812250681221485,0.022988788783550262,0.08391962945461273,0.053875457495450974,0.0401027575135231,0.03448162227869034,-0.03857305273413658,0.026003699749708176,-0.016959672793745995,0.034031257033348083,-0.012103153392672539,0.05026199296116829,0.04130009934306145,-0.03626292943954468,-0.023039603605866432,0.022813711315393448,-0.05313160642981529,-0.053755924105644226,0.027359522879123688,0.061439648270606995,-0.04725664481520653,-0.024082377552986145,-0.03764813020825386,0.07722505182027817,0.036816973239183426,-0.09035277366638184,-0.09467540681362152,0.06469323486089706,0.06252557784318924
-0.05982980877161026,-0.07610058039426804,-0.04245376959443092,-0.055740561336278915,0.08715476095676422,-0.08059124648571014,0.05861178785562515,0.004331518430262804,4.263233859091997e-05,-0.015869885683059692,0.010977337136864662,-0.07954096794128418,-0.02823484316468239,-0.0066560860723257065,0.059317123144865036,0.05914732441306114,-0.08070347458124161,0.02585546113550663,-0.04894580319523811,-0.05846736580133438,0.05830882862210274,0.060742929577827454,-0.0726136863231659,0.06654532998800278,0.02540561370551586,-0.07058704644441605,-0.034290529787540436,0.010016772896051407,-0.0835975706577301,-0.031234845519065857,0.0012573087587952614,-0.05348896607756615,0.013880700804293156,0.08378193527460098,-0.03024609014391899,0.07584839314222336,0.08344180136919022,-0.0553610734641552,0.02830277569591999,0.02672599069774151,0.039984770119190216,0.02403615228831768,0.024172304198145866,0.012715029530227184,0.07931918650865555,0.06764876842498779,0.0030038119293749332,0.04711081087589264,0.005329840816557407,-0.02950887568295002,-0.09670356661081314,-0.09674221277236938,0.03247223421931267,0.0362168550491333,-0.07404761016368866,-0.09068971127271652,-0.017055191099643707,-0.07053422927856445,-0.059209488332271576,0.09007425606250763,-0.059842124581336975,0.08513928949832916,-0.008349806070327759,0.06731568276882172,0.0004701412399299443,0.06229652464389801,-0.05179336667060852,-0.019671466201543808,0.0003873548412229866,-0.0075054168701171875,0.0936313271522522,0.07786038517951965,-0.008951971307396889,0.011907784268260002,-0.07317323982715607,0.07895941287279129,0.04305064305663109,0.053960252553224564,-0.08534160256385803,0.06631111353635788,0.07986001670360565,0.06886760890483856,-0.09364226460456848,-0.05557297170162201,0.03097750060260296,-0.07266667485237122,0.033126287162303925,-0.02541913092136383,0.019398009404540062,-0.09454573690891266,0.06521718949079514,-0.03592466562986374,-0.019974583759903908,-0.029822304844856262,0.07231715321540833,-0.07419438660144806,0.05025288090109825,0.06861250102519989,-0.028766628354787827,-0.09501603245735168,-0.04218262806534767,-0.06116466969251633,-0.01856566034257412,-0.09229982644319534,-0.03611389547586441,-0.027286237105727196,0.0025237658992409706,0.07865115255117416,-0.043399251997470856,-0.014356623403728008,-0.04022321477532387,0.05044058337807655,0.028148166835308075,-0.024403324350714684,0.06310322135686874,0.06307755410671234,-0.04534180834889412,-0.05773192644119263,-0.08138328790664673,-0.02244982123374939,0.04263618588447571,-0.06676560640335083,-0.0006970522226765752,0.005266242194920778,-0.034957148134708405,0.0026350384578108788,-0.04893194139003754,0.005059243645519018
0.0029904311522841454,0.04534434527158737,0.02622685208916664,-0.07275735586881638,-0.055529650300741196,-0.05810002237558365,0.02453337423503399,-0.07620786875486374,-0.06624995172023773,0.02330801635980606,0.09103037416934967,-0.015064764767885208,-0.04486957937479019,0.055875264108181,0.08083344250917435,-0.00407523475587368,-0.01548639964312315,-0.07789452373981476,0.08614575862884521,0.05072086676955223,0.04421272501349449,-0.0852903500199318,-0.04834866151213646,0.044763680547475815,-0.02714964747428894,-0.06276192516088486,0.01317885983735323,-0.04958098381757736,-0.08104215562343597,0.006567452568560839,-0.01934298500418663,0.07772880792617798,0.0891498327255249,0.009637268260121346,-0.02391640469431877,0.050020232796669006,-0.01769494079053402,0.07316966354846954,0.07381238788366318,0.039163194596767426,0.03592313081026077,-0.046301573514938354,-0.04666559025645256,0.0739470049738884,-0.008466765284538269,-0.01822785474359989,-0.015211140736937523,0.09274037927389145,0.06631038337945938,-0.02470196783542633,-0.012699995189905167,0.05827218294143677,0.03288811817765236,-0.06429722905158997,-0.08946727216243744,0.07843194156885147,-0.04105065017938614,0.05566898360848427,-0.06675184518098831,0.03807848319411278,-0.0604395754635334,-0.09298957884311676,0.0012867541518062353,-0.0843852236866951,0.043115828186273575,-0.08899258077144623,-0.05369831249117851,0.0378592312335968,0.02544277533888817,0.037482958287000656,0.009092277847230434,0.03384160250425339,0.04248416796326637,-0.08401086181402206,0.05138280242681503,0.019011657685041428,0.022735362872481346,0.011292883194983006,0.08423609286546707,0.046933554112911224,0.07652894407510757,-0.01835697703063488,0.05577891692519188,-0.07549390196800232,-0.010051137767732143,-0.008754013106226921,-0.005992353428155184,0.03810261934995651,-0.07026871293783188,0.06666813790798187,0.021809691563248634,-0.06437747925519943,0.006086212582886219,0.0025257752276957035,-0.009247904643416405,-0.04365137219429016,0.00967174582183361,0.07689491659402847,-0.0037337704561650753,-0.033578258007764816,-0.05439304560422897,0.0056470963172614574,0.003003955353051424,-0.07225178182125092,-0.05999751016497612,-0.08857755362987518,0.007741461042314768,0.029611175879836082,0.04577561467885971,-0.0397491455078125,0.015285884030163288,0.05016910657286644,-0.07777567207813263,0.03849812224507332,0.031722187995910645,0.045085061341524124,-0.03318778797984123,0.014893641695380211,0.06466060131788254,0.048875726759433746,-0.019397756084799767,-0.015587790869176388,0.06559969484806061,0.07876241207122803,0.05253627523779869,0.0843733698129654,-0.06440998613834381,0.0808887928724289
-0.029259122908115387,-0.05111519619822502,-0.028454164043068886,0.059861741960048676,-0.02345241606235504,0.0559338741004467,0.027347654104232788,-0.016150856390595436,-0.04228094592690468,-0.014908268116414547,-0.022911710664629936,-0.0237056203186512,-0.05907006934285164,0.035415131598711014,0.08265044540166855,-0.061053287237882614,0.054570846259593964,0.05834696814417839,0.07531537115573883,-0.05349990725517273,0.07198002934455872,0.08002231270074844,0.02233797311782837,-0.08421970158815384,-0.0077446154318749905,0.022540830075740814,0.04963136464357376,-0.07463803142309189,0.07412870228290558,0.07741397619247437,-0.050346411764621735,0.05912989750504494,-0.005502719897776842,0.026282740756869316,-0.054483234882354736,0.09116259962320328,-0.032720040529966354,-0.041046760976314545,0.0133647620677948,-0.02701674960553646,0.04829458147287369,-0.053273942321538925,0.05306467041373253,-0.05805626139044762,-0.05515006184577942,0.03862408921122551,0.05722349137067795,-0.07840753346681595,-0.05192737653851509,0.04731598496437073,0.0270919818431139,-0.07381034642457962,-0.09068138152360916,0.04940829426050186,-0.054581452161073685,0.004657680634409189,-0.04667694866657257,-0.0432584248483181,0.05148834362626076,-0.02330990694463253,-0.09189703315496445,0.06742590665817261,0.002263994887471199,0.0878269150853157,-0.081534743309021,0.05637596175074577,0.014422804117202759,-0.020795445889234543,-0.02046242542564869,0.011303461156785488,-0.07769853621721268,-0.08234969526529312,0.061009012162685394,0.04541345685720444,0.05273931100964546,0.05372890457510948,-0.005049124360084534,0.05751846730709076,0.01776622235774994,0.03556074947118759,0.09070447087287903,0.031137794256210327,0.03905314952135086,0.015305484645068645,-0.0726599469780922,-0.05977418273687363,0.044548336416482925,0.043805740773677826,-0.049700167030096054,-0.029725033789873123,0.03412564471364021,0.07048963010311127,-0.020343149080872536,0.00047054083552211523,0.09526483714580536,-0.0797262042760849,0.09097085893154144,0.054003503173589706,-0.039997365325689316,0.0697411522269249,0.06103730574250221,0.03669951483607292,-0.06712190806865692,0.010567201301455498,-0.003180008614435792,0.015765324234962463,0.07790443301200867,-0.08096826076507568,-0.026847602799534798,-0.06912852078676224,0.04085025191307068,-0.01736851967871189,0.07359620928764343,0.010206899605691433,0.08287831395864487,-0.05307704210281372,0.029743768274784088,0.05387163534760475,-0.012062438763678074,0.052461352199316025,-0.07575567811727524,0.05886475741863251,0.07518608123064041,-0.012810375541448593,-0.07732229679822922,-0.024346038699150085,-0.08219121396541595,0.03323100134730339
0.02847023867070675,0.08817937970161438,-0.02739652432501316,-0.020559653639793396,0.05293674394488335,-0.048848748207092285,0.05125961825251579,0.007216528989374638,0.08636022359132767,0.0690411925315857,0.04386268928647041,0.04950718581676483,0.08090324699878693,0.019333500415086746,0.07921738177537918,0.06020146980881691,0.07130450010299683,0.06702541559934616,0.06725677102804184,0.021103233098983765,0.07947152853012085,0.06955620646476746,-0.04870424419641495,-0.042744576930999756,0.0424124076962471,-0.07641923427581787,0.030520230531692505,-0.05147678777575493,-0.025844238698482513,-0.07822733372449875,-0.07314057648181915,0.006594305392354727,0.05618169903755188,0.04111289232969284,0.04874604567885399,-0.06460165977478027,0.07691206783056259,-0.05477488413453102,0.039260249584913254,-0.028647931292653084,-0.07078097015619278,0.05686761811375618,0.02104310132563114,0.09365873038768768,0.051477644592523575,0.05649259686470032,-0.0012622387148439884,0.06590969860553741,0.0779152363538742,-0.03459431976079941,-0.006393565330654383,0.005647607147693634,0.05549599602818489,-0.09127842634916306,0.03930317983031273,-0.052508845925331116,0.00856876466423273,-0.03695651516318321,-0.032840851694345474,0.03924817964434624,-0.020840680226683617,-0.03394215553998947,-0.013222151435911655,-0.038324322551488876,-0.026091957464814186,0.010297116823494434,0.07664941996335983,0.061306338757276535,-0.0602494440972805,-0.051195137202739716,-0.06003779172897339,-0.007911164313554764,-0.06278365105390549,0.01059812307357788,0.005993688944727182,-0.043065138161182404,0.019054898992180824,0.053838688880205154,-0.025354361161589622,-0.08473175764083862,0.005278929136693478,-0.03699610382318497,-0.04628334566950798,0.08482509106397629,0.05181899666786194,0.0846637487411499,0.06855406612157822,-0.0637064278125763,0.025575293228030205,0.006855950690805912,0.077730692923069,-0.044585276395082474,-0.0768938660621643,0.06071344017982483,-0.015425984747707844,0.003215205390006304,0.0268489271402359,-0.012036704458296299,0.05107628181576729,0.006621493957936764,-0.032698746770620346,-0.06369543820619583,0.08063454180955887,-0.07011237740516663,0.013516307808458805,-0.04212319850921631,-0.04794299229979515,-0.030781064182519913,-0.00917105097323656,-0.010299102403223515,0.00012215052265673876,0.07046191394329071,0.035571277141571045,-0.022809183225035667,-0.019157802686095238,-0.02667452208697796,0.024560019373893738,-0.006735970266163349,-0.07555455714464188,0.026614351198077202,-0.033981841057538986,-0.04303202033042908,0.007887525483965874,-0.07499988377094269,-0.02449204958975315,0.06628996878862381,0.0899004340171814,-0.05383654311299324
-0.06346351653337479,-0.07710669934749603,0.042105767875909805,-0.08490874618291855,-0.04592994600534439,-0.09256289899349213,0.0654655247926712,-0.07756210118532181,0.0069716498255729675,-0.032087814062833786,0.031444717198610306,0.010498050600290298,0.07209333032369614,-0.08095008134841919,0.06634948402643204,-0.09190405160188675,-0.0022312395740300417,-0.03474532067775726,-0.09079336374998093,0.03803399205207825,-0.05107715353369713,0.06676503270864487,-0.07321324944496155,-0.0881204605102539,-0.07278397679328918,-0.029379846528172493,-0.07472243905067444,-0.06001183018088341,0.06628180295228958,0.01736285351216793,0.06023963913321495,0.007518739439547062,-0.023021414875984192,-0.016550637781620026,0.04990612342953682,0.019301943480968475,-0.03755900263786316,0.06659161299467087,-0.03534984216094017,-0.043485723435878754,0.04210064932703972,-0.033992499113082886,0.07761506736278534,-0.025564320385456085,-0.06908983737230301,0.01224959921091795,0.029346371069550514,-0.0375235490500927,0.02373187430202961,0.08374401181936264,-0.010165100917220116,-0.03349284082651138,0.08806204050779343,0.0408170260488987,-0.030781475827097893,0.012010904029011726,0.03380961716175079,0.0308464877307415,-0.04777657613158226,-0.05921652540564537,0.008110017515718937,-0.029777023941278458,-0.024103665724396706,0.026189208030700684,0.04166287183761597,0.01552865095436573,-0.08136824518442154,0.0931679755449295,-0.010425466112792492,0.01142907701432705,-0.01000100839883089,0.0055687446147203445,0.012619081884622574,0.0132236797362566,-0.01103988103568554,-0.08893978595733643,0.0656699538230896,0.05901646241545677,0.0599764883518219,-0.03511294350028038,-0.004294094629585743,0.047624509781599045,0.0749557837843895,-0.021954303607344627,0.04610568657517433,0.06451359391212463,-0.017522627487778664,0.020046958699822426,0.02638065628707409,0.08293019235134125,0.08087523281574249,0.044830072671175,-0.024131331592798233,-0.07334049046039581,0.04693381488323212,0.024290161207318306,-0.07880941033363342,0.08905259519815445,-0.045573849231004715,0.01584426499903202,-0.016707351431250572,-0.05003345012664795,-0.022106774151325226,-0.07598468661308289,-0.03727823123335838,-0.011314863339066505,-0.05957626551389694,-0.027451178058981895,0.025385618209838867,0.014259973540902138,0.04065743833780289,-0.04642866179347038,-0.02372966893017292,-0.05636725574731827,0.06402745842933655,-0.003076396184042096,-0.02941027469933033,0.06489252299070358,-0.04855765774846077,0.07494312524795532,-0.040328044444322586,0.03461815416812897,-0.05761709809303284,0.0029445516411215067,-0.017051424831151962,0.053846102207899094,0.01604362577199936,-0.08084144443273544
0.04927653819322586,-0.0347040556371212,0.046484895050525665,-0.07316328585147858,0.06987184286117554,-0.04200780391693115,0.05131395906209946,-0.061496563255786896,-0.038398828357458115,-0.08578505367040634,0.08011648058891296,0.04870489984750748,0.022673645988106728,-0.04439586028456688,0.08151174336671829,-0.042080108076334,-0.03349759429693222,0.03350168839097023,0.07305202633142471,0.043068356812000275,-0.031392741948366165,0.06633660942316055,0.0639805942773819,0.002843678928911686,-0.01779966615140438,0.0074020870961248875,0.032362062484025955,0.04466492682695389,-0.0460841991007328,-0.012296279892325401,0.06213148683309555,0.012618295848369598,0.05594616383314133,0.037635646760463715,0.05424295365810394,0.008472749963402748,-0.021244823932647705,0.0464790016412735,-0.05262024328112602,-0.06826652586460114,-0.0445445291697979,0.021889954805374146,0.06565574556589127,-0.007601740304380655,0.0258204136043787,0.030063848942518234,0.025691622868180275,0.05416775867342949,-0.02993598021566868,0.09146936982870102,0.09262168407440186,0.03671323508024216,0.05291656777262688,-0.06480748951435089,0.051356296986341476,-0.03887825831770897,-0.03387885540723801,-0.06076114624738693,0.0549456849694252,-0.01337620709091425,-0.05315610021352768,-0.029978012666106224,-0.07992943376302719,-0.060966476798057556,0.07218597829341888,-0.07947851717472076,-0.000964527134783566,0.03262467309832573,-0.08575212955474854,0.037713274359703064,0.07311342656612396,-0.04886390641331673,0.04689566418528557,-0.0840916708111763,-0.044886454939842224,0.07980167865753174,0.06544782966375351,-0.06544723361730576,0.0735401064157486,-0.015525998547673225,-0.0135114174336195,0.07462703436613083,-0.07441072911024094,0.02728036232292652,0.08001741766929626,0.09371691197156906,0.010101011022925377,0.03721499815583229,-0.023708822205662727,0.014624851755797863,-0.031677015125751495,0.015514961443841457,-0.02714580111205578,-0.025093229487538338,0.07919608056545258,-0.07316572219133377,-0.0412074439227581,0.07711917161941528,0.041826069355010986,0.05558432638645172,0.0381878986954689,-0.04324113577604294,0.05486363172531128,-0.0036127788480371237,-0.010113443247973919,-0.05609988421201706,-0.053720857948064804,0.07606792449951172,0.05021940544247627,-0.029219195246696472,-0.04073597863316536,-0.003214701544493437,0.019150875508785248,-0.018263723701238632,0.09521178156137466,0.005782209802418947,0.03867378458380699,0.08486519008874893,0.07318086177110672,-0.06068221107125282,-0.02955188974738121,0.03996556997299194,0.027693811804056168,0.002535235369578004,0.03369258716702461,-0.06123756989836693,-0.023429661989212036,-0.07325479388237
-0.014343418180942535,-0.05163549259305,0.00022700976114720106,-0.06939740478992462,0.04758068546652794,-0.060239966958761215,-0.03880546614527702,-0.007876824587583542,0.0793241411447525,-0.009870888665318489,0.0019790998194366693,0.07901391386985779,-0.08202449977397919,0.010409723967313766,0.08629220724105835,0.06574288755655289,-0.047605693340301514,0.012314152903854847,0.04486194625496864,0.023203561082482338,-0.042123980820178986,0.038978952914476395,0.06347984820604324,0.0956045463681221,-0.055640190839767456,0.055165547877550125,-0.05032176896929741,-0.04357491806149483,-0.04293208196759224,-0.003958726301789284,0.05999281629920006,-0.04446752741932869,0.033010561019182205,0.08161354064941406,-0.07492240518331528,0.04835609719157219,-0.059014007449150085,0.0020478011574596167,-0.0002439357340335846,-0.03734173998236656,0.05314255505800247,0.055218394845724106,-0.06321520358324051,-0.056940216571092606,-0.032315805554389954,-0.0627039447426796,0.05638359487056732,0.014054160565137863,0.017512762919068336,0.08835309743881226,-0.06734952330589294,0.034573182463645935,-0.052266668528318405,0.08629267662763596,0.06363213062286377,0.02194606140255928,0.006488342769443989,0.038846295326948166,0.07307999581098557,0.010654629208147526,0.044547297060489655,-0.04732105880975723,-0.06521889567375183,0.022738242521882057,-0.041757747530937195,0.07538929581642151,-0.007316546514630318,-0.025464439764618874,-0.019142605364322662,-0.0887313038110733,0.043329909443855286,0.04391510412096977,-0.05836689844727516,0.06863527745008469,-0.07540115714073181,-0.03567194566130638,0.038294706493616104,0.034740276634693146,-0.06432073563337326,0.07658737152814865,-0.003808908862993121,-0.020107848569750786,0.0073906369507312775,0.05003015697002411,-0.040489982813596725,-0.017731396481394768,-0.02194581925868988,0.07221957296133041,0.016874248161911964,-0.07224994152784348,0.04778960347175598,0.03878390043973923,0.05205957964062691,-0.08719868212938309,-0.06658771634101868,-0.055131230503320694,0.0637165829539299,-0.021806305274367332,0.036870043724775314,0.09650345891714096,0.08236008882522583,-0.06652068346738815,-0.08430267870426178,-0.0708637461066246,-0.01893296279013157,-0.07402463257312775,-0.0054383352398872375,-0.014054580591619015,-0.049825891852378845,0.07881654798984528,-0.01871533878147602,-0.058736883103847504,0.0011593319941312075,-0.031756289303302765,-0.031639114022254944,0.06378420442342758,0.0017132085049524903,-0.0033891252242028713,0.08751586824655533,0.04430805519223213,-0.0027356483042240143,-0.03188920021057129,-0.08780347555875778,-0.09059374034404755,0.08332812041044235,-0.06586222350597382,-0.037518616765737534,0.012279348447918892
-0.06537353992462158,0.05879441276192665,-0.03480718284845352,-0.06511027365922928,-0.07169794291257858,-0.08163373172283173,-0.06382842361927032,-0.005201852414757013,-0.017097119241952896,-0.006206255406141281,-0.06988411396741867,-0.0002704696962609887,0.031129514798521996,-0.07997278869152069,0.07350598275661469,-0.061346497386693954,0.02566421777009964,-0.03713533654808998,-0.08127106726169586,-0.039390694350004196,0.07876522094011307,0.07643212378025055,-0.017460636794567108,0.05938735604286194,0.08057262748479843,0.07747070491313934,-0.03932374343276024,-0.020219577476382256,-0.058695316314697266,0.06905104964971542,-0.022920995950698853,0.0931125283241272,-0.04258649796247482,0.06542521715164185,0.07624606788158417,0.042638931423425674,0.04969008266925812,-0.003829385619610548,-0.07892357558012009,0.03669840469956398,-0.07498089969158173,0.07338788360357285,0.037272535264492035,0.026326965540647507,0.06358116120100021,-0.025938786566257477,-0.07232809066772461,-0.08229672908782959,0.06884562969207764,0.03267677500844002,-0.0592268705368042,-0.08055301010608673,-0.08571767807006836,-0.02234058454632759,-0.016343114897608757,0.027709294110536575,-0.023358089849352837,-0.03878384828567505,-0.07078903913497925,-0.07979200780391693,0.061014920473098755,-0.07694756984710693,0.06393129378557205,0.04956728219985962,0.07836364209651947,0.07712642103433609,-0.07937590777873993,0.03429904952645302,0.008913859724998474,0.023958725854754448,0.07147523760795593,0.016538800671696663,-0.06325940787792206,-0.07886366546154022,0.028772423043847084,0.038336534053087234,0.029040273278951645,-0.04232620447874069,-0.005681872833520174,0.07111047208309174,0.003018098184838891,-0.035391367971897125,-0.07304054498672485,-0.042474739253520966,0.046257540583610535,-0.04953608289361,0.026319991797208786,0.061810243874788284,0.01772179827094078,-0.04446186125278473,-0.01422716211527586,-0.009057638235390186,0.0725361555814743,-0.08449900150299072,0.01869354024529457,0.003185543231666088,-0.0038298608269542456,-0.04312361776828766,0.014844423159956932,0.0683801919221878,0.004447966814041138,-0.05417487397789955,-0.05530279874801636,-0.06538230925798416,-0.03667912632226944,-0.06662465631961823,-0.015481679700314999,0.039499491453170776,-0.06136634200811386,-0.06491383165121078,-0.02722545713186264,0.07081082463264465,-0.0012282616226002574,0.03806726634502411,-0.02466627210378647,0.09641635417938232,-0.07287411391735077,-0.0714467316865921,0.08949826657772064,0.011772689409554005,0.06145209074020386,0.0024771192111074924,-0.0735422670841217,0.06146349385380745,-0.006323841866105795,0.08307761698961258,-0.020517362281680107,0.06151416897773743
-0.053552426397800446,0.07353174686431885,-0.03594474121928215,-0.04275960847735405,0.07249966263771057,-0.06661835312843323,-0.0031598948407918215,-0.03623250499367714,-0.05707352235913277,0.03562360629439354,-0.006872009485960007,-0.025125110521912575,0.03638290613889694,0.0767359659075737,0.07634177803993225,0.013837856240570545,0.007367083802819252,-0.024979235604405403,-0.014684637077152729,-0.0759269967675209,-0.023755811154842377,0.08296814560890198,-0.05825808644294739,0.036174025386571884,0.0724470466375351,-0.06454780697822571,-0.02255888469517231,0.028637994080781937,0.021864691749215126,-0.020387446507811546,-0.04616331681609154,-0.08338214457035065,0.07394404709339142,-0.045054517686367035,-0.08713221549987793,0.05485892668366432,0.02516087144613266,0.08916743844747543,0.04199417680501938,0.0420447401702404,0.05766935646533966,-0.06526407599449158,-0.07579409331083298,-0.004755701404064894,0.026007195934653282,0.07764778286218643,0.03750111535191536,-0.07234983146190643,0.07692165672779083,-0.02352522313594818,-0.0481620654463768,-0.0898379534482956,-0.044836509972810745,0.044349949806928635,0.04470044746994972,-0.003520319703966379,-0.08384052664041519,-0.007236019242554903,0.07213044911623001,-0.053549427539110184,0.07576748728752136,0.04637615382671356,0.021586762741208076,-0.039611682295799255,0.028111450374126434,-0.07238137722015381,-0.05556028336286545,0.07449215650558472,-0.022819669917225838,0.07298512011766434,-0.01186191476881504,0.08058305084705353,-0.014402213506400585,0.01410100981593132,0.033140841871500015,-0.06890902668237686,0.042906902730464935,0.0351320281624794,0.08218302577733994,0.06249134987592697,0.034197259694337845,-0.007357293274253607,0.021243391558527946,0.004539943765848875,0.05217689275741577,-0.05985919386148453,0.049718115478754044,0.0597710907459259,-0.0007007130770944059,-0.08789536356925964,-0.01999611221253872,0.0026683369651436806,0.018992403522133827,0.03224734961986542,0.04267747700214386,-0.001367296208627522,0.07714737951755524,-0.018833113834261894,-0.056270528584718704,0.006073652300983667,0.08546748757362366,0.02197985351085663,0.07604750245809555,-0.07939235121011734,0.039928048849105835,0.08822354674339294,0.07523996382951736,-0.08133958280086517,0.0016713953809812665,0.03650732338428497,-0.07360454648733139,0.06903128325939178,-0.0712091326713562,-0.05441008508205414,0.03325046971440315,0.03776789829134941,0.0193311907351017,0.011631723493337631,-0.08761297911405563,0.033384233713150024,0.04852933809161186,0.0016420506872236729,0.009787611663341522,-0.04159025102853775,-0.053178414702415466,0.04814666137099266,0.04062945768237114,-0.05793289840221405
0.07438260316848755,-0.04893600195646286,-0.02766239084303379,0.05731727555394173,-0.0347055085003376,0.029628949239850044,0.06208264082670212,-0.0545460470020771,0.011234278790652752,0.08046101778745651,0.07517731934785843,0.0443212166428566,-0.06603849679231644,0.0308359507471323,-0.07822401076555252,-0.000462030409835279,-0.016788385808467865,0.054447587579488754,-0.05434035137295723,0.018125861883163452,0.051960308104753494,0.02355123497545719,-0.044781189411878586,-0.015564183704555035,0.006529906764626503,0.07028379291296005,-0.06493696570396423,0.010247273370623589,-0.07042340934276581,0.0456780306994915,0.016115684062242508,-0.00016047345707193017,0.0592024065554142,0.009792211465537548,-0.05492011457681656,-0.028811940923333168,-0.06342394649982452,0.013104085810482502,0.05101478099822998,0.07020296156406403,0.04835605248808861,0.05282271280884743,0.02092001587152481,0.017498081550002098,0.008520900271832943,-0.07892318814992905,-0.022190121933817863,0.07758218795061111,-0.07039385288953781,-0.04424838721752167,0.03092934750020504,0.08902540057897568,0.01206776313483715,0.01776791363954544,-0.08391762524843216,0.06962206214666367,-0.0828106552362442,-0.027524184435606003,-0.008400320075452328,-0.04694439098238945,-0.021230610087513924,-0.05705397576093674,0.058640722185373306,-0.03874974325299263,-0.028768830001354218,-0.07912349700927734,-0.056064020842313766,-0.012230546213686466,0.01256046537309885,-0.03835754469037056,0.04625360295176506,0.07025448977947235,-0.08966345340013504,-0.047453198581933975,-0.055975042283535004,-0.05701013281941414,0.03827156499028206,0.01441988069564104,-0.02116619050502777,0.0653715655207634,-0.09659876674413681,-0.059627123177051544,0.047756604850292206,0.00847733486443758,0.045027799904346466,0.015728600323200226,-0.014963066205382347,-0.04845640808343887,0.00315306824631989,-0.042421672493219376,0.04207497090101242,-0.04355604574084282,-0.08567040413618088,-0.005870652385056019,-0.07099142670631409,-0.07716919481754303,-0.015583530999720097,-0.014838351868093014,0.02414197288453579,0.09502754360437393,0.03675094246864319,-0.011141371913254261,-0.0033421071711927652,-0.050279125571250916,-0.048059649765491486,0.017262540757656097,-0.03147284686565399,0.0650603249669075,-0.052040789276361465,0.028423365205526352,-0.03175639361143112,0.012501169927418232,-0.04306183382868767,-0.06328634917736053,0.07737325876951218,0.053896643221378326,-0.034098461270332336,0.05571279674768448,-0.0003026036429218948,0.04900716245174408,0.031069111078977585,0.080317422747612,-0.05199669301509857,-0.06406664848327637,0.05577780678868294,-0.04869232326745987,-0.004494433291256428,0.04202151298522949
0.06803195923566818,0.06144580990076065,-0.07685045152902603,0.06252752244472504,0.05660019442439079,-0.004397021606564522,-0.011082458309829235,0.05060867592692375,0.005816923454403877,0.02896154671907425,-0.05687374994158745,0.043279726058244705,-0.044060297310352325,0.042401187121868134,0.0273880735039711,0.032443951815366745,0.03191424161195755,0.07031124830245972,0.02794749103486538,-0.07745934277772903,-0.059758029878139496,0.003929689060896635,-0.0026159898843616247,-0.051313627511262894,0.09051406383514404,0.07018227130174637,0.012853661552071571,0.07552454620599747,-0.09487983584403992,0.037241239100694656,-0.0012699034996330738,0.0858740285038948,-0.05736292898654938,-0.023949632421135902,-0.06581681221723557,-0.041177067905664444,0.02818196453154087,-0.025324871763586998,0.03743073344230652,0.036699406802654266,0.08108390122652054,-0.03630613163113594,0.04751170426607132,-0.010315743274986744,-0.022066647186875343,-0.07302127033472061,-0.03041309304535389,-0.014450686052441597,0.0421435572206974,-0.06504523754119873,-0.07349713891744614,0.03041280247271061,-0.02297976426780224,-0.049340300261974335,-0.022902173921465874,0.01921575888991356,0.01409967616200447,0.0471583791077137,0.06433618068695068,-0.03679778054356575,-0.0400862991809845,0.020934078842401505,0.08307182043790817,0.07273272424936295,0.06183288246393204,0.042372871190309525,0.051299434155225754,0.07101698219776154,0.07693950086832047,0.013177930377423763,-0.0849260464310646,-0.05489332601428032,-0.008220807649195194,-0.04573861137032509,-0.046290721744298935,0.005548153538256884,0.0357414074242115,0.02791552245616913,-0.07971900701522827,0.0175936296582222,-0.04287511855363846,-0.016183022409677505,0.021188246086239815,0.09365730732679367,-0.06983873248100281,0.004488270729780197,-0.06708263605833054,0.07781106233596802,-0.05748556926846504,0.05636743828654289,0.04866058751940727,-0.0018119418527930975,-0.07638440281152725,0.0663684532046318,0.06826771795749664,0.08324344456195831,-0.0508398562669754,0.04668843373656273,-0.07216048240661621,-0.08150692284107208,0.0604591891169548,-0.03015327826142311,-0.007952269166707993,-0.050501808524131775,-0.06167063117027283,-0.056904010474681854,-0.014234102331101894,0.015248545445501804,0.04427962750196457,0.011992973275482655,0.0054776426404714584,-0.02512470632791519,0.08975881338119507,-0.031396884471178055,0.050046227872371674,0.06048537790775299,0.07835260033607483,0.010817158967256546,0.02605079486966133,-0.01588154211640358,0.02360372804105282,0.07327409833669662,-0.004400825593620539,0.0712495893239975,-0.03408114239573479,0.016820985823869705,-0.033879902213811874,-0.04370637238025665
0.021076098084449768,-0.05102973058819771,-0.0014676109421998262,-0.05614294111728668,-0.019059622660279274,0.056857772171497345,-0.029691016301512718,0.07965626567602158,-0.020996369421482086,-0.07374116778373718,0.048296116292476654,-0.05829034000635147,-0.05052144452929497,-0.05611076578497887,-0.07773517072200775,-0.012575722299516201,0.04936496168375015,0.011453844606876373,0.06310046464204788,-0.07122035324573517,-0.027093620970845222,0.00037250632885843515,0.05729646235704422,-0.08989166468381882,0.027807829901576042,0.08617892861366272,0.08312860131263733,-0.013439087197184563,0.054249394685029984,0.07235095649957657,0.018908187747001648,0.007457973435521126,0.07920732349157333,-0.042330335825681686,-0.024714410305023193,0.0270589217543602,0.06797193735837936,0.06526271998882294,0.0797632485628128,0.04124629497528076,0.016870660707354546,-0.06603450328111649,0.02969605103135109,0.07414908707141876,-0.058671094477176666,0.028855979442596436,0.03099127672612667,-0.02374747209250927,-0.019904345273971558,0.0868883803486824,0.048340752720832825,0.05472614988684654,-0.04855341836810112,-0.03118249960243702,-0.043170224875211716,-0.040596891194581985,0.05126387998461723,-0.02771429345011711,-0.0003991636913269758,0.02938411943614483,-0.04887045919895172,0.06428702175617218,-0.08348005264997482,0.03564539924263954,-0.03677278012037277,-0.0183113906532526,-0.05448408052325249,0.030571583658456802,0.0542469322681427,-0.008192573674023151,0.028016360476613045,0.048080530017614365,-0.0010052683064714074,0.036087799817323685,-0.03905997425317764,0.05960550531744957,-0.07040871679782867,0.07509738206863403,0.04302292689681053,0.08802154660224915,0.015130504965782166,-0.05469239503145218,0.03433039411902428,-0.009982628747820854,-0.03829847648739815,0.018548762425780296,0.05461185425519943,0.015622595325112343,0.06619375944137573,0.08667562901973724,-0.028901005163788795,0.0448891744017601,0.015250720083713531,-0.04282671585679054,-0.07930560410022736,0.08260727673768997,0.0014311932027339935,0.006938745267689228,-0.0392863005399704,-0.08440051972866058,0.04788806289434433,-0.01603200100362301,-0.03815777972340584,0.06773577630519867,0.0025992756709456444,0.035948000848293304,-0.05294790118932724,0.08089620620012283,-0.028081560507416725,-0.02627147175371647,-0.05200738087296486,-0.015864135697484016,-0.05254865810275078,-0.030364034697413445,-0.018061278387904167,-0.023921817541122437,0.00864914059638977,0.06483961641788483,0.07467971742153168,-0.03289010003209114,0.058283787220716476,-0.039191994816064835,-0.03819064795970917,-0.032296910881996155,0.017910823225975037,-0.017131710425019264,-0.016584057360887527,-0.02510627545416355
0.02356770448386669,0.03795001655817032,0.025729669257998466,-0.04806483909487724,-0.027620183303952217,0.01530805416405201,-0.03935963287949562,0.06977035105228424,-0.0071783815510571,0.001074902480468154,-0.062016356736421585,-0.03496701270341873,0.02163558080792427,-0.006988718174397945,-0.043335288763046265,-0.08174679428339005,-0.08917730301618576,-0.015089951455593109,-0.05375057831406593,0.016665257513523102,-0.07158100605010986,-0.029850514605641365,0.07783688604831696,0.07195991277694702,0.02378855086863041,0.03804021701216698,0.05694771185517311,-0.028955373913049698,-0.03389648348093033,-0.05505446717143059,0.053359102457761765,0.06572327762842178,0.039208363741636276,0.004024531692266464,-0.02901308611035347,-0.06504438817501068,-0.0785132348537445,-0.05553222447633743,0.06398359686136246,-0.048002224415540695,-0.010663378052413464,-0.04643895849585533,-0.04743077605962753,-0.05818449705839157,-0.016524041071534157,0.0214723851531744,0.06819549202919006,0.024538617581129074,-0.005162665154784918,-0.052131328731775284,0.047306835651397705,-0.07506079971790314,-0.04667540639638901,-0.019689761102199554,-0.07032059133052826,-0.01734991930425167,0.015766939148306847,0.05855507031083107,0.09136975556612015,-0.06755340844392776,-0.03083489090204239,0.07024330645799637,0.05083161219954491,0.02888558804988861,-0.008353155106306076,0.06480059027671814,-0.08139221370220184,0.03874197229743004,-0.0042476956732571125,0.024006223306059837,0.043795231729745865,-0.06488078832626343,0.037154942750930786,0.025896966457366943,-0.03985946252942085,0.03326994925737381,0.008600674569606781,-0.003801095299422741,0.02370484173297882,0.030547328293323517,0.04195922613143921,-0.046422794461250305,0.04270379617810249,-0.09533702582120895,0.08965624123811722,0.09350191056728363,-0.013608967885375023,0.0043123397044837475,0.042475927621126175,-0.016491534188389778,0.014507380314171314,-0.04831773042678833,-0.03966702148318291,0.07614518702030182,-0.029777906835079193,0.01907459646463394,-0.04628635570406914,-0.011046746745705605,-0.021498534828424454,-0.07083165645599365,0.0646502897143364,0.024569131433963776,0.056892942637205124,-0.0675387755036354,-0.015814974904060364,-0.0027024270966649055,0.026965709403157234,0.08071307092905045,-0.08098001778125763,0.03337407484650612,0.020201606675982475,-0.028261741623282433,-0.024229416623711586,-0.04711289703845978,-0.03358985856175423,0.07000137865543365,0.042676955461502075,-0.014103293418884277,-0.0743652954697609,0.03270548954606056,0.042711757123470306,-0.0736304223537445,0.08991457521915436,0.06484384089708328,0.0636778250336647,-0.018417110666632652,-0.009586806409060955,-0.043625641614198685
-0.08801878988742828,0.04775157943367958,-0.037480149418115616,-0.02551436796784401,-0.058196164667606354,-0.04853067174553871,-0.007001828867942095,-0.07606378197669983,-0.07576367259025574,-0.032914984971284866,0.07195369154214859,0.05426381900906563,-0.05002371594309807,-0.0021083210594952106,-0.04032100737094879,-0.046523310244083405,0.029499346390366554,-0.02554985322058201,0.026099594309926033,0.009524742141366005,0.07380102574825287,-0.030992941930890083,0.08359017223119736,0.015224861912429333,0.0535607747733593,0.06799536943435669,0.007330306340008974,-0.06254344433546066,0.050198011100292206,-0.041681475937366486,-0.06520163267850876,-0.02632291428744793,7.189973257482052e-05,-0.07562843710184097,-0.03200220316648483,0.027040109038352966,-0.05391152948141098,0.06285987794399261,0.07392837107181549,0.05981548875570297,-0.06112733110785484,0.005467106122523546,0.07126936316490173,-0.06761966645717621,0.061526767909526825,0.029881209135055542,0.056685443967580795,-0.016848504543304443,0.05217990279197693,0.021014569327235222,-0.061145517975091934,-0.04746544361114502,-0.07713355123996735,-0.04888640716671944,-0.051236554980278015,-0.0015199959743767977,-0.018743135035037994,0.043762385845184326,0.012489820830523968,0.05349930748343468,-0.021361377090215683,0.07102532684803009,-0.023956360295414925,-0.0040804194286465645,0.009988722391426563,-0.03880609944462776,0.05450208857655525,-0.07628735154867172,-0.016897279769182205,0.039826810359954834,0.07303868979215622,-0.07321026921272278,0.03782455250620842,-0.055682145059108734,-0.042011842131614685,0.01261257566511631,0.05902738496661186,-0.01998899132013321,0.0052835154347121716,0.022837352007627487,0.015514109283685684,-0.007839212194085121,-0.037599071860313416,0.06266612559556961,-0.021790869534015656,-0.01189105398952961,-0.05274277180433273,0.06215856596827507,-0.04903130233287811,0.05880685895681381,-0.08055132627487183,0.024353571236133575,-0.022069819271564484,-0.017599036917090416,-0.09405358880758286,-0.07769357413053513,-0.01407715305685997,-0.08606269210577011,-0.004179749172180891,-0.07239513099193573,0.03498942777514458,-0.022483931854367256,-0.07226064801216125,-0.022026998922228813,-0.060963138937950134,-0.08180416375398636,0.08558234572410583,-0.00826228316873312,0.029930122196674347,0.08457525819540024,-0.07772958278656006,0.0857502818107605,0.05297192186117172,0.06620095670223236,0.059418197721242905,0.0796026736497879,-0.056419916450977325,-0.0832337886095047,-0.0331878624856472,-0.05522122606635094,-0.06869100034236908,0.054237235337495804,0.06981246173381805,0.04507680609822273,-0.08824994415044785,-0.02230904996395111,0.04125731810927391,-0.050922803580760956
0.04091590642929077,-0.04613201692700386,0.072850801050663,-0.01456009317189455,-0.03637470304965973,0.05915912613272667,-0.010536151006817818,-0.08584528416395187,-0.0063316659070551395,0.06491458415985107,0.0579589419066906,0.022696789354085922,-0.058028168976306915,0.07086621224880219,-0.011802706867456436,-0.08345440030097961,-0.03518682345747948,0.005955721251666546,0.019777517765760422,-0.035731345415115356,-0.07545480877161026,-0.04910755529999733,-0.009096666239202023,0.059215474873781204,-0.062436725944280624,-0.04542908817529678,-0.04236278682947159,0.06677176803350449,0.004727145191282034,-0.037597332149744034,0.06365351378917694,-0.03811659663915634,0.0460464209318161,0.07913675904273987,-0.03845784440636635,-0.014635559171438217,-0.0836501196026802,-0.07172078639268875,0.060390654951334,0.0606650747358799,0.04111321642994881,0.0643945261836052,-0.029919132590293884,0.033296458423137665,0.052637550979852676,-0.0607120618224144,-0.01587529666721821,-0.01165306568145752,-0.0011046126019209623,0.027026429772377014,0.004292139783501625,-0.06032833456993103,0.0794897973537445,-0.055987123399972916,0.05970391258597374,0.02898526005446911,-0.005255766678601503,0.06776535511016846,-0.08302170038223267,-0.06072721630334854,-0.06984347850084305,0.031422194093465805,-0.06858807802200317,-0.0741695836186409,0.046398088335990906,-0.04621366783976555,0.07755248993635178,0.01853932999074459,-0.007669931743294001,-0.08152967691421509,0.018849030137062073,0.006359652150422335,0.01324403565376997,-0.003558776341378689,-0.08757369965314865,0.09683382511138916,0.07453243434429169,-0.04519413039088249,0.04812692478299141,0.0017491918988525867,-0.08590586483478546,-0.08341658115386963,0.030465809628367424,-0.09006614983081818,-0.022291362285614014,0.033503733575344086,0.01218675822019577,-0.0366191603243351,-0.009210219606757164,0.0586940199136734,-0.04028933867812157,-0.05964568629860878,0.019152123481035233,0.021516215056180954,-0.030884956941008568,-0.020342987030744553,0.06592729687690735,-0.03795026242733002,-0.03452334553003311,0.039764538407325745,0.07283205538988113,0.019142862409353256,-0.04867919534444809,-0.013074814341962337,0.06379348784685135,0.06943992525339127,-0.006676264572888613,-0.059533149003982544,0.05801483988761902,-0.06055142730474472,0.024979183450341225,-0.051535606384277344,-0.03574109077453613,-0.05851883068680763,-0.07892519235610962,0.009635069407522678,-0.02172200009226799,0.04513832926750183,0.004159417003393173,-0.05859362706542015,-0.005591966211795807,-0.050178829580545425,0.07360666245222092,0.036813776940107346,0.03421211242675781,0.040418706834316254,-0.02143787033855915,0.07614809274673462
0.07840275764465332,-0.09515081346035004,-0.07546279579401016,0.05317302048206329,0.035710301250219345,0.06468605995178223,-0.04971814528107643,0.053311705589294434,-0.021550003439188004,0.042688868939876556,-0.02209344319999218,0.09146317094564438,-0.04800843447446823,-0.07521795481443405,-0.037799153476953506,-0.007132851518690586,0.008110756985843182,-0.09280954301357269,-0.03558491915464401,0.01202452089637518,-0.03521442040801048,0.05967402085661888,-0.04854733869433403,0.06180396303534508,-0.0688343420624733,-0.0855233445763588,-0.06739915162324905,0.007159465923905373,-0.02076844498515129,0.02529340237379074,0.06068333238363266,0.020960548892617226,0.018269240856170654,0.0090531837195158,-0.009025748819112778,-0.006591980345547199,-0.0023857378400862217,0.07271327078342438,0.04077286273241043,0.06012052297592163,0.0828627198934555,-0.014831474050879478,-0.09439748525619507,-0.06327084451913834,0.03768116235733032,0.009689669124782085,0.008207889273762703,0.08561157435178757,-0.03102598339319229,0.02056793123483658,0.05600718408823013,-0.0637788474559784,0.08730319142341614,-0.07873427122831345,-0.0476745180785656,0.07817629724740982,-0.005536967422813177,-0.05400215834379196,-0.013783327303826809,0.05969945341348648,-0.02254207618534565,0.013592551462352276,0.08395978808403015,0.03802591934800148,0.028250616043806076,-0.07645601034164429,-0.010185284540057182,-0.07614295184612274,-0.05051709711551666,0.0831790417432785,-0.0855773463845253,0.06686478853225708,-0.02370535023510456,0.05145673826336861,-0.057509198784828186,-0.08043484389781952,0.009529859758913517,0.029092222452163696,-0.09534961730241776,-0.0014314386062324047,0.06948233395814896,-0.046275414526462555,-0.009619695134460926,-0.08484867215156555,0.03895870968699455,-0.07133308053016663,-0.02433679811656475,-0.04793284833431244,-0.03447466343641281,0.05507026985287666,0.03925251588225365,0.041104115545749664,0.03807619959115982,-0.0316469743847847,-0.07148541510105133,-0.018368558958172798,0.0489225909113884,-0.0713687613606453,-0.059984467923641205,-0.052884291857481,0.07098909467458725,-0.0022490439005196095,0.03258692845702171,-0.04807783290743828,-0.04185892641544342,-0.025762703269720078,-0.08383331447839737,-0.06488846987485886,0.02433118037879467,-0.025062737986445427,-0.032771091908216476,0.04260498657822609,0.06008417531847954,-0.020543964579701424,-0.029830224812030792,0.07646642625331879,0.08501794934272766,0.06811555474996567,0.04276490956544876,-0.05110160633921623,-0.04579121991991997,0.052930910140275955,-0.038855861872434616,-0.015621475875377655,-0.062499407678842545,0.012969686649739742,0.01939796470105648,-0.0015388410538434982
0.03768034651875496,-0.019653940573334694,0.04048756882548332,0.055310480296611786,0.07448380440473557,0.028440022841095924,-0.031228812411427498,-0.02817525528371334,0.046716198325157166,0.03493303805589676,-0.08722466975450516,-0.0790027603507042,-0.08074210584163666,0.010492282919585705,-0.0368841178715229,0.057823654264211655,-0.0036532531958073378,0.029655784368515015,0.0766708180308342,-0.02179836854338646,-0.03401565179228783,-0.06787925958633423,-0.028145449236035347,-0.06915780156850815,-0.03156197443604469,-0.09101750701665878,-0.09082668274641037,-0.06537900865077972,0.013912901282310486,0.0761033296585083,0.08364660292863846,0.048979926854372025,-0.013215839862823486,-0.031111646443605423,0.027585715055465698,-0.021398097276687622,-0.06303143501281738,-0.04900669306516647,0.06800500303506851,0.002653115428984165,-0.04275629296898842,-0.022444261237978935,0.03847159817814827,0.06671673059463501,-0.0007476316532120109,0.012025939300656319,-0.033803541213274,0.08188571780920029,-0.06819413602352142,0.010108149610459805,0.028177471831440926,-0.03888069465756416,-0.0556635856628418,0.05857880786061287,-0.017682678997516632,-0.0411229208111763,-0.02173096500337124,0.08368320018053055,0.03637344017624855,-0.029089080169796944,0.034057363867759705,-0.002431918866932392,0.07428424805402756,0.07354682683944702,0.08848109841346741,0.05753109231591225,0.046591997146606445,0.020826829597353935,0.06954485923051834,0.09104181826114655,-0.05376935005187988,0.04317118600010872,0.03502166271209717,0.06271084398031235,-0.0745692253112793,0.0679626315832138,-0.004789131227880716,0.013226405717432499,-0.022340519353747368,-0.049741387367248535,-0.049348700791597366,0.06341338902711868,0.026214079931378365,-0.06664623320102692,0.03172699362039566,-0.08354807645082474,-0.046574659645557404,-0.05031188204884529,-0.005211767740547657,-0.02289596199989319,0.021448737010359764,-0.06049489229917526,-0.07121030986309052,-0.03432376682758331,-0.030205165967345238,0.08185487985610962,0.016211971640586853,-0.05707360804080963,0.044474419206380844,-0.02072557620704174,-0.0475907064974308,-0.02020197920501232,0.09280116111040115,0.06345543265342712,-0.022675637155771255,-0.0754905566573143,0.07217579334974289,-0.034955110400915146,-0.03264889121055603,-0.07563755661249161,0.08903142809867859,0.05965173989534378,-0.03772224485874176,-0.056253306567668915,0.0552276149392128,-0.006967856548726559,-0.03718527778983116,0.039430394768714905,-0.04986128211021423,-0.018245209008455276,0.02606685645878315,-0.0694998949766159,-0.04035506024956703,-0.0026742187328636646,0.060555461794137955,-0.0489356592297554,-0.03722182661294937,0.001451429445296526
-0.01381792314350605,-0.06799374520778656,-0.019126351922750473,-0.018564576283097267,0.09223832935094833,-0.007562619633972645,-0.08347126096487045,0.08473905175924301,-0.08288872241973877,-0.04275807738304138,0.07066382467746735,0.02226957306265831,-0.0544748529791832,0.06562294065952301,0.0862143263220787,0.06845264881849289,-0.08332107216119766,0.023859193548560143,0.06876596063375473,0.03246825560927391,-0.020033573731780052,0.08726812899112701,0.07969565689563751,-0.0690414160490036,0.0925556942820549,0.08105022460222244,-0.0155015354976058,0.02450900338590145,-0.018156960606575012,-0.07851535826921463,0.04723716154694557,0.01530480571091175,-0.05451785400509834,-0.0657656267285347,-0.0013498911866918206,0.004794083535671234,-0.04929561913013458,-0.015919974073767662,-0.03461439907550812,-0.03148718178272247,0.00994094368070364,-0.04370905086398125,-0.06127243489027023,-0.06353180855512619,0.09187351167201996,0.0454135499894619,-0.06716959178447723,0.015848372131586075,-0.07584232091903687,0.03042980656027794,0.0649423748254776,0.03234885260462761,0.05774389207363129,0.087682344019413,0.004682919010519981,0.04486558213829994,0.07099863141775131,-0.09339389950037003,-0.03900691121816635,-0.09334047883749008,-0.06393632292747498,-0.06782842427492142,0.07613716274499893,-0.08075147867202759,0.029634548351168633,-0.07898717373609543,0.07453375309705734,0.06628875434398651,0.056740131229162216,-0.04304385930299759,-0.04950808733701706,-0.08274776488542557,0.06423459947109222,-0.08592622727155685,0.043873898684978485,0.02205830067396164,-0.005686227232217789,0.054366204887628555,-0.009817002341151237,-0.06501942873001099,0.04935681074857712,-0.04792258143424988,-0.03663066402077675,0.019684001803398132,0.07708899676799774,-0.0680520310997963,-0.0752338320016861,0.07944558560848236,-0.045391667634248734,0.05355428159236908,0.09185447543859482,0.08434762060642242,-0.0024289144203066826,0.03695577010512352,-0.057566579431295395,-0.07143279910087585,0.03281499817967415,-0.024135343730449677,0.01072974968701601,-0.033380523324012756,-0.03022993914783001,0.08678232878446579,-0.07703446596860886,0.03483704477548599,-0.0033792934846132994,0.06077006086707115,-0.07004762440919876,-0.06654008477926254,-0.02058081142604351,-0.04476402699947357,0.05405903980135918,0.04398965463042259,-0.026603294536471367,0.06307737529277802,-0.07482554763555527,0.02291129343211651,-0.07958395034074783,-0.011899426579475403,-0.04660900682210922,-0.07105052471160889,-0.06593252718448639,0.07108496129512787,-0.061520714312791824,0.012964698486030102,0.0028567907866090536,-0.09376819431781769,-0.04908488318324089,-0.010139628313481808
-0.029734980314970016,-0.06410106271505356,-0.009928299114108086,0.018894899636507034,0.031184883788228035,0.004041710402816534,0.04274143651127815,0.03379133343696594,0.05074312910437584,-0.0006412335205823183,0.053697600960731506,0.016910240054130554,-0.04966599866747856,0.03371936455368996,0.021725056692957878,0.07077371329069138,0.09449319541454315,-0.02026844024658203,-0.0923101007938385,-0.05207313597202301,0.00677459966391325,-0.04958386719226837,0.004845897201448679,0.02673128992319107,-0.04878784343600273,0.03465733304619789,-0.012763156555593014,0.036380186676979065,-0.06414513289928436,-0.03604186326265335,0.0180820245295763,0.02239023707807064,0.07819372415542603,0.008075953461229801,0.006710981018841267,-0.00817091390490532,0.08421117812395096,-0.008878378197550774,-0.05529523268342018,0.03945357725024223,-0.0685759112238884,-0.0433741956949234,0.04717985540628433,0.030402896925807,0.07093449681997299,0.04709740728139877,0.0623035728931427,-0.018411800265312195,-0.0639374777674675,0.03598768264055252,-0.007929861545562744,-0.04531312361359596,0.025340016931295395,0.03877061605453491,0.06873098760843277,-0.021394386887550354,0.04483072832226753,0.08822079747915268,0.057448092848062515,0.0705651268362999,-0.014107619412243366,0.03442760184407234,0.07495870441198349,-0.019360603764653206,0.056769587099552155,0.04698866233229637,-0.021988507360219955,-0.031120339408516884,-0.04290558770298958,0.02365073375403881,0.011528201401233673,0.022335220128297806,-0.06962712109088898,0.026485687121748924,0.006653367541730404,0.07301638275384903,-0.06787462532520294,-0.03938009962439537,-0.038009703159332275,0.07265318185091019,-0.08048340678215027,0.08765386044979095,0.013739081099629402,-0.07647576183080673,0.015005795285105705,0.04654575139284134,0.07710596919059753,0.08101628720760345,-0.05090602859854698,0.03555517643690109,0.001885098172351718,-0.06797046214342117,0.07775111496448517,-0.04898896440863609,0.09450534731149673,0.0685124471783638,0.07457605749368668,0.06945067644119263,-0.03523940220475197,0.08907432854175568,0.05979553982615471,0.09037330001592636,-0.03532848134636879,0.07861724495887756,0.02374996617436409,-0.06078214570879936,-0.0651925578713417,-0.010966313071548939,-0.05454182252287865,0.004835185129195452,-0.07703861594200134,-0.0366184301674366,0.06014689803123474,-0.05543123185634613,-0.025160137563943863,0.0004537465574685484,-0.016479242593050003,-0.08467274904251099,0.030135957524180412,0.049001939594745636,0.07195919007062912,-0.03557128831744194,0.0320604108273983,0.07238569110631943,0.02414870262145996,-0.01607709564268589,0.004742984194308519,0.014170256443321705
-0.07909547537565231,0.011290605179965496,0.004358841106295586,-0.07443294674158096,-0.01018476951867342,0.018512224778532982,0.08549657464027405,-0.05508851632475853,0.039988916367292404,-0.04172126203775406,0.006850351579487324,-0.007496940437704325,0.027759669348597527,0.06268910318613052,0.09359835088253021,-0.030472612008452415,-0.05729920044541359,0.08358850330114365,0.04890782758593559,0.07949226349592209,0.049149706959724426,-0.08447438478469849,0.03950008749961853,0.004578277003020048,-0.02720728889107704,0.07324172556400299,0.01974198967218399,0.021892951801419258,-0.025395650416612625,-0.03376620262861252,0.08933984488248825,0.04782644286751747,0.019764242693781853,0.05906316637992859,0.009380975738167763,0.05709076300263405,0.009970943443477154,0.08822936564683914,-0.019984964281320572,0.04910900443792343,-0.011023800820112228,0.03633832558989525,-0.09195271879434586,0.044294022023677826,-0.018145592883229256,-0.07255945354700089,0.08397616446018219,-0.07056678086519241,0.08486814051866531,0.02717655338346958,-0.010839090682566166,0.05808481574058533,-0.05787890776991844,0.008127011358737946,-0.07207003235816956,-0.07121878117322922,0.06700478494167328,0.021984880790114403,0.017679553478956223,0.07916007936000824,-0.03395004943013191,0.01729355938732624,0.08839111775159836,-0.08800262957811356,-0.04141923040151596,0.02211064100265503,0.08424857258796692,0.03439859300851822,0.07441326230764389,0.030037613585591316,0.058209411799907684,0.018993176519870758,-0.012422030791640282,0.07441747933626175,0.03692379966378212,-0.00541036669164896,0.047325264662504196,-0.08274556696414948,0.023053353652358055,0.019660986959934235,0.06852398067712784,0.04801175743341446,0.04936065524816513,0.04467279464006424,-0.013074791990220547,0.03744684159755707,-0.023122305050492287,-0.007429117802530527,0.025933321565389633,-0.015241527929902077,0.08005629479885101,-0.018001707270741463,0.014894213527441025,0.048439834266901016,-0.07784099131822586,0.06939741224050522,-0.029283009469509125,0.02965468540787697,0.03379729017615318,0.0472237803041935,0.01562486495822668,0.04348170757293701,-0.0395469106733799,0.061080701649188995,-0.05185408145189285,0.01061759702861309,0.09617307782173157,-0.06503418833017349,-0.0640600398182869,0.05399256944656372,0.052632421255111694,-0.00010561844101175666,-0.09278501570224762,-0.00831061415374279,-0.0692996084690094,0.07289562374353409,0.07477018982172012,0.009410617873072624,0.004531910642981529,-0.04551415517926216,0.04206826910376549,-0.05230449140071869,0.02852935716509819,0.0644007995724678,-0.04308401420712471,-0.051233209669589996,0.021679196506738663,-0.0048085348680615425
-0.015673978254199028,-0.049890488386154175,0.020487075671553612,0.013773803599178791,0.03191864490509033,-0.044926244765520096,-0.0657598078250885,0.021353576332330704,-0.051070891320705414,0.06732457876205444,-0.06709609925746918,-0.04976485297083855,0.031192932277917862,0.06748174875974655,-0.06897203624248505,0.026488538831472397,-0.028675900772213936,0.006991977337747812,0.028204606845974922,0.045785896480083466,0.03210535645484924,-0.056412722915410995,-0.048035722225904465,0.038775734603405,-0.0722685381770134,0.08750707656145096,-0.06541012227535248,0.06418102979660034,-0.02399362437427044,0.010458380915224552,0.0351087786257267,0.046300508081912994,0.06645898520946503,0.08428468555212021,0.03206915408372879,0.008548308163881302,0.0026369597762823105,-0.008670790120959282,0.0700802206993103,0.08626440912485123,-0.04969175159931183,0.06608777493238449,-0.05875318497419357,0.09271103143692017,0.07307600229978561,0.06888556480407715,-0.05277571082115173,-0.016682777553796768,0.017650987952947617,-0.0426972396671772,0.07511848956346512,-0.0927666649222374,0.09410518407821655,0.024633029475808144,-0.02655160427093506,-0.08021747320890427,0.07712490856647491,-0.020779289305210114,0.07421737909317017,0.034271351993083954,-0.0017882606480270624,0.055533517152071,-0.037999123334884644,-0.019112281501293182,-0.08070401847362518,-0.06471078097820282,0.028810296207666397,-0.007055675145238638,0.059676509350538254,-0.004648154601454735,-0.027009932324290276,-0.0791119635105133,0.07247597724199295,0.033890221267938614,-0.06647332012653351,-0.07431993633508682,0.0780361145734787,-0.07559674233198166,0.04131469503045082,-0.004381311126053333,0.05405358597636223,0.0465489886701107,-0.04877311363816261,-0.048146143555641174,0.01275771576911211,0.04773176833987236,0.0023011788725852966,-0.02133997157216072,0.09338607639074326,0.09022510796785355,-0.024857256561517715,0.021574009209871292,0.023974470794200897,0.06368949264287949,0.06300079822540283,0.0277106910943985,-0.04940570145845413,0.015454807318747044,0.017854351550340652,-0.022382594645023346,-0.03011685609817505,0.014793484471738338,-0.08319365978240967,-0.035343874245882034,-0.02201397716999054,0.0408211350440979,0.008788011036813259,-0.07075908780097961,0.026394816115498543,-0.02154039405286312,-0.08949127793312073,-0.00021953304531052709,-0.024532219395041466,-0.029449462890625,0.09740407019853592,0.030381763353943825,-0.05573160946369171,-0.043923091143369675,0.01753789372742176,-0.060711465775966644,-0.040437981486320496,0.003734715050086379,0.008647635579109192,0.0444197915494442,-0.04502427950501442,0.01130201667547226,0.03962615132331848,-0.006161374505609274
-0.053544700145721436,-0.055481329560279846,0.06391628831624985,-0.017152201384305954,0.06260529905557632,0.07845542579889297,-0.07172700762748718,-0.01565287820994854,0.01001122035086155,0.05178225040435791,-0.05974428728222847,-0.0006382088176906109,0.08207552880048752,-0.03430517390370369,-0.017845753580331802,-0.01945866458117962,0.08086738735437393,0.05638907104730606,-0.022092608734965324,-0.09164506196975708,-0.07787525653839111,0.04784640669822693,-0.0925191193819046,-0.0687912106513977,0.011748322285711765,0.047860972583293915,0.0647512897849083,-0.02598896622657776,-0.06736506521701813,0.058376263827085495,-0.05410729721188545,-0.03374921530485153,0.03586756810545921,-0.009847596287727356,-0.07872352004051208,-0.0648408904671669,-0.05537545680999756,0.0454568937420845,0.02135607972741127,0.04981878399848938,0.06864771246910095,-0.013153061270713806,0.02264787070453167,-0.01519032008945942,-0.08941284567117691,-0.001411504577845335,0.08452640473842621,0.02202467992901802,0.0358920581638813,-0.04201894253492355,-0.01893196627497673,0.05718095228075981,-0.010678600519895554,-0.011218610219657421,0.010745150037109852,0.01637277938425541,-0.055535025894641876,0.04538914933800697,0.03628415986895561,-0.0718487873673439,0.015279976651072502,-0.005283034406602383,0.01374819502234459,0.012563872151076794,0.077095627784729,-0.049225155264139175,0.01885240338742733,0.05757606402039528,0.09742997586727142,-0.07973264902830124,-0.060672372579574585,-0.04922495782375336,0.008897991850972176,0.05693022161722183,0.013231507502496243,0.028333738446235657,-0.07343018800020218,0.06770359724760056,-0.04367503151297569,-0.031708456575870514,0.03342825546860695,-0.07529160380363464,0.02610771730542183,0.05221888795495033,-0.011548787355422974,-0.029368823394179344,0.07815475016832352,-0.059742800891399384,-0.05521787703037262,0.0537215955555439,0.06027548015117645,0.008603712543845177,0.0065840380266308784,0.019005559384822845,-0.07680805772542953,0.05508400872349739,0.024030523374676704,-0.034353092312812805,-0.0776214674115181,-0.03109080158174038,-0.010288966819643974,0.043448735028505325,0.06514924019575119,0.05932076647877693,0.02528814785182476,0.0006213334854692221,-0.037625256925821304,0.06449736654758453,0.09110622107982635,-0.08036384731531143,-0.028497634455561638,0.09186847507953644,0.03694992884993553,-0.04999605566263199,0.037071287631988525,-0.005039838142693043,0.07728545367717743,-0.09429135918617249,-0.01782345026731491,-0.04796052351593971,-0.08124233037233353,-0.08862961083650589,0.07154864817857742,-0.07571258395910263,-0.08306796848773956,0.05844157561659813,-0.027328776195645332,0.06358426064252853
0.08823713660240173,-0.047991178929805756,-0.04673430323600769,0.003371740225702524,-0.06211455911397934,-0.05946803092956543,0.06938585638999939,-0.02017301321029663,0.03557037189602852,-0.01601320132613182,-0.02620154246687889,0.01237365510314703,-0.02523183636367321,0.08132331818342209,-0.05948171019554138,0.004958413075655699,-0.015850519761443138,-0.00931184459477663,-0.07226882129907608,0.07526826113462448,-0.041438374668359756,-0.034873995929956436,-0.05932499095797539,0.04848358407616615,-0.056401293724775314,0.0716191828250885,-0.0591733492910862,-0.03364041447639465,-0.07580528408288956,-0.03060460276901722,-0.036688175052404404,0.04877942427992821,0.001875903457403183,0.07922440022230148,0.07932492345571518,0.06900253891944885,0.052358102053403854,0.04931388795375824,-0.029316026717424393,-0.05739672854542732,0.06976272910833359,0.03472617641091347,0.0348455011844635,0.045821916311979294,-0.0865062028169632,-0.026579685509204865,0.05938027426600456,-0.032555073499679565,0.06279831379652023,-0.05105019733309746,-0.07478833943605423,-0.020610397681593895,-0.06704483926296234,-0.016553698107600212,-0.022478794679045677,-0.01009875163435936,0.07929374277591705,0.07197121530771255,0.08809340000152588,0.016700632870197296,0.022033536806702614,-0.06355965882539749,0.05807681381702423,0.07358294725418091,-0.05603155121207237,0.07267455011606216,0.022510813549160957,-0.0029133784119039774,-0.052001431584358215,0.052355289459228516,0.03472808375954628,-0.03512221947312355,-0.0733579471707344,0.06628282368183136,0.008360284380614758,-0.005890191067010164,0.07605426013469696,0.014832043088972569,-0.015106930397450924,-0.07430742681026459,0.051573026925325394,-0.058413587510585785,-0.022481044754385948,-0.051411863416433334,-0.02932487428188324,-0.014166316017508507,-0.046561866998672485,0.014126763679087162,0.028913989663124084,0.043352436274290085,-0.03974056988954544,-0.06346548348665237,-0.003946605138480663,-0.015502388589084148,0.0069571142084896564,0.08377618342638016,0.07344483584165573,-0.02665763907134533,0.017829515039920807,0.04889267310500145,0.08030007034540176,-0.06054916977882385,0.07835930585861206,0.0765995979309082,0.05430728942155838,0.011536390520632267,0.06351716071367264,-0.0284221563488245,-0.0006152762798592448,0.011363294906914234,0.0022775214165449142,-0.08822667598724365,-0.059748705476522446,-0.005232824012637138,-0.009812462143599987,0.027074437588453293,0.03847142308950424,-0.07144121080636978,-0.006481724791228771,0.05126951262354851,0.014533208683133125,-0.024935079738497734,-0.08676254004240036,-0.04901469126343727,0.07550027966499329,-0.022161496803164482,0.0717809796333313,0.0212691742926836
-0.07719375193119049,-0.0898229107260704,0.07553649693727493,-0.028335388749837875,-0.014304670505225658,0.02788260206580162,-0.07604411244392395,-0.02662120759487152,0.049249306321144104,-0.05853159353137016,-0.020490050315856934,0.058250583708286285,-0.04133033752441406,-0.0256277397274971,0.056872718036174774,-0.05176673084497452,-0.005126690026372671,-0.03423455357551575,-0.09277567267417908,-0.06631163507699966,0.019105084240436554,0.09122195839881897,-0.05646241828799248,0.05782906338572502,-0.07724127918481827,-0.0215713270008564,-0.03799372911453247,-0.01320946216583252,0.020532818511128426,0.03733140975236893,0.05168048292398453,-0.053340353071689606,-0.07205536961555481,-0.08034278452396393,-0.005080098286271095,-0.04672764241695404,-0.09702693670988083,0.03089265152812004,-0.03582455590367317,0.07246999442577362,0.03463861346244812,-0.0364825539290905,0.08568597584962845,0.08025723695755005,0.004352782852947712,-0.05703599005937576,-0.0511971116065979,0.038322750478982925,-0.05872388929128647,0.039126742631196976,-0.024746296927332878,-0.07051651924848557,0.06081920489668846,-0.07032493501901627,-0.04174736142158508,0.01673150435090065,0.07923214882612228,-0.03268266096711159,-0.007244380656629801,0.05367302522063255,-0.029743865132331848,-0.013291076757013798,-0.0665707215666771,-0.0011815165635198355,-0.02075890451669693,-0.009449705481529236,-0.055756691843271255,0.014421934261918068,-0.07020556926727295,0.03261091560125351,0.049058109521865845,0.056322164833545685,-0.0003906887723132968,-0.020328523591160774,0.03919737786054611,-0.08490154892206192,-0.01675269566476345,0.06205235794186592,-0.005148688331246376,0.003561171004548669,-0.046134039759635925,0.057857222855091095,0.087994284927845,-0.03635932132601738,0.04848875105381012,0.08601240068674088,-0.042370375245809555,-0.079889677464962,-0.06912566721439362,-0.01924661546945572,-0.002320146420970559,-0.05041135847568512,-0.04833744093775749,-0.0758281946182251,-0.008057578466832638,0.052693117409944534,-0.061585888266563416,0.0322304368019104,0.01278119906783104,-0.006273047067224979,0.04135017469525337,-0.02668858878314495,-0.031128909438848495,-0.059032704681158066,-0.0897601842880249,0.019792508333921432,-0.01908445917069912,0.0671864002943039,0.024543974548578262,0.01705576479434967,-0.05709941312670708,-0.006408799905329943,-0.035162318497896194,0.029079768806695938,-0.05968942865729332,0.08792471140623093,-0.03811560943722725,-0.04420137032866478,0.03309595212340355,0.06838817894458771,0.004175395704805851,0.06419526040554047,0.037659354507923126,0.02618226781487465,-0.030038202181458473,-0.07610118389129639,0.07678336650133133,0.027902312576770782
